{"learner":{"attributes":{"scikit_learn":"{\"_estimator_type\": \"regressor\"}"},"feature_names":[],"feature_types":[],"gradient_booster":{"model":{"cats":{"enc":[],"feature_segments":[],"sorted_idx":[]},"gbtree_model_param":{"num_parallel_tree":"1","num_trees":"300"},"iteration_indptr":[0,1,2,3,4,5,6,7,8,9,10,11,12,13,14,15,16,17,18,19,20,21,22,23,24,25,26,27,28,29,30,31,32,33,34,35,36,37,38,39,40,41,42,43,44,45,46,47,48,49,50,51,52,53,54,55,56,57,58,59,60,61,62,63,64,65,66,67,68,69,70,71,72,73,74,75,76,77,78,79,80,81,82,83,84,85,86,87,88,89,90,91,92,93,94,95,96,97,98,99,100,101,102,103,104,105,106,107,108,109,110,111,112,113,114,115,116,117,118,119,120,121,122,123,124,125,126,127,128,129,130,131,132,133,134,135,136,137,138,139,140,141,142,143,144,145,146,147,148,149,150,151,152,153,154,155,156,157,158,159,160,161,162,163,164,165,166,167,168,169,170,171,172,173,174,175,176,177,178,179,180,181,182,183,184,185,186,187,188,189,190,191,192,193,194,195,196,197,198,199,200,201,202,203,204,205,206,207,208,209,210,211,212,213,214,215,216,217,218,219,220,221,222,223,224,225,226,227,228,229,230,231,232,233,234,235,236,237,238,239,240,241,242,243,244,245,246,247,248,249,250,251,252,253,254,255,256,257,258,259,260,261,262,263,264,265,266,267,268,269,270,271,272,273,274,275,276,277,278,279,280,281,282,283,284,285,286,287,288,289,290,291,292,293,294,295,296,297,298,299,300],"tree_info":[0,0,0,0,0,0,0,0,0,0,0,0,0,0,0,0,0,0,0,0,0,0,0,0,0,0,0,0,0,0,0,0,0,0,0,0,0,0,0,0,0,0,0,0,0,0,0,0,0,0,0,0,0,0,0,0,0,0,0,0,0,0,0,0,0,0,0,0,0,0,0,0,0,0,0,0,0,0,0,0,0,0,0,0,0,0,0,0,0,0,0,0,0,0,0,0,0,0,0,0,0,0,0,0,0,0,0,0,0,0,0,0,0,0,0,0,0,0,0,0,0,0,0,0,0,0,0,0,0,0,0,0,0,0,0,0,0,0,0,0,0,0,0,0,0,0,0,0,0,0,0,0,0,0,0,0,0,0,0,0,0,0,0,0,0,0,0,0,0,0,0,0,0,0,0,0,0,0,0,0,0,0,0,0,0,0,0,0,0,0,0,0,0,0,0,0,0,0,0,0,0,0,0,0,0,0,0,0,0,0,0,0,0,0,0,0,0,0,0,0,0,0,0,0,0,0,0,0,0,0,0,0,0,0,0,0,0,0,0,0,0,0,0,0,0,0,0,0,0,0,0,0,0,0,0,0,0,0,0,0,0,0,0,0,0,0,0,0,0,0,0,0,0,0,0,0,0,0,0,0,0,0,0,0,0,0,0,0,0,0,0,0,0,0,0,0,0,0,0,0],"trees":[{"base_weights":[-4.1109294E-2,-1.2850763E-1,1.9474842E-1,2.3528035E-1,-1.6538809E-1,2.2842346E-1,-2.9424539E-2,4.3256512E-1,-2.680312E-2,-1.20753914E-1,-3.1728175E-1,1.5395394E-1,5.062629E-2,5.250355E-3,5.7065554E-2,4.454631E-2,-3.3784673E-2,-3.966176E-2,-9.23403E-2,-3.8960752E-1,-2.680312E-2,3.956833E-1,6.27268E-2,5.7065554E-2,-1.3175972E-1,-4.3760803E-2,-1.5754433E-1,2.0689072E-2,-2.9424539E-2,1.6947635E-1,5.7065554E-2,-3.648808E-2,1.624777E-1,-1.4814131E-2,2.0689072E-2,5.250355E-3,-2.9424539E-2,4.454631E-2,-7.831431E-3,5.7065554E-2,5.239998E-3],"categories":[],"categories_nodes":[],"categories_segments":[],"categories_sizes":[],"default_left":[0,0,0,0,0,0,0,0,0,0,0,0,0,0,0,0,0,0,0,0,0,0,0,0,0,0,0,0,0,0,0,0,0,0,0,0,0,0,0,0,0],"id":0,"left_children":[1,3,5,7,9,11,-1,13,15,17,19,21,-1,-1,-1,-1,-1,-1,23,25,27,29,31,-1,33,-1,35,-1,-1,37,-1,-1,39,-1,-1,-1,-1,-1,-1,-1,-1],"loss_changes":[2.533977E0,1.238476E0,6.156436E-1,4.5845994E-1,5.160308E-1,5.784099E-1,0E0,2.318865E-1,8.340589E-1,4.713766E-1,3.667904E-1,5.5854887E-1,0E0,0E0,0E0,0E0,0E0,0E0,1.6448939E0,9.037328E-2,3.517113E-1,1.8271172E-1,9.291825E-1,0E0,3.4965706E-1,0E0,1.3070104E-1,0E0,0E0,3.4273112E-1,0E0,0E0,7.441951E-1,0E0,0E0,0E0,0E0,0E0,0E0,0E0,0E0],"parents":[2147483647,0,0,1,1,2,2,3,3,4,4,5,5,7,7,8,8,9,9,10,10,11,11,18,18,19,19,20,20,21,21,22,22,24,24,26,26,29,29,32,32],"right_children":[2,4,6,8,10,12,-1,14,16,18,20,22,-1,-1,-1,-1,-1,-1,24,26,28,30,32,-1,34,-1,36,-1,-1,38,-1,-1,40,-1,-1,-1,-1,-1,-1,-1,-1],"split_conditions":[1E0,1.35E-2,5.1833332E1,1E0,1.39E-1,2.099E0,-2.9424539E-2,1.35E1,1.39E1,1.2583333E1,3.574E0,1.036E0,5.062629E-2,5.250355E-3,5.7065554E-2,4.454631E-2,-3.3784673E-2,-3.966176E-2,9.25E-1,1E0,5.1833332E1,1.2E1,1.495E1,5.7065554E-2,1.2966667E-1,-4.3760803E-2,1.69E0,2.0689072E-2,-2.9424539E-2,1.3466666E1,5.7065554E-2,-3.648808E-2,1.12E0,-1.4814131E-2,2.0689072E-2,5.250355E-3,-2.9424539E-2,4.454631E-2,-7.831431E-3,5.7065554E-2,5.239998E-3],"split_indices":[8,13,1,9,13,0,0,1,1,1,0,0,0,0,0,0,0,0,0,9,1,5,1,0,13,0,0,0,0,1,0,0,0,0,0,0,0,0,0,0,0],"split_type":[0,0,0,0,0,0,0,0,0,0,0,0,0,0,0,0,0,0,0,0,0,0,0,0,0,0,0,0,0,0,0,0,0,0,0,0,0,0,0,0,0],"sum_hessian":[1.20713524E2,8.840845E1,3.2305077E1,7.6425905E0,8.076586E1,3.0722229E1,1.5828468E0,3.9892068E0,3.6533835E0,6.3810143E1,1.6955715E1,2.5453909E1,5.26832E0,1.4309801E0,2.5582268E0,1.2791134E0,2.3742702E0,4.7485404E0,5.9061604E1,1.3302331E1,3.6533835E0,6.059744E0,1.9394165E1,2.5582268E0,5.6503376E1,1.0288504E1,3.0138268E0,2.0705369E0,1.5828468E0,3.5015168E0,2.5582268E0,3.1656935E0,1.6228472E1,5.443284E1,2.0705369E0,1.4309801E0,1.5828468E0,1.2791134E0,2.2224035E0,2.5582268E0,1.3670244E1],"tree_param":{"num_deleted":"0","num_feature":"18","num_nodes":"41","size_leaf_vector":"1"}},{"base_weights":[-1.9382257E-2,-8.9054726E-2,1.6345175E-1,4.7035996E-2,-1.5577084E-1,8.977471E-2,3.8445422E-1,3.5758033E-1,-3.813061E-2,-2.5888994E-1,-1.00845784E-1,-3.344409E-2,1.6418184E-1,5.354428E-2,1.572454E-1,-6.781245E-3,5.9928127E-2,-8.556021E-2,4.5868125E-2,-3.170339E-1,-8.763216E-3,5.1756125E-2,-1.4570497E-1,3.7554288E-1,6.493709E-2,-2.7653072E-2,4.825985E-2,2.8908E-1,-1.5174364E-1,-2.1246447E-1,-3.8880043E-2,-3.0065266E-2,4.3671567E-2,2.4198212E-2,-2.2115926E-1,1.4704305E-1,5.6408342E-2,-3.4285888E-2,1.5459827E-1,3.8210738E-3,4.3190844E-2,-3.9066084E-2,-9.310093E-4,-1.511392E-3,-3.5209063E-2,4.4879995E-2,-2.2010487E-2,-3.2139238E-2,-6.238596E-3,3.9542187E-2,-8.203557E-3,8.784255E-4,2.726825E-2],"categories":[],"categories_nodes":[],"categories_segments":[],"categories_sizes":[],"default_left":[0,0,0,0,0,0,0,0,0,0,0,0,0,0,0,0,0,0,0,0,0,0,0,0,0,0,0,0,0,0,0,0,0,0,0,0,0,0,0,0,0,0,0,0,0,0,0,0,0,0,0,0,0],"id":1,"left_children":[1,3,5,7,9,11,13,15,17,19,21,-1,23,-1,25,-1,-1,27,-1,29,31,-1,33,35,37,-1,-1,39,41,43,-1,-1,-1,45,47,49,-1,-1,51,-1,-1,-1,-1,-1,-1,-1,-1,-1,-1,-1,-1,-1,-1],"loss_changes":[1.5403799E0,8.006667E-1,5.093794E-1,7.94172E-1,3.0729544E-1,8.86829E-1,1.9186032E-1,7.0361716E-1,6.0628015E-1,2.854625E-1,1.1863377E0,0E0,4.600395E-1,0E0,7.8665495E-1,0E0,0E0,6.09432E-1,0E0,3.7863135E-2,7.5110763E-1,0E0,4.9401993E-1,2.2594368E-1,6.718029E-1,0E0,0E0,1.1853668E-1,6.783519E-1,2.3546126E-1,0E0,0E0,0E0,1.4082576E0,4.0158737E-1,2.9383057E-1,0E0,0E0,2.4835178E-1,0E0,0E0,0E0,0E0,0E0,0E0,0E0,0E0,0E0,0E0,0E0,0E0,0E0,0E0],"parents":[2147483647,0,0,1,1,2,2,3,3,4,4,5,5,6,6,7,7,8,8,9,9,10,10,12,12,14,14,17,17,19,19,20,20,22,22,23,23,24,24,27,27,28,28,29,29,33,33,34,34,35,35,38,38],"right_children":[2,4,6,8,10,12,14,16,18,20,22,-1,24,-1,26,-1,-1,28,-1,30,32,-1,34,36,38,-1,-1,40,42,44,-1,-1,-1,46,48,50,-1,-1,52,-1,-1,-1,-1,-1,-1,-1,-1,-1,-1,-1,-1,-1,-1],"split_conditions":[1E0,5E-2,1.1122346E1,9.91E-1,1.6716667E1,1.495E1,3.3E-2,1E0,2.066E0,1.3157895E1,1.69E0,-3.344409E-2,1.798E0,5.354428E-2,3.8E-2,-6.781245E-3,5.9928127E-2,1.4E1,4.5868125E-2,1.1702127E1,1.2366667E1,5.1756125E-2,8E-2,1.144E0,2.5583334E1,-2.7653072E-2,4.825985E-2,1E0,1.941E0,1.102E0,-3.8880043E-2,-3.0065266E-2,4.3671567E-2,1.876E0,3.279E0,1.12E0,5.6408342E-2,-3.4285888E-2,5.25E-2,3.8210738E-3,4.3190844E-2,-3.9066084E-2,-9.310093E-4,-1.511392E-3,-3.5209063E-2,4.4879995E-2,-2.2010487E-2,-3.2139238E-2,-6.238596E-3,3.9542187E-2,-8.203557E-3,8.784255E-4,2.726825E-2],"split_indices":[8,13,6,0,1,1,13,7,0,6,0,0,0,0,13,0,0,1,0,6,1,0,13,0,1,0,0,0,0,0,0,0,0,0,0,0,0,0,13,0,0,0,0,0,0,0,0,0,0,0,0,0,0],"split_type":[0,0,0,0,0,0,0,0,0,0,0,0,0,0,0,0,0,0,0,0,0,0,0,0,0,0,0,0,0,0,0,0,0,0,0,0,0,0,0,0,0,0,0,0,0,0,0,0,0,0,0,0,0],"sum_hessian":[1.1878051E2,8.637757E1,3.240294E1,2.8512136E1,5.7865437E1,2.5356045E1,7.046895E0,5.448088E0,2.3064049E1,1.8819408E1,3.904603E1,3.2622592E0,2.2093786E1,3.41854E0,3.628355E0,2.2346132E0,3.213475E0,2.1809702E1,1.2543455E0,1.5052777E1,3.7666318E0,1.9281412E0,3.7117886E1,6.16986E0,1.5923926E1,1.6193805E0,2.0089746E0,2.7687814E0,1.904092E1,7.738164E0,7.3146133E0,2.4720092E0,1.2946227E0,1.1623692E1,2.5494194E1,3.594022E0,2.5758379E0,2.3611286E0,1.3562798E1,1.4643214E0,1.30446E0,6.46082E0,1.2580101E1,3.6655064E0,4.0726576E0,3.939584E0,7.6841073E0,1.5000316E1,1.0493877E1,1.3759768E0,2.2180452E0,6.5495734E0,7.0132246E0],"tree_param":{"num_deleted":"0","num_feature":"18","num_nodes":"53","size_leaf_vector":"1"}},{"base_weights":[2.2700416E-2,-3.271174E-2,1.6943651E-1,1.3809118E-1,-9.490059E-2,3.173859E-1,2.9883431E-2,2.5923788E-3,5.153311E-1,-3.8231447E-2,-2.1134323E-1,3.7222484E-1,5.6379135E-3,-3.1048065E-2,1.0368759E-1,2.1215624E-1,-1.3369316E-1,6.3742705E-2,6.177367E-3,-1.5251687E-1,4.4055115E-2,-3.6011994E-2,-6.283308E-2,2.4470869E-1,5.0848342E-2,1.6994435E-1,-2.925152E-2,-2.7702635E-2,3.898241E-1,-2.8304866E-1,1.6138506E-1,-8.261779E-3,-2.4546427E-1,2.6861075E-1,-1.615722E-1,2.82015E-1,-2.0169686E-1,3.9900503E-1,-2.3935616E-2,4.7292956E-3,3.157724E-1,3.1066486E-3,4.999071E-2,-3.717744E-2,7.3701716E-3,4.1323504E-3,2.0587463E-2,-1.2367997E-2,2.3600928E-2,-2.8659368E-2,-5.8902944E-3,-2.3613362E-2,3.6454663E-2,-2.7644465E-2,7.96959E-3,3.4803606E-3,4.1891795E-2,-2.9492179E-2,-1.1939462E-2,1.7533656E-2,4.6829212E-2,1.3510967E-2,-2.9916799E-2,4.8392616E-2,1.06735E-2],"categories":[],"categories_nodes":[],"categories_segments":[],"categories_sizes":[],"default_left":[0,0,0,0,0,0,0,0,0,0,0,0,0,0,0,0,0,0,0,0,0,0,0,0,0,0,0,0,0,0,0,0,0,0,0,0,0,0,0,0,0,0,0,0,0,0,0,0,0,0,0,0,0,0,0,0,0,0,0,0,0,0,0,0,0],"id":2,"left_children":[1,3,5,7,9,11,13,15,17,19,21,23,-1,-1,25,27,29,-1,-1,31,33,-1,35,37,-1,39,-1,-1,41,43,45,47,49,51,53,55,57,59,-1,61,63,-1,-1,-1,-1,-1,-1,-1,-1,-1,-1,-1,-1,-1,-1,-1,-1,-1,-1,-1,-1,-1,-1,-1,-1],"loss_changes":[9.7086024E-1,9.373915E-1,6.6577387E-1,1.2066841E0,4.167632E-1,2.0475149E-1,4.8270348E-1,5.53671E-1,3.0619848E-1,4.254634E-1,4.3816608E-1,9.8915935E-2,0E0,0E0,4.5628706E-1,7.71515E-1,5.638883E-1,0E0,0E0,2.5089923E-1,1.2745982E0,0E0,6.146838E-1,7.354366E-1,0E0,3.334354E-1,0E0,0E0,2.2205323E-1,2.8600454E-1,1.6001202E-2,2.6676184E-1,7.087791E-2,7.214367E-1,4.250904E-1,1.1270645E-1,3.2977194E-2,2.4387956E-2,0E0,3.3888382E-1,2.0736384E-1,0E0,0E0,0E0,0E0,0E0,0E0,0E0,0E0,0E0,0E0,0E0,0E0,0E0,0E0,0E0,0E0,0E0,0E0,0E0,0E0,0E0,0E0,0E0,0E0],"parents":[2147483647,0,0,1,1,2,2,3,3,4,4,5,5,6,6,7,7,8,8,9,9,10,10,11,11,14,14,15,15,16,16,19,19,20,20,22,22,23,23,25,25,28,28,29,29,30,30,31,31,32,32,33,33,34,34,35,35,36,36,37,37,39,39,40,40],"right_children":[2,4,6,8,10,12,14,16,18,20,22,24,-1,-1,26,28,30,-1,-1,32,34,-1,36,38,-1,40,-1,-1,42,44,46,48,50,52,54,56,58,60,-1,62,64,-1,-1,-1,-1,-1,-1,-1,-1,-1,-1,-1,-1,-1,-1,-1,-1,-1,-1,-1,-1,-1,-1,-1,-1],"split_conditions":[1E0,3.5E-2,1.798E0,1E0,1E0,1.17E-1,2.5583334E1,1.445E1,2.81E1,8.8E-2,1.806E0,1.495E1,5.6379135E-3,-3.1048065E-2,5.1833332E1,9.86E-1,2.026E0,6.3742705E-2,6.177367E-3,1.2E1,1.2833333E-1,-3.6011994E-2,1.872E0,1.036E0,5.0848342E-2,2.099E0,-2.925152E-2,-2.7702635E-2,1.35E1,2.6E-2,2.034E0,2.7683332E1,7.8E-2,1.2433333E1,1.2E1,1.844E0,2.191E0,9.67E-1,-2.3935616E-2,2.048E0,3.192E0,3.1066486E-3,4.999071E-2,-3.717744E-2,7.3701716E-3,4.1323504E-3,2.0587463E-2,-1.2367997E-2,2.3600928E-2,-2.8659368E-2,-5.8902944E-3,-2.3613362E-2,3.6454663E-2,-2.7644465E-2,7.96959E-3,3.4803606E-3,4.1891795E-2,-2.9492179E-2,-1.1939462E-2,1.7533656E-2,4.6829212E-2,1.3510967E-2,-2.9916799E-2,4.8392616E-2,1.06735E-2],"split_indices":[8,13,0,10,10,13,1,1,1,13,0,1,0,0,1,0,0,0,0,5,13,0,0,0,0,0,0,0,1,13,0,1,13,1,5,0,0,0,0,0,0,0,0,0,0,0,0,0,0,0,0,0,0,0,0,0,0,0,0,0,0,0,0,0,0],"split_type":[0,0,0,0,0,0,0,0,0,0,0,0,0,0,0,0,0,0,0,0,0,0,0,0,0,0,0,0,0,0,0,0,0,0,0,0,0,0,0,0,0,0,0,0,0,0,0,0,0,0,0,0,0,0,0,0,0,0,0,0,0,0,0,0,0],"sum_hessian":[1.1772118E2,8.601594E1,3.1705246E1,2.2633118E1,6.338282E1,1.4771114E1,1.6934132E1,1.7392773E1,5.240345E0,4.352758E1,1.9855242E1,1.1854342E1,2.9167721E0,2.4461868E0,1.4487945E1,6.634427E0,1.0758345E1,3.8094592E0,1.430886E0,1.7863707E1,2.5663872E1,9.206916E0,1.0648326E1,7.567908E0,4.286434E0,1.2901502E1,1.5864431E0,1.6186028E0,5.0158243E0,7.169985E0,3.5883603E0,7.4265413E0,1.0437165E1,1.2120912E1,1.354296E1,2.7609732E0,7.8873525E0,5.871939E0,1.6959689E0,6.532723E0,6.3687787E0,1.4787681E0,3.5370562E0,5.7082086E0,1.4617761E0,1.4916799E0,2.0966806E0,5.3787546E0,2.047787E0,8.112492E0,2.3246741E0,1.7024572E0,1.0418454E1,9.075933E0,4.467027E0,1.4310634E0,1.3299098E0,2.4869492E0,5.400403E0,2.2237952E0,3.648144E0,4.9601088E0,1.5726142E0,2.8007667E0,3.568012E0],"tree_param":{"num_deleted":"0","num_feature":"18","num_nodes":"65","size_leaf_vector":"1"}},{"base_weights":[-3.2885673E-3,-5.3956375E-2,1.2526305E-1,3.6260816E-3,-1.7841998E-1,1.5023388E-1,-2.6928196E-2,9.625883E-2,-1.3907784E-1,-2.0827296E-1,7.989829E-3,5.3368032E-2,2.8646833E-1,5.3228755E-2,5.209572E-2,4.444028E-2,-1.8561646E-1,-1.3197158E-1,-3.2166604E-2,-6.315265E-2,2.75286E-1,3.5159993E-1,2.3759339E-2,-2.7964426E-2,2.1763405E-1,-3.2235742E-1,-3.44666E-2,-3.522949E-2,-6.1876588E-2,1.1392133E-1,-2.6980186E-1,3.9458197E-2,1.2011454E-1,3.9941567E-1,3.654735E-5,3.4818877E-2,-2.9639488E-2,1.3901755E-2,-2.3280235E-2,-2.1820953E-2,3.0501446E-2,3.8216822E-3,-3.709809E-2,2.13262E-2,-2.4557184E-2,4.2548817E-2,-1.3929116E-2,-9.725565E-3,3.5611108E-2,-3.5657268E-2,-6.5962845E-3,-6.066509E-3,3.111732E-2,5.8102687E-3,4.506412E-2],"categories":[],"categories_nodes":[],"categories_segments":[],"categories_sizes":[],"default_left":[0,0,0,0,0,0,0,0,0,0,0,0,0,0,0,0,0,0,0,0,0,0,0,0,0,0,0,0,0,0,0,0,0,0,0,0,0,0,0,0,0,0,0,0,0,0,0,0,0,0,0,0,0,0,0],"id":3,"left_children":[1,3,5,7,9,11,-1,13,15,17,-1,19,21,23,-1,-1,25,27,-1,29,31,33,35,37,39,41,43,-1,45,47,49,-1,51,53,-1,-1,-1,-1,-1,-1,-1,-1,-1,-1,-1,-1,-1,-1,-1,-1,-1,-1,-1,-1,-1],"loss_changes":[8.809737E-1,6.956315E-1,4.1726077E-1,9.0274686E-1,2.5332886E-1,4.678542E-1,0E0,7.2861826E-1,8.1269926E-1,1.9799185E-1,0E0,6.0245895E-1,2.4805164E-1,5.225928E-1,0E0,0E0,5.182078E-1,2.6093885E-1,0E0,6.033958E-1,1.0026276E-1,2.0030677E-1,5.2381736E-1,9.4862646E-1,5.5806196E-1,2.4781752E-1,7.4707454E-1,0E0,6.290564E-1,5.0164306E-1,1.0946435E-1,0E0,1.8828075E-1,1.574763E-1,0E0,0E0,0E0,0E0,0E0,0E0,0E0,0E0,0E0,0E0,0E0,0E0,0E0,0E0,0E0,0E0,0E0,0E0,0E0,0E0,0E0],"parents":[2147483647,0,0,1,1,2,2,3,3,4,4,5,5,7,7,8,8,9,9,11,11,12,12,13,13,16,16,17,17,19,19,20,20,21,21,22,22,23,23,24,24,25,25,26,26,28,28,29,29,30,30,32,32,33,33],"right_children":[2,4,6,8,10,12,-1,14,16,18,-1,20,22,24,-1,-1,26,28,-1,30,32,34,36,38,40,42,44,-1,46,48,50,-1,52,54,-1,-1,-1,-1,-1,-1,-1,-1,-1,-1,-1,-1,-1,-1,-1,-1,-1,-1,-1,-1,-1],"split_conditions":[1E0,1.045E-1,5.1833332E1,2.7266666E1,3.574E0,8.35E-2,-2.6928196E-2,2.68E1,3.7117229E0,1E0,7.989829E-3,1.1122346E1,9.981852E0,7.766667E-2,5.209572E-2,4.444028E-2,5.717008E0,1.215E-1,-3.2166604E-2,6.0672917E0,1.1375388E1,3.495E0,1.12E0,4.9E-2,1.2433333E1,1.55E-2,5.926724E0,-3.522949E-2,1.25E-1,1.2E1,7.85E-2,3.9458197E-2,1.455E1,9.45E-2,3.654735E-5,3.4818877E-2,-2.9639488E-2,1.3901755E-2,-2.3280235E-2,-2.1820953E-2,3.0501446E-2,3.8216822E-3,-3.709809E-2,2.13262E-2,-2.4557184E-2,4.2548817E-2,-1.3929116E-2,-9.725565E-3,3.5611108E-2,-3.5657268E-2,-6.5962845E-3,-6.066509E-3,3.111732E-2,5.8102687E-3,4.506412E-2],"split_indices":[8,13,1,1,0,13,0,1,6,10,0,6,6,13,0,0,6,13,0,6,6,0,0,13,1,13,6,0,13,5,13,0,1,13,0,0,0,0,0,0,0,0,0,0,0,0,0,0,0,0,0,0,0,0,0],"split_type":[0,0,0,0,0,0,0,0,0,0,0,0,0,0,0,0,0,0,0,0,0,0,0,0,0,0,0,0,0,0,0,0,0,0,0,0,0,0,0,0,0,0,0,0,0,0,0,0,0,0,0,0,0,0,0],"sum_hessian":[1.3321733E2,9.597117E1,3.7246155E1,6.627859E1,2.9692587E1,3.561152E1,1.6346369E0,4.03875E1,2.5891087E1,2.6790258E1,2.9023278E0,2.162639E1,1.3985127E1,3.7693737E1,2.6937637E0,1.2810259E0,2.461006E1,1.7307802E1,9.482456E0,1.4649775E1,6.9766164E0,1.0935581E1,3.0495458E0,2.5787989E1,1.1905747E1,1.23262E1,1.2283861E1,3.2056878E0,1.4102115E1,8.131101E0,6.5186734E0,3.0719895E0,3.9046266E0,9.504498E0,1.4310837E0,1.4711673E0,1.5783784E0,1.4383786E1,1.14042015E1,1.7382612E0,1.0167486E1,1.4901102E0,1.083609E1,5.6469913E0,6.6368694E0,1.3166833E0,1.2785432E1,4.6633406E0,3.4677606E0,4.0467525E0,2.471921E0,2.3569555E0,1.5476712E0,1.5188348E0,7.9856634E0],"tree_param":{"num_deleted":"0","num_feature":"18","num_nodes":"55","size_leaf_vector":"1"}},{"base_weights":[-9.254963E-3,-6.630185E-2,1.453566E-1,7.125972E-2,-1.08401984E-1,1.7965649E-1,-1.6807534E-1,-1.1257843E-1,3.1259152E-1,-3.1785524E-1,-6.6127084E-2,1.22694865E-1,4.4700503E-2,3.1682153E-3,-3.0498642E-2,-2.654289E-2,6.878903E-3,4.2699358E-1,3.0977732E-2,1.9813146E-4,-3.6425706E-2,5.1864382E-2,-9.977823E-2,4.1937456E-2,6.135449E-2,4.0652398E-2,-1.812839E-1,-3.6006927E-4,5.402118E-2,-2.661486E-2,3.319711E-2,-1.34855E-2,-1.7810531E-1,9.5426455E-2,-2.6761834E-2,-2.675298E-4,-2.7606685E-2,1.9150656E-2,-9.753566E-3,-2.4971938E-2,-3.070262E-3,5.7657887E-3,4.156932E-2],"categories":[],"categories_nodes":[],"categories_segments":[],"categories_sizes":[],"default_left":[0,0,0,0,0,0,0,0,0,0,0,0,0,0,0,0,0,0,0,0,0,0,0,0,0,0,0,0,0,0,0,0,0,0,0,0,0,0,0,0,0,0,0],"id":4,"left_children":[1,3,5,7,9,11,13,15,17,19,21,23,-1,-1,-1,-1,25,27,29,-1,-1,-1,31,-1,33,-1,35,-1,-1,-1,-1,37,39,41,-1,-1,-1,-1,-1,-1,-1,-1,-1],"loss_changes":[1.2039615E0,5.845442E-1,4.2591965E-1,1.0974301E0,6.5775293E-1,4.5777583E-1,1.23091854E-1,2.6339415E-1,3.2883167E-1,1.8788207E-1,1.3317447E0,5.0434875E-1,0E0,0E0,0E0,0E0,7.5166774E-1,3.6620915E-1,4.590868E-1,0E0,0E0,0E0,4.1899514E-1,0E0,3.092154E-1,0E0,1.1474018E-1,0E0,0E0,0E0,0E0,5.484255E-1,3.364539E-1,2.623508E-1,0E0,0E0,0E0,0E0,0E0,0E0,0E0,0E0,0E0],"parents":[2147483647,0,0,1,1,2,2,3,3,4,4,5,5,6,6,7,7,8,8,9,9,10,10,11,11,16,16,17,17,18,18,22,22,24,24,26,26,31,31,32,32,33,33],"right_children":[2,4,6,8,10,12,14,16,18,20,22,24,-1,-1,-1,-1,26,28,30,-1,-1,-1,32,-1,34,-1,36,-1,-1,-1,-1,38,40,42,-1,-1,-1,-1,-1,-1,-1,-1,-1],"split_conditions":[1E0,1.4E1,4.98E1,1.325E1,1.6033333E1,2.099E0,3.548E0,1.2566667E1,1E0,9.99E-1,1.139E0,9.83E-1,4.4700503E-2,3.1682153E-3,-3.0498642E-2,-2.654289E-2,9.25E-1,1E-2,9.86E-1,1.9813146E-4,-3.6425706E-2,5.1864382E-2,8E-2,4.1937456E-2,2.056E0,4.0652398E-2,1.2916667E1,-3.6006927E-4,5.402118E-2,-2.661486E-2,3.319711E-2,2.7266666E1,3.279E0,2.004E0,-2.6761834E-2,-2.675298E-4,-2.7606685E-2,1.9150656E-2,-9.753566E-3,-2.4971938E-2,-3.070262E-3,5.7657887E-3,4.156932E-2],"split_indices":[8,1,1,1,1,0,0,1,9,0,0,0,0,0,0,0,0,13,0,0,0,0,13,0,0,0,1,0,0,0,0,1,0,0,0,0,0,0,0,0,0,0,0],"split_type":[0,0,0,0,0,0,0,0,0,0,0,0,0,0,0,0,0,0,0,0,0,0,0,0,0,0,0,0,0,0,0,0,0,0,0,0,0,0,0,0,0,0,0],"sum_hessian":[1.3440921E2,9.860002E1,3.580919E1,2.294264E1,7.565738E1,3.266172E1,3.147471E0,1.3325358E1,9.617282E0,1.1611049E1,6.4046326E1,2.8127724E1,4.5339966E0,1.5925236E0,1.5549476E0,5.309581E0,8.015779E0,6.4719114E0,3.145371E0,1.5923905E0,1.0018659E1,2.7008085E0,6.134552E1,3.819146E0,2.4308577E1,2.1944418E0,5.8213363E0,1.5489824E0,4.9229293E0,1.6411105E0,1.5042603E0,2.9746286E1,3.1599234E1,2.2670502E1,1.6380752E0,2.3746953E0,3.446641E0,8.278111E0,2.1468174E1,2.0799757E1,1.0799477E1,2.1334578E1,1.3359237E0],"tree_param":{"num_deleted":"0","num_feature":"18","num_nodes":"43","size_leaf_vector":"1"}},{"base_weights":[-1.6065586E-2,4.164063E-2,-1.0900799E-1,2.1933353E-2,4.377787E-2,-3.000175E-2,-7.7363744E-2,7.3916405E-2,-1.911131E-1,4.400929E-2,-1.0210284E-1,2.0035559E-1,1.8231846E-2,-2.5147945E-1,1.3613059E-2,-3.2371417E-2,-6.573691E-2,-2.1923587E-2,2.775065E-1,-1.2371534E-1,9.840952E-2,-1.3562812E-1,-3.0518983E-2,4.2029377E-2,-9.3494736E-2,1.5026261E-2,3.8602576E-2,1.966937E-2,-2.0634197E-2,1.7066678E-2,-8.96985E-3,-2.2072783E-2,6.5025776E-3,-2.7677629E-3,-2.2853727E-2],"categories":[],"categories_nodes":[],"categories_segments":[],"categories_sizes":[],"default_left":[0,0,0,0,0,0,0,0,0,0,0,0,0,0,0,0,0,0,0,0,0,0,0,0,0,0,0,0,0,0,0,0,0,0,0],"id":5,"left_children":[1,3,5,7,-1,-1,9,11,13,-1,15,17,19,21,-1,-1,23,-1,25,27,29,31,-1,-1,33,-1,-1,-1,-1,-1,-1,-1,-1,-1,-1],"loss_changes":[7.301949E-1,6.4769953E-1,2.917177E-1,9.1404974E-1,0E0,0E0,6.343796E-1,4.6132693E-1,3.5459316E-1,0E0,3.3941358E-1,7.11261E-1,5.4650575E-1,4.5986533E-2,0E0,0E0,5.749184E-1,0E0,1.8243992E-1,5.009689E-1,4.3068013E-1,1.21041305E-1,0E0,0E0,3.3475503E-1,0E0,0E0,0E0,0E0,0E0,0E0,0E0,0E0,0E0,0E0],"parents":[2147483647,0,0,1,1,2,2,3,3,6,6,7,7,8,8,10,10,11,11,12,12,13,13,16,16,18,18,19,19,20,20,21,21,24,24],"right_children":[2,4,6,8,-1,-1,10,12,14,-1,16,18,20,22,-1,-1,24,-1,26,28,30,32,-1,-1,34,-1,-1,-1,-1,-1,-1,-1,-1,-1,-1],"split_conditions":[2.7266666E1,2.6883333E1,2.77E1,1E0,4.377787E-2,-3.000175E-2,2.785E1,9.91E-1,1.806E0,4.400929E-2,2.026E0,1.2433333E1,6.4E-2,9.71E-1,1.3613059E-2,-3.2371417E-2,2.031E0,-2.1923587E-2,1E0,1.4E1,1.39E-1,9.36E-1,-3.0518983E-2,4.2029377E-2,1.64E-1,1.5026261E-2,3.8602576E-2,1.966937E-2,-2.0634197E-2,1.7066678E-2,-8.96985E-3,-2.2072783E-2,6.5025776E-3,-2.7677629E-3,-2.2853727E-2],"split_indices":[1,1,1,10,0,0,1,0,0,0,0,1,13,0,0,0,0,0,7,1,13,0,0,0,13,0,0,0,0,0,0,0,0,0,0],"split_type":[0,0,0,0,0,0,0,0,0,0,0,0,0,0,0,0,0,0,0,0,0,0,0,0,0,0,0,0,0,0,0,0,0,0,0],"sum_hessian":[1.3429886E2,8.319599E1,5.1102875E1,8.025861E1,2.9373784E0,6.0575614E0,4.5045315E1,6.5041595E1,1.5217014E1,1.2892511E0,4.375606E1,1.9092194E1,4.5949406E1,1.3042583E1,2.1744313E0,5.0542493E0,3.8701813E1,2.679246E0,1.6412949E1,1.6389784E1,2.955962E1,5.2480035E0,7.79458E0,1.3268923E0,3.737492E1,8.65234E0,7.760608E0,3.0770612E0,1.3312723E1,2.1423143E1,8.136476E0,3.6148572E0,1.6331463E0,2.5938133E1,1.1436788E1],"tree_param":{"num_deleted":"0","num_feature":"18","num_nodes":"35","size_leaf_vector":"1"}},{"base_weights":[1.8668412E-3,-3.8730517E-2,1.131283E-1,-8.426439E-3,-1.4570403E-1,5.8151096E-2,3.03642E-1,3.08959E-1,-2.3575796E-2,-1.8733698E-1,8.4602006E-2,1.02710515E-1,-1.8348153E-1,1.4103402E-1,3.824729E-2,6.8594376E-3,4.3637354E-2,-2.5437894E-1,1.821306E-2,9.326042E-3,-2.4157491E-1,-2.0058436E-2,3.7764505E-2,3.3915672E-1,1.5059416E-2,-2.8174654E-2,1.954907E-3,2.5500825E-2,-2.9573506E-3,3.952992E-3,-3.0103425E-2,1.3224067E-1,-1.350958E-2,-2.7058605E-2,-1.2200332E-1,4.008585E-2,1.4013613E-2,-2.9962528E-2,7.541768E-2,2.5668582E-2,-1.6352769E-2,-1.811531E-2,4.6332604E-3,-2.4548069E-2,1.0766123E-2,1.2085991E-2,-2.2034578E-2],"categories":[],"categories_nodes":[],"categories_segments":[],"categories_sizes":[],"default_left":[0,0,0,0,0,0,0,0,0,0,0,0,0,0,0,0,0,0,0,0,0,0,0,0,0,0,0,0,0,0,0,0,0,0,0,0,0,0,0,0,0,0,0,0,0,0,0],"id":6,"left_children":[1,3,5,7,9,11,13,15,17,19,21,23,25,27,-1,-1,-1,29,31,-1,33,-1,-1,35,37,-1,-1,-1,-1,-1,-1,39,41,-1,43,-1,-1,-1,45,-1,-1,-1,-1,-1,-1,-1,-1],"loss_changes":[6.385743E-1,3.3466026E-1,3.781525E-1,4.0060472E-1,2.34572E-1,3.4792745E-1,5.1505268E-2,8.637181E-2,7.6663375E-1,3.212809E-1,4.2518374E-1,5.4298604E-1,1.0760841E-1,9.0571225E-2,0E0,0E0,0E0,1.7889482E-1,2.4713182E-1,0E0,2.5018632E-2,0E0,0E0,3.1084597E-2,4.089399E-1,0E0,0E0,0E0,0E0,0E0,0E0,5.887476E-1,5.4984075E-1,0E0,1.7070118E-1,0E0,0E0,0E0,2.667504E-1,0E0,0E0,0E0,0E0,0E0,0E0,0E0,0E0],"parents":[2147483647,0,0,1,1,2,2,3,3,4,4,5,5,6,6,7,7,8,8,9,9,10,10,11,11,12,12,13,13,17,17,18,18,20,20,23,23,24,24,31,31,32,32,34,34,38,38],"right_children":[2,4,6,8,10,12,14,16,18,20,22,24,26,28,-1,-1,-1,30,32,-1,34,-1,-1,36,38,-1,-1,-1,-1,-1,-1,40,42,-1,44,-1,-1,-1,46,-1,-1,-1,-1,-1,-1,-1,-1],"split_conditions":[1E0,1.3166666E-1,1.0848126E1,3.7117229E0,1E0,1.03092785E1,1.35E1,3.468208E0,5.623722E0,3.077784E0,2E0,1.798E0,1.0723861E1,1.3416667E1,3.824729E-2,6.8594376E-3,4.3637354E-2,1.55E-2,5.9685297E0,9.326042E-3,3.429E0,-2.0058436E-2,3.7764505E-2,1.39E-1,2.5583334E1,-2.8174654E-2,1.954907E-3,2.5500825E-2,-2.9573506E-3,3.952992E-3,-3.0103425E-2,1E0,6.2606716E0,-2.7058605E-2,3.3500838E0,4.008585E-2,1.4013613E-2,-2.9962528E-2,5.1833332E1,2.5668582E-2,-1.6352769E-2,-1.811531E-2,4.6332604E-3,-2.4548069E-2,1.0766123E-2,1.2085991E-2,-2.2034578E-2],"split_indices":[8,13,6,6,9,6,1,6,6,6,15,0,6,1,0,0,0,13,6,0,0,0,0,13,1,0,0,0,0,0,0,7,6,0,6,0,0,0,1,0,0,0,0,0,0,0,0],"split_type":[0,0,0,0,0,0,0,0,0,0,0,0,0,0,0,0,0,0,0,0,0,0,0,0,0,0,0,0,0,0,0,0,0,0,0,0,0,0,0,0,0,0,0,0,0,0,0],"sum_hessian":[1.3940375E2,1.026137E2,3.6790047E1,8.080232E1,2.181138E1,2.9563917E1,7.22613E0,2.7975826E0,7.800474E1,1.863014E1,3.18124E0,2.5446302E1,4.1176157E0,3.2700093E0,3.956121E0,1.5021558E0,1.295427E0,1.1178387E1,6.6826355E1,2.90124E0,1.5728901E1,1.7721323E0,1.4091079E0,6.1058536E0,1.9340448E1,2.5134323E0,1.6041837E0,1.6638013E0,1.6062078E0,1.5522957E0,9.626091E0,1.3855142E1,5.297121E1,1.1641429E1,4.0874715E0,3.886712E0,2.2191412E0,2.4746203E0,1.6865828E1,9.844983E0,4.010159E0,1.3401292E1,3.956992E1,2.613485E0,1.4739864E0,1.5132219E1,1.733609E0],"tree_param":{"num_deleted":"0","num_feature":"18","num_nodes":"47","size_leaf_vector":"1"}},{"base_weights":[-9.585204E-3,-5.8917325E-2,1.13889396E-1,-3.0938728E-2,-3.141154E-2,5.737102E-2,2.898825E-1,-5.4458994E-2,5.4407448E-2,1.2839152E-1,-2.0940368E-1,3.5352003E-2,8.687139E-3,-2.6412297E-2,-1.8543532E-2,1.7383872E-1,-1.3434814E-1,-2.5757005E-2,-8.544327E-3,-3.379892E-2,3.115419E-2,-1.5841397E-2,2.3520179E-1,-2.7200637E-2,5.191848E-3,7.6578953E-3,-8.108853E-3,-2.0758469E-2,3.8095526E-2,1.008444E-2,3.4813803E-2],"categories":[],"categories_nodes":[],"categories_segments":[],"categories_sizes":[],"default_left":[0,0,0,0,0,0,0,0,0,0,0,0,0,0,0,0,0,0,0,0,0,0,0,0,0,0,0,0,0,0,0],"id":7,"left_children":[1,3,5,7,-1,9,11,13,-1,15,17,-1,-1,-1,19,21,23,-1,-1,25,-1,27,29,-1,-1,-1,-1,-1,-1,-1,-1],"loss_changes":[8.419588E-1,6.945533E-1,3.7613076E-1,1.2468324E0,0E0,6.167768E-1,9.010166E-2,6.5303195E-1,0E0,3.2436493E-1,1.934591E-2,0E0,0E0,0E0,3.9157158E-1,2.5894302E-1,1.23904325E-1,0E0,0E0,3.8844666E-1,0E0,5.581441E-1,2.1724021E-1,0E0,0E0,0E0,0E0,0E0,0E0,0E0,0E0],"parents":[2147483647,0,0,1,1,2,2,3,3,5,5,6,6,7,7,9,9,10,10,14,14,15,15,16,16,19,19,21,21,22,22],"right_children":[2,4,6,8,-1,10,12,14,-1,16,18,-1,-1,-1,20,22,24,-1,-1,26,-1,28,30,-1,-1,-1,-1,-1,-1,-1,-1],"split_conditions":[1E0,4.785E1,1.1122346E1,3.153E0,-3.141154E-2,1.03092785E1,1.036E0,5.623722E0,5.4407448E-2,4.98E1,1.093E0,3.5352003E-2,8.687139E-3,-2.6412297E-2,1.3157895E1,3.5E-2,3.1047134E0,-2.5757005E-2,-8.544327E-3,3E-2,3.115419E-2,5.863539E0,2.5583334E1,-2.7200637E-2,5.191848E-3,7.6578953E-3,-8.108853E-3,-2.0758469E-2,3.8095526E-2,1.008444E-2,3.4813803E-2],"split_indices":[8,1,6,0,0,6,0,6,0,1,0,0,0,0,6,13,6,0,0,13,0,6,1,0,0,0,0,0,0,0,0],"split_type":[0,0,0,0,0,0,0,0,0,0,0,0,0,0,0,0,0,0,0,0,0,0,0,0,0,0,0,0,0,0,0],"sum_hessian":[1.3612239E2,9.763634E1,3.8486057E1,8.900006E1,8.636274E0,3.0134619E1,8.3514385E0,8.637239E1,2.6276746E0,2.4208567E1,5.926053E0,5.7938633E0,2.557575E0,1.1702514E1,7.4669876E1,2.092708E1,3.2814856E0,3.4915333E0,2.4345198E0,7.2229294E1,2.4405787E0,5.296585E0,1.5630495E1,1.6222634E0,1.6592221E0,2.1478153E1,5.0751144E1,3.892479E0,1.4041064E0,8.002753E0,7.627742E0],"tree_param":{"num_deleted":"0","num_feature":"18","num_nodes":"31","size_leaf_vector":"1"}},{"base_weights":[-2.170593E-2,7.330587E-2,-5.574714E-2,-1.9877258E-1,1.3058834E-1,-2.028609E-2,-1.624322E-1,-2.918264E-2,6.836951E-3,2.3585887E-1,-1.1096312E-1,-3.850371E-2,4.3290403E-2,-8.075175E-2,-2.3672989E-2,3.462253E-2,1.7540255E-1,6.5405457E-3,-2.0128056E-1,-2.9695166E-2,-1.9175457E-2,1.9571431E-1,-1.7679791E-1,-1.749379E-1,2.7437848E-1,4.4662724E-3,-2.8812146E-2,4.0622046E-3,-2.634649E-2,1.0949925E-3,2.9384404E-2,7.4590594E-3,-2.2357717E-2,-2.2806635E-3,-2.5480067E-2,3.996802E-4,3.12146E-2,3.7371684E-2,-9.623302E-4],"categories":[],"categories_nodes":[],"categories_segments":[],"categories_sizes":[],"default_left":[0,0,0,0,0,0,0,0,0,0,0,0,0,0,0,0,0,0,0,0,0,0,0,0,0,0,0,0,0,0,0,0,0,0,0,0,0,0,0],"id":8,"left_children":[1,3,5,7,9,11,13,-1,-1,15,17,19,-1,21,-1,-1,23,-1,25,-1,27,29,31,33,35,-1,-1,37,-1,-1,-1,-1,-1,-1,-1,-1,-1,-1,-1],"loss_changes":[4.5549613E-1,6.0646385E-1,3.8758808E-1,1.9084218E-1,8.239197E-1,6.663275E-1,1.3644099E-1,0E0,0E0,8.7197065E-2,1.7568244E-1,3.7678093E-1,0E0,3.9911553E-1,0E0,0E0,6.1495906E-1,0E0,1.6221434E-1,0E0,4.1154027E-1,6.9560245E-2,1.4266494E-1,4.536766E-2,1.3291502E-1,0E0,0E0,3.4260294E-1,0E0,0E0,0E0,0E0,0E0,0E0,0E0,0E0,0E0,0E0,0E0],"parents":[2147483647,0,0,1,1,2,2,3,3,4,4,5,5,6,6,9,9,10,10,11,11,13,13,16,16,18,18,20,20,21,21,22,22,23,23,24,24,27,27],"right_children":[2,4,6,8,10,12,14,-1,-1,16,18,20,-1,22,-1,-1,24,-1,26,-1,28,30,32,34,36,-1,-1,38,-1,-1,-1,-1,-1,-1,-1,-1,-1,-1,-1],"split_conditions":[3.5E-2,5.609383E0,1E0,1E0,1E0,1.9566667E-1,5.973121E0,-2.918264E-2,6.836951E-3,9.91E-1,5.8252425E0,3.9E-2,4.3290403E-2,1.872E0,-2.3672989E-2,3.462253E-2,1.018E0,6.5405457E-3,2E-3,-2.9695166E-2,1.735E-1,1.844E0,3.077784E0,1.009E0,1.2E1,4.4662724E-3,-2.8812146E-2,5E-2,-2.634649E-2,1.0949925E-3,2.9384404E-2,7.4590594E-3,-2.2357717E-2,-2.2806635E-3,-2.5480067E-2,3.996802E-4,3.12146E-2,3.7371684E-2,-9.623302E-4],"split_indices":[13,6,10,7,9,13,6,0,0,0,6,13,0,0,0,0,0,0,13,0,13,0,6,0,5,0,0,13,0,0,0,0,0,0,0,0,0,0,0],"split_type":[0,0,0,0,0,0,0,0,0,0,0,0,0,0,0,0,0,0,0,0,0,0,0,0,0,0,0,0,0,0,0,0,0,0,0,0,0,0,0],"sum_hessian":[1.3856876E2,3.6246998E1,1.0232176E2,5.87449E0,3.0372507E1,7.7688896E1,2.4632866E1,4.2883306E0,1.5861592E0,2.1169983E1,9.202524E0,7.556627E1,2.122622E0,1.2727516E1,1.1905351E1,5.8194256E0,1.5350557E1,3.2099936E0,5.992531E0,4.2586107E0,7.130766E1,3.0140245E0,9.713491E0,3.2123766E0,1.2138181E1,1.69051E0,4.3020205E0,6.6011765E1,5.295897E0,1.4310833E0,1.5829412E0,1.4306662E0,8.282825E0,1.5483962E0,1.6639802E0,1.623219E0,1.0514961E1,1.41747E0,6.459429E1],"tree_param":{"num_deleted":"0","num_feature":"18","num_nodes":"39","size_leaf_vector":"1"}},{"base_weights":[8.253375E-3,-1.0993347E-4,2.0842017E-1,1.6341647E-2,-2.23456E-2,3.9514136E-2,-3.3700676E-3,-1.9984322E-2,2.4474777E-2,1.4668037E-1,-2.9905562E-3,5.1317792E-2,3.008261E-1,-1.595529E-1,2.5921464E-2,-5.7779667E-3,3.4461197E-2,3.700878E-2,9.958366E-3,-2.7261034E-2,-5.899085E-3,3.6246136E-2,4.9688277E-4],"categories":[],"categories_nodes":[],"categories_segments":[],"categories_sizes":[],"default_left":[0,0,0,0,0,0,0,0,0,0,0,0,0,0,0,0,0,0,0,0,0,0,0],"id":9,"left_children":[1,3,5,7,-1,-1,-1,-1,9,11,13,15,17,19,21,-1,-1,-1,-1,-1,-1,-1,-1],"loss_changes":[2.3182538E-1,4.9570325E-1,2.644035E-1,2.2583085E-1,0E0,0E0,0E0,0E0,4.0989822E-1,3.139288E-1,4.594452E-1,5.0141984E-1,7.964319E-2,1.637735E-1,6.02979E-1,0E0,0E0,0E0,0E0,0E0,0E0,0E0,0E0],"parents":[2147483647,0,0,1,1,2,2,3,3,8,8,9,9,10,10,11,11,12,12,13,13,14,14],"right_children":[2,4,6,8,-1,-1,-1,-1,10,12,14,16,18,20,22,-1,-1,-1,-1,-1,-1,-1,-1],"split_conditions":[1.95E-1,1.735E-1,5.1083332E1,1.2433333E1,-2.23456E-2,3.9514136E-2,-3.3700676E-3,-1.9984322E-2,1.4E1,1.3566667E1,1.5033334E1,7.766667E-2,1.39E1,1.2E1,1.535E1,-5.7779667E-3,3.4461197E-2,3.700878E-2,9.958366E-3,-2.7261034E-2,-5.899085E-3,3.6246136E-2,4.9688277E-4],"split_indices":[13,13,1,1,0,0,0,0,1,1,1,13,1,5,1,0,0,0,0,0,0,0,0],"split_type":[0,0,0,0,0,0,0,0,0,0,0,0,0,0,0,0,0,0,0,0,0,0,0],"sum_hessian":[1.3746751E2,1.329136E2,4.5539055E0,1.2465817E2,8.255437E0,2.214277E0,2.3396285E0,3.6651144E0,1.2099306E2,2.1406294E1,9.958676E1,1.4048239E1,7.3580546E0,1.4819372E1,8.476739E1,1.0824731E1,3.223508E0,4.8498607E0,2.508194E0,6.1708703E0,8.648501E0,4.0129275E0,8.075446E1],"tree_param":{"num_deleted":"0","num_feature":"18","num_nodes":"23","size_leaf_vector":"1"}},{"base_weights":[3.2027236E-3,-2.638087E-2,7.79674E-2,6.30559E-2,-5.1585782E-2,9.333819E-2,-1.6026026E-2,-9.411497E-2,3.128368E-1,-1.8013147E-1,-2.072804E-2,4.9256347E-2,2.689794E-1,1.3666134E-3,-2.643159E-2,9.656298E-3,3.803349E-2,8.371601E-3,-2.3424703E-1,3.980272E-2,-4.131406E-2,-2.596323E-2,8.4626794E-2,3.484806E-2,-1.0359823E-3,-1.8951349E-2,1.8200378E-1,-2.8771585E-2,-6.2661275E-2,-6.323586E-2,5.7875678E-2,2.0624858E-1,2.8284105E-2,3.731457E-2,-1.5731165E-2,-1.930037E-2,9.912959E-3,-1.256816E-3,-1.6832493E-2,4.8566192E-2,-1.2101714E-2,2.4096785E-2,9.1453217E-4,-2.6641114E-2,6.58432E-3],"categories":[],"categories_nodes":[],"categories_segments":[],"categories_sizes":[],"default_left":[0,0,0,0,0,0,0,0,0,0,0,0,0,0,0,0,0,0,0,0,0,0,0,0,0,0,0,0,0,0,0,0,0,0,0,0,0,0,0,0,0,0,0,0,0],"id":10,"left_children":[1,3,5,7,9,11,-1,13,15,17,19,21,23,25,-1,-1,-1,-1,27,-1,29,-1,31,-1,-1,-1,33,-1,35,37,39,41,43,-1,-1,-1,-1,-1,-1,-1,-1,-1,-1,-1,-1],"loss_changes":[3.19038E-1,2.3640919E-1,1.6466269E-1,9.398373E-1,3.1851524E-1,2.8900048E-1,0E0,2.4416493E-1,9.739435E-2,2.4230272E-1,5.909436E-1,3.762824E-1,1.7255962E-1,4.0017426E-1,0E0,0E0,0E0,0E0,1.0312462E-1,0E0,1.4375025E-1,0E0,1.9872613E-1,0E0,0E0,0E0,4.4519302E-1,0E0,1.1225368E-1,2.8138328E-1,9.911647E-1,6.138417E-2,2.5617602E-1,0E0,0E0,0E0,0E0,0E0,0E0,0E0,0E0,0E0,0E0,0E0,0E0],"parents":[2147483647,0,0,1,1,2,2,3,3,4,4,5,5,7,7,8,8,9,9,10,10,11,11,12,12,13,13,18,18,20,20,22,22,26,26,28,28,29,29,30,30,31,31,32,32],"right_children":[2,4,6,8,10,12,-1,14,16,18,20,22,24,26,-1,-1,-1,-1,28,-1,30,-1,32,-1,-1,-1,34,-1,36,38,40,42,44,-1,-1,-1,-1,-1,-1,-1,-1,-1,-1,-1,-1],"split_conditions":[1E0,9.91E-1,5.1833332E1,1.325E1,1.6033333E1,2.099E0,-1.6026026E-2,1.2916667E1,1.1235955E1,1.395E1,1.139E0,5.5452867E0,3.495E0,1.2433333E1,-2.643159E-2,9.656298E-3,3.803349E-2,8.371601E-3,1E0,3.980272E-2,3.153E0,-2.596323E-2,3.3E-2,3.484806E-2,-1.0359823E-3,-1.8951349E-2,1E0,-2.8771585E-2,1.066E0,1E0,4.785E1,2.048E0,3.8E-2,3.731457E-2,-1.5731165E-2,-1.930037E-2,9.912959E-3,-1.256816E-3,-1.6832493E-2,4.8566192E-2,-1.2101714E-2,2.4096785E-2,9.1453217E-4,-2.6641114E-2,6.58432E-3],"split_indices":[8,0,1,1,1,0,0,1,6,1,0,6,0,1,0,0,0,0,7,0,0,0,13,0,0,0,10,0,0,7,1,0,13,0,0,0,0,0,0,0,0,0,0,0,0],"split_type":[0,0,0,0,0,0,0,0,0,0,0,0,0,0,0,0,0,0,0,0,0,0,0,0,0,0,0,0,0,0,0,0,0,0,0,0,0,0,0,0,0,0,0,0,0],"sum_hessian":[1.4231316E2,1.0242988E2,3.9883278E1,2.2189878E1,8.0240005E1,3.803726E1,1.8460222E0,1.4002332E1,8.187548E0,1.45966215E1,6.564338E1,3.1429598E1,6.6076584E0,9.605617E0,4.396715E0,2.5256379E0,5.661909E0,2.3911707E0,1.2205451E1,2.216716E0,6.3426666E1,2.5777593E0,2.885184E1,4.95105E0,1.6566088E0,4.6465E0,4.959116E0,8.789652E0,3.4157987E0,5.2242985E1,1.1183679E1,8.292016E0,2.0559824E1,3.1084013E0,1.8507148E0,1.7849121E0,1.6308868E0,3.6003727E1,1.6239258E1,2.7921033E0,8.391575E0,6.8609324E0,1.4310833E0,1.6353631E0,1.892446E1],"tree_param":{"num_deleted":"0","num_feature":"18","num_nodes":"45","size_leaf_vector":"1"}},{"base_weights":[-1.7757414E-2,-2.860654E-2,3.0054528E-1,-6.708427E-3,-1.3213374E-1,9.942735E-3,3.6453154E-2,-2.002447E-2,6.5198694E-3,-2.7100995E-2,-8.856896E-2,-1.1072185E-1,3.581549E-2,9.804843E-2,-1.5910314E-1,-5.569062E-2,-2.7566973E-2,1.9322984E-2,2.4445549E-1,2.3529729E-1,-1.3763067E-2,-1.8938271E-2,-1.4246458E-3,-1.4930454E-2,9.901479E-3,1.5256084E-2,-1.3190113E-3,4.5944102E-2,-5.619187E-3,7.6956796E-3,3.1088827E-2],"categories":[],"categories_nodes":[],"categories_segments":[],"categories_sizes":[],"default_left":[0,0,0,0,0,0,0,0,0,0,0,0,0,0,0,0,0,0,0,0,0,0,0,0,0,0,0,0,0,0,0],"id":11,"left_children":[1,3,5,7,9,-1,-1,-1,11,-1,13,15,17,19,21,23,-1,25,27,29,-1,-1,-1,-1,-1,-1,-1,-1,-1,-1,-1],"loss_changes":[5.052155E-1,3.1646085E-1,2.5873184E-2,2.9981014E-1,1.2353596E-1,0E0,0E0,0E0,3.8214043E-1,0E0,2.7949637E-1,1.866768E-1,3.010043E-1,2.3027544E-1,6.27909E-2,2.7462816E-1,0E0,3.6341038E-1,4.4096282E-1,2.6768222E-2,0E0,0E0,0E0,0E0,0E0,0E0,0E0,0E0,0E0,0E0,0E0],"parents":[2147483647,0,0,1,1,2,2,3,3,4,4,8,8,10,10,11,11,12,12,13,13,14,14,15,15,17,17,18,18,19,19],"right_children":[2,4,6,8,10,-1,-1,-1,12,-1,14,16,18,20,22,24,-1,26,28,30,-1,-1,-1,-1,-1,-1,-1,-1,-1,-1,-1],"split_conditions":[1.95E-1,1.39E-1,1.9566667E-1,1.2583333E1,1.152E0,9.942735E-3,3.6453154E-2,-2.002447E-2,5.623722E0,-2.7100995E-2,1.535E-1,1E0,1.215E-1,1E0,5.0766666E1,2.223E0,-2.7566973E-2,5.9363194E0,1.2E1,1.741E0,-1.3763067E-2,-1.8938271E-2,-1.4246458E-3,-1.4930454E-2,9.901479E-3,1.5256084E-2,-1.3190113E-3,4.5944102E-2,-5.619187E-3,7.6956796E-3,3.1088827E-2],"split_indices":[13,13,13,1,0,0,0,0,6,0,13,9,13,10,1,0,0,6,5,0,0,0,0,0,0,0,0,0,0,0,0],"split_type":[0,0,0,0,0,0,0,0,0,0,0,0,0,0,0,0,0,0,0,0,0,0,0,0,0,0,0,0,0,0,0],"sum_hessian":[1.4280945E2,1.3898245E2,3.8269923E0,1.1559628E2,2.3386171E1,1.540106E0,2.2868862E0,6.4910808E0,1.091052E2,4.337666E0,1.9048506E1,2.125655E1,8.7848656E1,5.1178236E0,1.3930682E1,1.6941887E1,4.3146625E0,8.2425705E1,5.4229455E0,3.2353325E0,1.8824914E0,1.1267949E1,2.6627324E0,1.0576714E1,6.3651733E0,1.5444058E1,6.698165E1,2.8539698E0,2.568976E0,1.6975471E0,1.5377853E0],"tree_param":{"num_deleted":"0","num_feature":"18","num_nodes":"31","size_leaf_vector":"1"}},{"base_weights":[-1.4774433E-2,-1.7990177E-2,-6.749548E-3,2.8292945E-2,-2.0286413E-2,-1.3376912E-2,-2.077524E-2,-2.0388968E-2,3.5818335E-2,-4.3217793E-2,4.0057477E-2,-1.3653654E-2,-8.72006E-4,-1.409581E-4,2.0821856E-2],"categories":[],"categories_nodes":[],"categories_segments":[],"categories_sizes":[],"default_left":[0,0,0,0,0,0,0,0,0,0,0,0,0,0,0],"id":12,"left_children":[1,-1,3,-1,5,7,-1,9,-1,11,13,-1,-1,-1,-1],"loss_changes":[1.8907222E-1,0E0,5.468162E-1,0E0,1.6917843E-1,3.4367356E-1,0E0,1.7789179E-1,0E0,2.986685E-1,2.4794658E-1,0E0,0E0,0E0,0E0],"parents":[2147483647,0,0,2,2,4,4,5,5,7,7,9,9,10,10],"right_children":[2,-1,4,-1,6,8,-1,10,-1,12,14,-1,-1,-1,-1],"split_conditions":[1.2566667E1,-1.7990177E-2,9.25E-1,2.8292945E-2,5.1833332E1,5.1183334E1,-2.077524E-2,1E0,3.5818335E-2,5.623722E0,2.06E0,-1.3653654E-2,-8.72006E-4,-1.409581E-4,2.0821856E-2],"split_indices":[1,0,0,0,1,1,0,8,0,6,0,0,0,0,0],"split_type":[0,0,0,0,0,0,0,0,0,0,0,0,0,0,0],"sum_hessian":[1.4259857E2,5.6162167E0,1.3698236E2,5.2270327E0,1.3175533E2,1.2810507E2,3.6502585E0,1.2665988E2,1.4451892E0,9.214462E1,3.451526E1,2.4071556E1,6.807307E1,2.8483175E1,6.0320854E0],"tree_param":{"num_deleted":"0","num_feature":"18","num_nodes":"15","size_leaf_vector":"1"}},{"base_weights":[6.6249515E-4,2.4893045E-1,-6.6317082E-3,3.147806E-2,8.8746E-3,-1.8319091E-1,6.8341363E-3,-2.8183732E-2,-8.91355E-2,3.4561012E-2,-2.0079755E-3,7.240623E-3,-1.652415E-2,1.8555118E-2,-1.20907515E-1,1.0383284E-1,-8.024334E-3,-1.8228896E-1,1.2105571E-2,-3.0239788E-3,2.2693355E-2,1.9383598E-2,-2.0445974E-3,-4.573108E-3,-2.1952933E-2],"categories":[],"categories_nodes":[],"categories_segments":[],"categories_sizes":[],"default_left":[0,0,0,0,0,0,0,0,0,0,0,0,0,0,0,0,0,0,0,0,0,0,0,0,0],"id":13,"left_children":[1,3,5,-1,-1,7,9,-1,11,-1,13,-1,-1,15,17,19,21,23,-1,-1,-1,-1,-1,-1,-1],"loss_changes":[2.6060936E-1,1.538983E-2,3.3384582E-1,0E0,0E0,6.718871E-2,3.9293018E-1,0E0,9.256152E-2,0E0,3.1667668E-1,0E0,0E0,2.513196E-1,3.0567172E-1,4.4144288E-1,2.1754438E-1,6.944895E-2,0E0,0E0,0E0,0E0,0E0,0E0,0E0],"parents":[2147483647,0,0,1,1,2,2,5,5,6,6,8,8,10,10,13,13,14,14,15,15,16,16,17,17],"right_children":[2,4,6,-1,-1,8,10,-1,12,-1,14,-1,-1,16,18,20,22,24,-1,-1,-1,-1,-1,-1,-1],"split_conditions":[3.077784E0,5.1083332E1,3.3975084E0,3.147806E-2,8.8746E-3,5.03E1,3.5118525E0,-2.8183732E-2,3.546E0,3.4561012E-2,1.3166666E-1,7.240623E-3,-1.652415E-2,9.91E-1,1.65E-1,1.325E1,1.4E1,1.139E0,1.2105571E-2,-3.0239788E-3,2.2693355E-2,1.9383598E-2,-2.0445974E-3,-4.573108E-3,-2.1952933E-2],"split_indices":[6,1,6,0,0,1,6,0,0,0,13,0,0,0,13,1,1,0,0,0,0,0,0,0,0],"split_type":[0,0,0,0,0,0,0,0,0,0,0,0,0,0,0,0,0,0,0,0,0,0,0,0,0],"sum_hessian":[1.4199855E2,3.1073852E0,1.3889117E2,1.5181689E0,1.5892162E0,8.949145E0,1.2994202E2,3.3935003E0,5.555645E0,2.3364546E0,1.2760557E2,1.7947472E0,3.7608976E0,1.0951025E2,1.809532E1,2.5331135E1,8.4179115E1,1.4630474E1,3.4648461E0,1.2486292E1,1.2844843E1,4.0331364E0,8.014598E1,3.6123247E0,1.1018148E1],"tree_param":{"num_deleted":"0","num_feature":"18","num_nodes":"25","size_leaf_vector":"1"}},{"base_weights":[1.6976994E-2,-5.843579E-2,4.6020683E-2,1.16086425E-2,-1.9063699E-1,2.9670672E-2,4.559208E-2,1.1506365E-1,-8.71279E-2,-2.2692783E-2,-3.379584E-3,3.8621888E-2,-3.363224E-2,2.8254796E-2,2.5281447E-1,1.19112864E-1,-1.7675975E-2,1.7519794E-2,3.0463898E-1,1.8256491E-1,-3.0181734E-2,3.6425255E-2,1.1126599E-2,2.899431E-2,-4.5165294E-3,3.605104E-2,-2.3675425E-2,4.7806627E-4,4.6852577E-2,3.1951033E-2,-1.25119565E-2,2.9698333E-2,1.7750663E-3],"categories":[],"categories_nodes":[],"categories_segments":[],"categories_sizes":[],"default_left":[0,0,0,0,0,0,0,0,0,0,0,0,0,0,0,0,0,0,0,0,0,0,0,0,0,0,0,0,0,0,0,0,0],"id":14,"left_children":[1,3,5,7,9,11,-1,13,15,-1,-1,17,-1,19,21,23,-1,25,27,29,-1,-1,-1,-1,-1,31,-1,-1,-1,-1,-1,-1,-1],"loss_changes":[3.136519E-1,3.718344E-1,6.771591E-1,2.8617612E-1,7.134384E-2,3.411718E-1,0E0,1.5587625E-1,2.872811E-1,0E0,0E0,5.486087E-1,0E0,5.383818E-1,4.061532E-2,1.5229934E-1,0E0,4.4434524E-1,3.5117614E-1,3.386711E-1,0E0,0E0,0E0,0E0,0E0,4.105221E-1,0E0,0E0,0E0,0E0,0E0,0E0,0E0],"parents":[2147483647,0,0,1,1,2,2,3,3,4,4,5,5,7,7,8,8,11,11,13,13,14,14,15,15,17,17,18,18,19,19,25,25],"right_children":[2,4,6,8,10,12,-1,14,16,-1,-1,18,-1,20,22,24,-1,26,28,30,-1,-1,-1,-1,-1,32,-1,-1,-1,-1,-1,-1,-1],"split_conditions":[5.667182E0,5.2516413E0,2.865E1,1.64E-1,2.191E0,2.048E0,4.559208E-2,3.389E0,3.077784E0,-2.2692783E-2,-3.379584E-3,2.7683332E1,-3.363224E-2,9.7E-2,4.785E1,5.1083332E1,-1.7675975E-2,2.7266666E1,5E-3,1E0,-3.0181734E-2,3.6425255E-2,1.1126599E-2,2.899431E-2,-4.5165294E-3,5.9685297E0,-2.3675425E-2,4.7806627E-4,4.6852577E-2,3.1951033E-2,-1.25119565E-2,2.9698333E-2,1.7750663E-3],"split_indices":[6,6,1,13,0,0,0,0,6,0,0,1,0,13,1,1,0,1,13,10,0,0,0,0,0,6,0,0,0,0,0,0,0],"split_type":[0,0,0,0,0,0,0,0,0,0,0,0,0,0,0,0,0,0,0,0,0,0,0,0,0,0,0,0,0,0,0,0,0],"sum_hessian":[1.4097485E2,3.8916096E1,1.0205876E2,2.6034416E1,1.2881679E1,9.917526E1,2.8834972E0,1.2632679E1,1.3401736E1,1.0098227E1,2.783452E0,9.7680725E1,1.4945359E0,8.488467E0,4.144212E0,3.96029E0,9.441446E0,9.148911E1,6.191613E0,6.0888147E0,2.3996527E0,1.4384274E0,2.7057843E0,1.566431E0,2.3938591E0,8.6074326E1,5.4147925E0,2.5518136E0,3.6397994E0,4.186871E0,1.9019437E0,4.6431155E0,8.1431206E1],"tree_param":{"num_deleted":"0","num_feature":"18","num_nodes":"33","size_leaf_vector":"1"}},{"base_weights":[-7.612616E-3,4.125207E-2,-3.5320006E-2,-1.8744718E-2,2.4132487E-1,-1.3300937E-1,-7.2335005E-3,3.509802E-2,-1.9645724E-1,3.1504202E-1,2.620974E-2,-3.2186255E-2,-2.9624332E-2,4.4118237E-2,-2.6319738E-2,-6.471798E-2,1.0585427E-1,-2.439394E-2,1.3648556E-3,1.8239725E-1,3.9549213E-2,-2.3755057E-2,2.9090544E-2,9.739518E-2,-2.0106852E-2,3.2709096E-2,-3.8362253E-2,3.5615284E-2,-2.3515915E-2,1.8355113E-1,-1.0070366E-1,2.4786612E-2,2.9625816E-3,2.4804732E-1,-3.8094472E-2,-1.8877039E-2,-2.776688E-1,-1.3661988E-2,2.2108898E-2,2.52496E-2,-2.1125013E-2,-3.0197848E-2,1.1913307E-2,1.0006665E-2,3.0858506E-2,1.4920271E-2,-1.568745E-2,-3.1357475E-2,-2.9095993E-4,-3.3331756E-2,-1.1783096E-2],"categories":[],"categories_nodes":[],"categories_segments":[],"categories_sizes":[],"default_left":[0,0,0,0,0,0,0,0,0,0,0,0,0,0,0,0,0,0,0,0,0,0,0,0,0,0,0,0,0,0,0,0,0,0,0,0,0,0,0,0,0,0,0,0,0,0,0,0,0,0,0],"id":15,"left_children":[1,3,5,7,9,11,13,15,17,19,21,23,-1,-1,25,27,29,-1,-1,31,-1,-1,-1,33,-1,-1,35,37,-1,39,41,-1,-1,43,45,47,49,-1,-1,-1,-1,-1,-1,-1,-1,-1,-1,-1,-1,-1,-1],"loss_changes":[2.0172805E-1,6.5255386E-1,2.595144E-1,4.1316953E-1,1.9038129E-1,3.384134E-1,6.5172875E-1,2.4298829E-1,1.0333678E-1,2.6450455E-2,3.684608E-1,3.3014628E-1,0E0,0E0,3.2188222E-1,2.561667E-1,3.38579E-1,0E0,0E0,4.6104178E-2,0E0,0E0,0E0,1.8710706E-1,0E0,0E0,3.26679E-1,3.4931383E-1,0E0,4.574837E-1,3.0577046E-1,0E0,0E0,7.2333515E-3,1.4463781E-1,3.1387156E-1,7.7481866E-3,0E0,0E0,0E0,0E0,0E0,0E0,0E0,0E0,0E0,0E0,0E0,0E0,0E0,0E0],"parents":[2147483647,0,0,1,1,2,2,3,3,4,4,5,5,6,6,7,7,8,8,9,9,10,10,11,11,14,14,15,15,16,16,19,19,23,23,26,26,27,27,29,29,30,30,33,33,34,34,35,35,36,36],"right_children":[2,4,6,8,10,12,14,16,18,20,22,24,-1,-1,26,28,30,-1,-1,32,-1,-1,-1,34,-1,-1,36,38,-1,40,42,-1,-1,44,46,48,50,-1,-1,-1,-1,-1,-1,-1,-1,-1,-1,-1,-1,-1,-1],"split_conditions":[1.139E0,1.5033334E1,2.5583334E1,1.023E0,1.12E0,1.757E0,2.61E1,1.325E1,1.1627907E1,1.1E0,1.138E0,9.590236E0,-2.9624332E-2,4.4118237E-2,1.806E0,1.2916667E1,1E0,-2.439394E-2,1.3648556E-3,1.5483334E1,3.9549213E-2,-2.3755057E-2,2.9090544E-2,1.69E0,-2.0106852E-2,3.2709096E-2,6.22084E0,1.2433333E1,-2.3515915E-2,1.4766666E1,9.99E-1,2.4786612E-2,2.9625816E-3,1.198E0,6.507592E0,1.844E0,1.922E0,-1.3661988E-2,2.2108898E-2,2.52496E-2,-2.1125013E-2,-3.0197848E-2,1.1913307E-2,1.0006665E-2,3.0858506E-2,1.4920271E-2,-1.568745E-2,-3.1357475E-2,-2.9095993E-4,-3.3331756E-2,-1.1783096E-2],"split_indices":[0,1,1,0,0,0,1,1,6,0,0,6,0,0,0,1,9,0,0,1,0,0,0,0,0,0,6,1,0,1,0,0,0,0,6,0,0,0,0,0,0,0,0,0,0,0,0,0,0,0,0],"split_type":[0,0,0,0,0,0,0,0,0,0,0,0,0,0,0,0,0,0,0,0,0,0,0,0,0,0,0,0,0,0,0,0,0,0,0,0,0,0,0,0,0,0,0,0,0,0,0,0,0,0,0],"sum_hessian":[1.4692017E2,5.298576E1,9.39344E1,4.145943E1,1.1526327E1,2.014191E1,7.3792496E1,3.2434914E1,9.024519E0,8.238555E0,3.2877722E0,1.3191329E1,6.950581E0,2.1097765E0,7.168272E1,1.348995E1,1.8944962E1,7.2296476E0,1.7948716E0,4.3437934E0,3.894762E0,1.6981628E0,1.5896095E0,7.7036796E0,5.48765E0,1.5000329E0,7.0182686E1,8.989285E0,4.500664E0,1.3847573E1,5.0973897E0,2.6049852E0,1.7388079E0,3.2543697E0,4.44931E0,6.5896065E1,4.2866173E0,4.7975607E0,4.1917253E0,1.2095722E1,1.7518504E0,2.4659777E0,2.631412E0,1.7150357E0,1.539334E0,1.6272576E0,2.822052E0,2.4289312E0,6.3467136E1,2.3745508E0,1.9120662E0],"tree_param":{"num_deleted":"0","num_feature":"18","num_nodes":"51","size_leaf_vector":"1"}},{"base_weights":[-1.1455935E-3,8.4123984E-2,-1.8822659E-2,1.6596833E-1,-9.5241256E-2,-3.1058757E-2,-9.854957E-3,-3.518942E-2,2.1954621E-1,-1.9973157E-2,9.401591E-3,1.3147849E-1,-1.9057311E-2,-1.51651725E-2,1.0743837E-2,4.0909987E-2,1.0171854E-1,2.7603447E-1,-1.9028809E-2,-1.6636087E-1,-2.9740764E-3,2.189249E-2,-4.5653353E-3,3.302851E-2,1.1807749E-2,-2.1437189E-1,5.716157E-3,2.9453237E-2,-1.3743172E-2,-1.1733299E-2,1.0512133E-2,-2.7327001E-2,1.2771683E-3,-3.2584176E-3,7.138273E-3],"categories":[],"categories_nodes":[],"categories_segments":[],"categories_sizes":[],"default_left":[0,0,0,0,0,0,0,0,0,0,0,0,0,0,0,0,0,0,0,0,0,0,0,0,0,0,0,0,0,0,0,0,0,0,0],"id":16,"left_children":[1,3,5,7,9,-1,11,13,15,-1,-1,17,19,-1,-1,-1,21,23,-1,25,27,-1,29,-1,-1,31,-1,-1,33,-1,-1,-1,-1,-1,-1],"loss_changes":[2.1186815E-1,3.701555E-1,3.0141997E-1,1.90294E-1,1.8090852E-1,0E0,1.506881E-1,8.9791164E-2,2.6023704E-1,0E0,0E0,3.8237277E-1,2.549967E-1,0E0,0E0,0E0,1.21399894E-1,6.428331E-3,0E0,1.259807E-1,3.1881264E-1,0E0,8.714673E-2,0E0,0E0,1.2301448E-1,0E0,0E0,1.5592481E-1,0E0,0E0,0E0,0E0,0E0,0E0],"parents":[2147483647,0,0,1,1,2,2,3,3,4,4,6,6,7,7,8,8,11,11,12,12,16,16,17,17,19,19,20,20,22,22,25,25,28,28],"right_children":[2,4,6,8,10,-1,12,14,16,-1,-1,18,20,-1,-1,-1,22,24,-1,26,28,-1,30,-1,-1,32,-1,-1,34,-1,-1,-1,-1,-1,-1],"split_conditions":[2.3E-2,1E0,2.5E-2,5.623722E0,1.1235955E1,-3.1058757E-2,3E-2,2.004E0,6.0672917E0,-1.9973157E-2,9.401591E-3,2.785E1,4.3E-2,-1.51651725E-2,1.0743837E-2,4.0909987E-2,9.91E-1,1E0,-1.9028809E-2,2.066E0,5E-2,2.189249E-2,1.017E0,3.302851E-2,1.1807749E-2,1.1627907E1,5.716157E-3,2.9453237E-2,1E0,-1.1733299E-2,1.0512133E-2,-2.7327001E-2,1.2771683E-3,-3.2584176E-3,7.138273E-3],"split_indices":[13,9,13,6,6,0,13,0,6,0,0,1,13,0,0,0,0,8,0,0,13,0,0,0,0,6,0,0,9,0,0,0,0,0,0],"split_type":[0,0,0,0,0,0,0,0,0,0,0,0,0,0,0,0,0,0,0,0,0,0,0,0,0,0,0,0,0,0,0,0,0,0,0],"sum_hessian":[1.385094E2,2.313813E1,1.1537128E2,1.5939589E1,7.1985416E0,2.4373655E0,1.1293391E2,3.424719E0,1.2514869E1,4.6022563E0,2.5962856E0,6.091452E0,1.0684245E2,1.8504611E0,1.574258E0,3.8496995E0,8.66517E0,4.3012238E0,1.7902282E0,9.597439E0,9.724502E1,3.6168325E0,5.048337E0,2.3895485E0,1.9116755E0,7.9341726E0,1.663266E0,2.476608E0,9.476841E1,2.4548361E0,2.5935006E0,6.1392093E0,1.7949635E0,7.809974E1,1.666867E1],"tree_param":{"num_deleted":"0","num_feature":"18","num_nodes":"35","size_leaf_vector":"1"}},{"base_weights":[-5.4834867E-3,-2.6831744E-2,5.1316235E-2,8.980136E-2,-3.9825834E-2,1.5689601E-1,1.7136432E-2,1.7659266E-1,-1.4940575E-2,3.0090911E-2,-5.58644E-2,-4.138888E-2,2.8124118E-2,-8.517786E-2,1.01248376E-1,3.724299E-2,-7.198318E-4,-6.0376406E-2,2.7111648E-2,-2.0493189E-1,-3.4126665E-2,1.2410752E-2,-1.9967178E-2,-1.393654E-1,2.0481499E-2,1.3279848E-1,-1.0679566E-2,2.2238677E-2,-1.6017655E-2,-1.5267558E-1,1.5546824E-2,-3.701895E-4,-2.4902789E-2,-5.2324936E-2,2.5909564E-1,-1.8585289E-2,-3.2402117E-2,5.5185955E-2,2.7957616E-2,-6.736153E-3,-1.7388728E-2,1.3847316E-2,-1.9232085E-2,-1.9110693E-2,-3.6885967E-3,3.325313E-2,1.0267453E-2,-1.5705338E-2,2.2920717E-2,1.29004065E-2,-2.4317512E-2],"categories":[],"categories_nodes":[],"categories_segments":[],"categories_sizes":[],"default_left":[0,0,0,0,0,0,0,0,0,0,0,0,0,0,0,0,0,0,0,0,0,0,0,0,0,0,0,0,0,0,0,0,0,0,0,0,0,0,0,0,0,0,0,0,0,0,0,0,0,0,0],"id":17,"left_children":[1,3,5,7,9,11,13,15,-1,17,19,21,-1,23,25,-1,27,29,-1,31,33,-1,-1,35,-1,37,-1,-1,-1,39,41,-1,-1,43,45,47,-1,49,-1,-1,-1,-1,-1,-1,-1,-1,-1,-1,-1,-1,-1],"loss_changes":[1.812901E-1,1.6800866E-1,1.448184E-1,2.5856006E-1,1.11927E-1,2.5508988E-1,2.8402433E-1,3.011269E-1,0E0,4.3054405E-1,2.532732E-1,1.4730224E-1,0E0,2.639644E-1,1.324618E-1,0E0,2.3289742E-1,1.0488601E-1,0E0,8.800924E-2,3.940102E-1,0E0,0E0,2.887747E-1,0E0,1.678968E-1,0E0,0E0,0E0,4.018098E-4,2.5491464E-1,0E0,0E0,1.3857192E-1,1.564601E-2,3.4658262E-1,0E0,2.9065377E-1,0E0,0E0,0E0,0E0,0E0,0E0,0E0,0E0,0E0,0E0,0E0,0E0,0E0],"parents":[2147483647,0,0,1,1,2,2,3,3,4,4,5,5,6,6,7,7,9,9,10,10,11,11,13,13,14,14,16,16,17,17,19,19,20,20,23,23,25,25,29,29,30,30,33,33,34,34,35,35,37,37],"right_children":[2,4,6,8,10,12,14,16,-1,18,20,22,-1,24,26,-1,28,30,-1,32,34,-1,-1,36,-1,38,-1,-1,-1,40,42,-1,-1,44,46,48,-1,50,-1,-1,-1,-1,-1,-1,-1,-1,-1,-1,-1,-1,-1],"split_conditions":[1E0,1.35E-2,3.3E-2,1.2096774E1,9.77E-1,1.2E1,8.35E-2,1E0,-1.4940575E-2,1.3183333E1,1.1E0,9.83E-1,2.8124118E-2,2.099E0,5.1833332E1,3.724299E-2,1.39E1,1.2566667E1,2.7111648E-2,1.45E-2,9.954751E0,1.2410752E-2,-1.9967178E-2,1.093E0,2.0481499E-2,1.425E-1,-1.0679566E-2,2.2238677E-2,-1.6017655E-2,1.2E1,1.2916667E1,-3.701895E-4,-2.4902789E-2,1.6716667E1,1.105E0,1.495E1,-3.2402117E-2,1.39E-1,2.7957616E-2,-6.736153E-3,-1.7388728E-2,1.3847316E-2,-1.9232085E-2,-1.9110693E-2,-3.6885967E-3,3.325313E-2,1.0267453E-2,-1.5705338E-2,2.2920717E-2,1.29004065E-2,-2.4317512E-2],"split_indices":[8,13,13,6,0,5,13,9,0,1,0,0,0,0,1,0,1,1,0,13,6,0,0,0,0,13,0,0,0,1,1,0,0,1,0,1,0,13,0,0,0,0,0,0,0,0,0,0,0,0,0],"split_type":[0,0,0,0,0,0,0,0,0,0,0,0,0,0,0,0,0,0,0,0,0,0,0,0,0,0,0,0,0,0,0,0,0,0,0,0,0,0,0,0,0,0,0,0,0,0,0,0,0,0,0],"sum_hessian":[1.4737283E2,1.0749738E2,3.9875443E1,1.0183228E1,9.7314156E1,8.873942E0,3.1001501E1,7.664193E0,2.5190341E0,1.7994553E1,7.93196E1,3.67724E0,5.1967025E0,1.39815645E1,1.7019936E1,3.118962E0,4.5452313E0,1.3628637E1,4.3659153E0,9.022175E0,7.029743E1,1.9032087E0,1.7740312E0,1.2217957E1,1.7636079E0,1.5092779E1,1.9271559E0,1.7300079E0,2.8152232E0,5.6947103E0,7.9339275E0,1.8165202E0,7.2056546E0,6.696305E1,3.3343792E0,8.051959E0,4.165998E0,1.0772515E1,4.320265E0,1.965418E0,3.7292922E0,5.195383E0,2.7385445E0,5.564565E0,6.1398487E1,1.5029233E0,1.831456E0,5.4003806E0,2.6515787E0,9.090933E0,1.6815816E0],"tree_param":{"num_deleted":"0","num_feature":"18","num_nodes":"51","size_leaf_vector":"1"}},{"base_weights":[-3.4332892E-3,2.1743843E-2,-9.961164E-3,-1.621409E-1,1.710682E-3,-2.2504957E-2,-4.274875E-2,2.8602445E-2,-5.9139403E-3,5.7876124E-3,-1.2620014E-2,5.8459263E-2,-3.250251E-2,-9.286061E-2,9.124873E-2,-3.121685E-3,-1.1850662E-1,8.502633E-3,-1.5724244E-2,1.4417626E-2,-5.9547764E-3,-7.5400746E-3,4.7614397E-3,-2.3774728E-2,-4.0024854E-3],"categories":[],"categories_nodes":[],"categories_segments":[],"categories_sizes":[],"default_left":[0,0,0,0,0,0,0,0,0,0,0,0,0,0,0,0,0,0,0,0,0,0,0,0,0],"id":18,"left_children":[1,-1,3,5,7,-1,9,-1,11,-1,-1,13,15,17,19,21,23,-1,-1,-1,-1,-1,-1,-1,-1],"loss_changes":[2.1123748E-1,0E0,2.5214267E-1,6.632382E-2,2.8932902E-1,0E0,4.6970576E-2,0E0,2.2475196E-1,0E0,0E0,1.9908139E-1,2.3408763E-1,9.7402744E-2,2.6461276E-1,2.6097482E-1,2.1133119E-1,0E0,0E0,0E0,0E0,0E0,0E0,0E0,0E0],"parents":[2147483647,0,0,2,2,3,3,4,4,6,6,8,8,11,11,12,12,13,13,14,14,15,15,16,16],"right_children":[2,-1,4,6,8,-1,10,-1,12,-1,-1,14,16,18,20,22,24,-1,-1,-1,-1,-1,-1,-1,-1],"split_conditions":[3.077784E0,2.1743843E-2,3.4461153E0,5.0766666E1,3.5118525E0,-2.2504957E-2,1.2E1,2.8602445E-2,3E-2,5.7876124E-3,-1.2620014E-2,5.623722E0,1E0,1.35E-2,1E0,1.7066668E1,6.45E-2,8.502633E-3,-1.5724244E-2,1.4417626E-2,-5.9547764E-3,-7.5400746E-3,4.7614397E-3,-2.3774728E-2,-4.0024854E-3],"split_indices":[6,0,6,1,6,0,5,0,13,0,0,6,7,13,9,1,13,0,0,0,0,0,0,0,0],"split_type":[0,0,0,0,0,0,0,0,0,0,0,0,0,0,0,0,0,0,0,0,0,0,0,0,0],"sum_hessian":[1.4400504E2,3.2064092E0,1.4079863E2,9.11136E0,1.3168727E2,5.387619E0,3.7237403E0,2.4856813E0,1.2920158E2,1.8271046E0,1.8966358E0,3.741588E1,9.1785706E1,6.337405E0,3.1078472E1,6.918645E1,2.2599258E1,1.5989233E0,4.738482E0,2.3036777E1,8.041695E0,2.8334599E1,4.0851852E1,8.164801E0,1.4434459E1],"tree_param":{"num_deleted":"0","num_feature":"18","num_nodes":"25","size_leaf_vector":"1"}},{"base_weights":[3.1910255E-3,1.3041592E-1,-6.9289743E-3,-1.858216E-2,2.864406E-2,2.4447497E-2,-1.1875887E-2,1.3945057E-2,-1.6335797E-2,-1.5295433E-1,2.2059279E-3,-2.311827E-2,-9.3826324E-2,2.8739814E-2,-3.964204E-3,4.948312E-3,-1.3988537E-2,-1.3487673E-1,3.7796954E-3,-5.772957E-3,-1.5466042E-2,2.126277E-2,-8.714182E-4],"categories":[],"categories_nodes":[],"categories_segments":[],"categories_sizes":[],"default_left":[0,0,0,0,0,0,0,0,0,0,0,0,0,0,0,0,0,0,0,0,0,0,0],"id":19,"left_children":[1,3,5,7,-1,-1,9,-1,-1,11,13,-1,15,-1,17,-1,-1,19,21,-1,-1,-1,-1],"loss_changes":[1.8680051E-1,2.538167E-1,1.7041993E-1,1.693626E-1,0E0,0E0,2.6465875E-1,0E0,0E0,3.4227997E-2,2.1574922E-1,0E0,6.347874E-2,0E0,1.22531354E-1,0E0,0E0,1.3730079E-3,3.0091822E-1,0E0,0E0,0E0,0E0],"parents":[2147483647,0,0,1,1,2,2,3,3,6,6,9,9,10,10,12,12,14,14,17,17,18,18],"right_children":[2,4,6,8,-1,-1,10,-1,-1,12,14,-1,16,-1,18,-1,-1,20,22,-1,-1,-1,-1],"split_conditions":[1.35E-2,8E-3,3.0674846E0,2.81E1,2.864406E-2,2.4447497E-2,3.4461153E0,1.3945057E-2,-1.6335797E-2,5.03E1,3.5118525E0,-2.311827E-2,3.543E0,2.8739814E-2,1.2566667E1,4.948312E-3,-1.3988537E-2,1.2E1,9.25E-1,-5.772957E-3,-1.5466042E-2,2.126277E-2,-8.714182E-4],"split_indices":[13,13,6,1,0,0,6,0,0,1,6,0,0,0,1,0,0,1,0,0,0,0,0],"split_type":[0,0,0,0,0,0,0,0,0,0,0,0,0,0,0,0,0,0,0,0,0,0,0],"sum_hessian":[1.4338412E2,9.689121E0,1.33695E2,5.406759E0,4.2823625E0,1.6455944E0,1.3204941E2,2.602612E0,2.8041468E0,1.1089328E1,1.2096008E2,3.5210238E0,7.568304E0,1.596334E0,1.1936375E2,1.822715E0,5.745589E0,5.749521E0,1.1361423E2,1.9731588E0,3.776362E0,5.508892E0,1.0810533E2],"tree_param":{"num_deleted":"0","num_feature":"18","num_nodes":"23","size_leaf_vector":"1"}},{"base_weights":[1.2722117E-2,-3.80987E-2,3.4111105E-2,1.9344166E-1,-6.086131E-2,1.7292866E-1,1.7195512E-2,2.3832612E-2,7.4388455E-3,-3.4316663E-2,-1.5165265E-1,3.555356E-2,3.362467E-2,-2.6464451E-2,6.2159456E-2,4.9840226E-3,-1.321515E-2,-1.7891709E-5,-2.1498075E-2,-9.365317E-2,3.1723503E-2,6.438044E-2,-1.2186069E-1,1.0109023E-1,-8.717244E-2,2.8502082E-2,-3.9059743E-2,-2.0661842E-2,6.5625566E-3,1.4975718E-1,-1.0536901E-1,-4.5632817E-2,-1.6274437E-1,1.4915344E-1,-3.2508925E-2,-1.2914957E-1,8.265061E-3,9.853531E-3,-6.942741E-3,1.9116787E-3,-8.8477053E-4,5.2355654E-3,2.5867304E-2,-1.8394908E-2,6.593216E-3,1.8734867E-2,-1.9134449E-2,2.2203506E-3,-1.8680183E-2,2.3929216E-2,2.408329E-3,-1.7001344E-2,9.723949E-3,-1.5975654E-2,-5.2432907E-3],"categories":[],"categories_nodes":[],"categories_segments":[],"categories_sizes":[],"default_left":[0,0,0,0,0,0,0,0,0,0,0,0,0,0,0,0,0,0,0,0,0,0,0,0,0,0,0,0,0,0,0,0,0,0,0,0,0,0,0,0,0,0,0,0,0,0,0,0,0,0,0,0,0,0,0],"id":20,"left_children":[1,3,5,7,9,11,13,-1,-1,15,17,19,-1,21,23,25,-1,-1,-1,27,-1,29,31,33,35,-1,37,-1,39,41,43,45,47,49,51,53,-1,-1,-1,-1,-1,-1,-1,-1,-1,-1,-1,-1,-1,-1,-1,-1,-1,-1,-1],"loss_changes":[1.6486076E-1,2.4916728E-1,2.4693654E-1,5.094275E-3,9.5465675E-2,2.4492642E-1,1.9006073E-1,0E0,0E0,1.2990347E-1,8.780393E-2,2.9673958E-1,0E0,4.3592602E-1,2.854311E-1,3.1879422E-1,0E0,0E0,0E0,6.70383E-2,0E0,3.9195108E-1,6.8740904E-2,2.501709E-1,8.464351E-2,0E0,1.005796E-1,0E0,9.5143914E-4,1.7404795E-1,1.3695125E-1,3.7267268E-1,7.319519E-2,3.130098E-1,2.115182E-1,1.2075186E-2,0E0,0E0,0E0,0E0,0E0,0E0,0E0,0E0,0E0,0E0,0E0,0E0,0E0,0E0,0E0,0E0,0E0,0E0,0E0],"parents":[2147483647,0,0,1,1,2,2,3,3,4,4,5,5,6,6,9,9,10,10,11,11,13,13,14,14,15,15,19,19,21,21,22,22,23,23,24,24,26,26,28,28,29,29,30,30,31,31,32,32,33,33,34,34,35,35],"right_children":[2,4,6,8,10,12,14,-1,-1,16,18,20,-1,22,24,26,-1,-1,-1,28,-1,30,32,34,36,-1,38,-1,40,42,44,46,48,50,52,54,-1,-1,-1,-1,-1,-1,-1,-1,-1,-1,-1,-1,-1,-1,-1,-1,-1,-1,-1],"split_conditions":[5.717008E0,3.077784E0,5.9363194E0,1E0,1E0,5.863539E0,7.9E-2,2.3832612E-2,7.4388455E-3,1.64E-1,3E-2,2.066E0,3.362467E-2,3.5E-2,1E0,3.5118525E0,-1.321515E-2,-1.7891709E-5,-2.1498075E-2,5.8479533E0,3.1723503E-2,1E0,9.65E-1,1.39E-1,1.798E0,2.8502082E-2,2.029E0,-2.0661842E-2,1.895E0,2.2E-2,1.1689692E1,1.1702127E1,5.9685297E0,1.0666667E1,1.52E-1,1.0175763E1,8.265061E-3,9.853531E-3,-6.942741E-3,1.9116787E-3,-8.8477053E-4,5.2355654E-3,2.5867304E-2,-1.8394908E-2,6.593216E-3,1.8734867E-2,-1.9134449E-2,2.2203506E-3,-1.8680183E-2,2.3929216E-2,2.408329E-3,-1.7001344E-2,9.723949E-3,-1.5975654E-2,-5.2432907E-3],"split_indices":[6,6,6,7,9,6,13,0,0,13,13,0,0,13,10,6,0,0,0,6,0,9,0,13,0,0,0,0,0,13,6,6,6,6,13,6,0,0,0,0,0,0,0,0,0,0,0,0,0,0,0,0,0,0,0],"split_type":[0,0,0,0,0,0,0,0,0,0,0,0,0,0,0,0,0,0,0,0,0,0,0,0,0,0,0,0,0,0,0,0,0,0,0,0,0,0,0,0,0,0,0,0,0,0,0,0,0,0,0,0,0,0,0],"sum_hessian":[1.4946947E2,4.4042366E1,1.0542709E2,3.2710602E0,4.077131E1,1.0449597E1,9.49775E1,1.647927E0,1.6231332E0,3.2613945E1,8.157362E0,6.336956E0,4.1126413E0,4.8396225E1,4.6581276E1,2.3944422E1,8.669523E0,2.7006154E0,5.456746E0,4.8018694E0,1.535087E0,2.4956E1,2.3440226E1,3.7204994E1,9.37628E0,2.5105655E0,2.1433857E1,1.7582252E0,3.043644E0,1.6682959E1,8.273042E0,8.921743E0,1.4518481E1,2.7275885E1,9.929111E0,7.710012E0,1.6662681E0,3.4693925E0,1.7964464E1,1.5447028E0,1.4989413E0,9.588675E0,7.094283E0,5.6208057E0,2.6522365E0,3.322915E0,5.598829E0,1.6800125E0,1.2838469E1,1.5320823E1,1.1955062E1,4.6698136E0,5.2592964E0,4.7375073E0,2.9725044E0],"tree_param":{"num_deleted":"0","num_feature":"18","num_nodes":"55","size_leaf_vector":"1"}},{"base_weights":[7.8726804E-4,9.843136E-2,-8.33522E-3,-1.4220702E-2,2.5192255E-2,-1.03582546E-1,-2.1009755E-4,1.9315151E-2,-1.0160434E-1,-1.9661064E-1,1.3734599E-2,1.3672222E-1,-8.52142E-3,7.265085E-3,-1.8172871E-2,-2.5823891E-2,6.4146396E-4,2.678E-2,-5.3515746E-3,-2.1282867E-2,-3.6813323E-3,4.4295315E-2,-3.0556202E-2,-1.1860509E-3,1.6095903E-2,2.8833534E-4,-1.4522584E-2],"categories":[],"categories_nodes":[],"categories_segments":[],"categories_sizes":[],"default_left":[0,0,0,0,0,0,0,0,0,0,0,0,0,0,0,0,0,0,0,0,0,0,0,0,0,0,0],"id":21,"left_children":[1,3,5,7,-1,9,11,-1,13,15,-1,17,19,-1,-1,-1,-1,-1,-1,-1,21,23,25,-1,-1,-1,-1],"loss_changes":[1.3179083E-1,2.2215971E-1,1.047573E-1,1.6888627E-1,0E0,2.6547515E-1,1.4428179E-1,0E0,1.0326248E-1,1.02844566E-1,0E0,1.9523221E-1,1.1738314E-1,0E0,0E0,0E0,0E0,0E0,0E0,0E0,1.5317562E-1,2.81555E-1,2.9208696E-1,0E0,0E0,0E0,0E0],"parents":[2147483647,0,0,1,1,2,2,3,3,5,5,6,6,8,8,9,9,11,11,12,12,20,20,21,21,22,22],"right_children":[2,4,6,8,-1,10,12,-1,14,16,-1,18,20,-1,-1,-1,-1,-1,-1,-1,22,24,26,-1,-1,-1,-1],"split_conditions":[1.35E-2,9E-3,1.8E-2,1.395E1,2.5192255E-2,2.8483334E1,2.3E-2,1.9315151E-2,4.5E-3,1E0,1.3734599E-2,1.958E0,2.4E-2,7.265085E-3,-1.8172871E-2,-2.5823891E-2,6.4146396E-4,2.678E-2,-5.3515746E-3,-2.1282867E-2,1.139E0,1.5033334E1,6.3257775E0,-1.1860509E-3,1.6095903E-2,2.8833534E-4,-1.4522584E-2],"split_indices":[13,13,13,1,0,1,13,0,13,7,0,0,13,0,0,0,0,0,0,0,0,1,6,0,0,0,0],"split_type":[0,0,0,0,0,0,0,0,0,0,0,0,0,0,0,0,0,0,0,0,0,0,0,0,0,0,0],"sum_hessian":[1.4603267E2,1.1641024E1,1.3439165E2,7.2369485E0,4.404075E0,9.639813E0,1.2475183E2,1.7866416E0,5.450307E0,7.087219E0,2.5525937E0,6.254607E0,1.1849723E2,1.7461147E0,3.7041922E0,5.2282357E0,1.8589839E0,3.461709E0,2.792898E0,1.7478034E0,1.1674942E2,4.168526E1,7.506416E1,2.8746521E1,1.2938741E1,5.8871204E1,1.6192957E1],"tree_param":{"num_deleted":"0","num_feature":"18","num_nodes":"27","size_leaf_vector":"1"}},{"base_weights":[-1.3197726E-2,2.267139E-3,-6.2114075E-2,-5.6558484E-3,2.0396787E-1,-1.9518804E-2,-1.800727E-2,3.0723542E-3,-2.7535362E-2,3.0805975E-2,3.8043193E-3,1.9901505E-2,-4.2140413E-2,-2.402419E-3,2.1848362E-2,-2.2715654E-2,-1.9739851E-2,4.331902E-3,-2.7921094E-2,2.2043096E-2,-4.797242E-2,-6.257222E-4,1.2269909E-2,-2.5125686E-2,-1.0071903E-3],"categories":[],"categories_nodes":[],"categories_segments":[],"categories_sizes":[],"default_left":[0,0,0,0,0,0,0,0,0,0,0,0,0,0,0,0,0,0,0,0,0,0,0,0,0],"id":22,"left_children":[1,3,5,7,9,11,-1,13,-1,-1,-1,-1,15,17,-1,-1,19,21,-1,-1,23,-1,-1,-1,-1],"loss_changes":[1.1398629E-1,1.8542416E-1,1.7829464E-1,2.6430973E-1,6.401883E-2,1.4535569E-1,0E0,1.2954712E-1,0E0,0E0,0E0,0E0,1.0299303E-1,2.0193899E-1,0E0,0E0,1.748503E-1,1.3376395E-1,0E0,0E0,1.7082292E-1,0E0,0E0,0E0,0E0],"parents":[2147483647,0,0,1,1,2,2,3,3,4,4,5,5,7,7,12,12,13,13,16,16,17,17,20,20],"right_children":[2,4,6,8,10,12,-1,14,-1,-1,-1,-1,16,18,-1,-1,20,22,-1,-1,24,-1,-1,-1,-1],"split_conditions":[2.9433332E1,2.8683332E1,5.166745E0,2.8583334E1,2.91E1,6.45E-2,-1.800727E-2,2.034E0,-2.7535362E-2,3.0805975E-2,3.8043193E-3,1.9901505E-2,9.1E-2,2.029E0,2.1848362E-2,-2.2715654E-2,9.7E-2,2.77E1,-2.7921094E-2,2.2043096E-2,1.295E-1,-6.257222E-4,1.2269909E-2,-2.5125686E-2,-1.0071903E-3],"split_indices":[1,1,6,1,1,13,0,0,0,0,0,0,13,0,0,0,13,1,0,0,13,0,0,0,0],"split_type":[0,0,0,0,0,0,0,0,0,0,0,0,0,0,0,0,0,0,0,0,0,0,0,0,0],"sum_hessian":[1.4949275E2,1.14308014E2,3.5184734E1,1.1092283E2,3.38519E0,2.6706423E1,8.478312E0,1.0840319E2,2.519634E0,1.553799E0,1.8313911E0,1.7737474E0,2.4932674E1,1.066807E2,1.7224903E0,1.705504E0,2.322717E1,1.0510794E2,1.5727623E0,1.727118E0,2.1500053E1,9.7346466E1,7.7614746E0,2.4939647E0,1.9006088E1],"tree_param":{"num_deleted":"0","num_feature":"18","num_nodes":"25","size_leaf_vector":"1"}},{"base_weights":[-1.2396497E-2,7.324557E-3,-6.2365346E-2,-8.398934E-3,1.2706238E-1,-1.6545463E-1,-1.0859461E-2,9.2504005E-4,-1.9338679E-2,2.2158507E-1,-1.460266E-2,-7.351791E-2,-2.2100203E-1,2.8380333E-2,-8.167974E-2,9.855666E-3,-8.0718145E-2,3.8245474E-3,2.5998935E-1,-1.1807822E-1,2.4528508E-3,-2.856507E-2,-7.7805095E-3,-1.6741697E-1,-1.3589427E-4,1.926043E-3,2.5256718E-2,7.176598E-3,-1.4820195E-2,3.209351E-2,4.033908E-3,-4.9104234E-3,-1.48671195E-2,-1.04140714E-1,-2.9357074E-2,2.3042453E-2,-5.3125273E-2,1.0158127E-3,-1.7252117E-2,-1.6768634E-2,-3.3357393E-3,7.1803327E-3,-1.2789736E-2],"categories":[],"categories_nodes":[],"categories_segments":[],"categories_sizes":[],"default_left":[0,0,0,0,0,0,0,0,0,0,0,0,0,0,0,0,0,0,0,0,0,0,0,0,0,0,0,0,0,0,0,0,0,0,0,0,0,0,0,0,0,0,0],"id":23,"left_children":[1,3,5,7,9,11,13,15,-1,17,-1,19,21,-1,23,25,27,-1,29,31,-1,-1,-1,33,35,37,-1,-1,-1,-1,-1,-1,-1,39,-1,-1,41,-1,-1,-1,-1,-1,-1],"loss_changes":[1.4750569E-1,2.0419037E-1,2.2297543E-1,1.6628674E-1,3.5721856E-1,5.5419117E-2,6.345928E-1,6.8369694E-2,0E0,5.868116E-2,0E0,3.2535188E-2,5.414465E-2,0E0,1.7055273E-1,1.6201133E-1,1.0578901E-1,0E0,9.262061E-2,2.9045045E-3,0E0,0E0,0E0,6.43591E-2,1.772435E-1,1.2061265E-1,0E0,0E0,0E0,0E0,0E0,0E0,0E0,3.700085E-2,0E0,0E0,1.1935684E-1,0E0,0E0,0E0,0E0,0E0,0E0],"parents":[2147483647,0,0,1,1,2,2,3,3,4,4,5,5,6,6,7,7,9,9,11,11,12,12,14,14,15,15,16,16,18,18,19,19,23,23,24,24,25,25,33,33,36,36],"right_children":[2,4,6,8,10,12,14,16,-1,18,-1,20,22,-1,24,26,28,-1,30,32,-1,-1,-1,34,36,38,-1,-1,-1,-1,-1,-1,-1,40,-1,-1,42,-1,-1,-1,-1,-1,-1],"split_conditions":[1.1333334E-1,9.8E-2,1.7066668E1,9.35E-2,1E0,1.57E1,2.4283333E1,2.117E0,-1.9338679E-2,9E-1,-1.460266E-2,1.2566667E1,1.144E0,2.8380333E-2,3.429E0,2.099E0,3.7117229E0,3.8245474E-3,1.806E0,1.2E1,2.4528508E-3,-2.856507E-2,-7.7805095E-3,3.153E0,3.495E0,2.91E1,2.5256718E-2,7.176598E-3,-1.4820195E-2,3.209351E-2,4.033908E-3,-4.9104234E-3,-1.48671195E-2,1.768E0,-2.9357074E-2,2.3042453E-2,3.077784E0,1.0158127E-3,-1.7252117E-2,-1.6768634E-2,-3.3357393E-3,7.1803327E-3,-1.2789736E-2],"split_indices":[13,13,1,13,10,1,1,0,0,0,0,1,0,0,0,0,6,0,0,1,0,0,0,0,0,1,0,0,0,0,0,0,0,0,0,0,6,0,0,0,0,0,0],"split_type":[0,0,0,0,0,0,0,0,0,0,0,0,0,0,0,0,0,0,0,0,0,0,0,0,0,0,0,0,0,0,0,0,0,0,0,0,0,0,0,0,0,0,0],"sum_hessian":[1.482218E2,1.0688948E2,4.133233E1,9.530435E1,1.1585129E1,1.3033456E1,2.8298872E1,9.167846E1,3.625886E0,8.74639E0,2.838739E0,5.783944E0,7.249512E0,4.900777E0,2.3398096E1,8.34315E1,8.24696E0,1.8604739E0,6.885916E0,3.8361669E0,1.9477773E0,4.3092284E0,2.9402838E0,1.089243E1,1.2505666E1,8.1768E1,1.6635053E0,2.5106115E0,5.736348E0,5.0293255E0,1.8565909E0,1.9791403E0,1.8570265E0,8.4697E0,2.4227302E0,1.7112772E0,1.0794388E1,7.898261E1,2.7853837E0,3.7416387E0,4.728061E0,4.056509E0,6.7378793E0],"tree_param":{"num_deleted":"0","num_feature":"18","num_nodes":"43","size_leaf_vector":"1"}},{"base_weights":[-9.464104E-3,-3.446832E-2,1.9269684E-2,-1.917901E-2,-2.1003196E-2,1.0551166E-3,4.1144524E-2,6.1513577E-2,-4.145164E-2,2.4538066E-2,-1.2055593E-1,1.1034266E-1,-2.3774495E-2,-1.5009306E-1,-2.3007156E-2,-1.3246673E-2,3.7782315E-2,-1.7500606E-1,-3.800629E-2,-6.375024E-2,2.2976874E-1,-6.7462595E-3,-1.813892E-2,-4.3364864E-2,2.74709E-2,2.5159413E-2,1.44708855E-2,-2.0286027E-2,-7.145052E-3,1.7609171E-3,-9.877729E-3,-2.0853018E-2,1.5288684E-2,3.5182428E-2,6.7754076E-3,-1.3450183E-2,-1.3138929E-3,-1.1465802E-2,4.5023668E-3],"categories":[],"categories_nodes":[],"categories_segments":[],"categories_sizes":[],"default_left":[0,0,0,0,0,0,0,0,0,0,0,0,0,0,0,0,0,0,0,0,0,0,0,0,0,0,0,0,0,0,0,0,0,0,0,0,0,0,0],"id":24,"left_children":[1,3,5,7,-1,9,-1,11,13,15,17,19,-1,21,23,-1,25,27,29,31,33,-1,-1,35,-1,-1,37,-1,-1,-1,-1,-1,-1,-1,-1,-1,-1,-1,-1],"loss_changes":[1.1053231E-1,2.1641657E-1,5.124202E-1,1.4030215E-1,0E0,2.017527E-1,0E0,2.7438623E-1,1.1810855E-1,1.2805545E-1,4.4749096E-2,3.3239982E-1,0E0,1.006338E-2,3.3338526E-1,0E0,2.7223945E-1,4.5805573E-3,2.1417962E-2,2.5146884E-1,1.5970963E-1,0E0,0E0,1.3737263E-1,0E0,0E0,2.0625107E-1,0E0,0E0,0E0,0E0,0E0,0E0,0E0,0E0,0E0,0E0,0E0,0E0],"parents":[2147483647,0,0,1,1,2,2,3,3,5,5,7,7,8,8,9,9,10,10,11,11,13,13,14,14,16,16,17,17,18,18,19,19,20,20,23,23,26,26],"right_children":[2,4,6,8,-1,10,-1,12,14,16,18,20,-1,22,24,-1,26,28,30,32,34,-1,-1,36,-1,-1,38,-1,-1,-1,-1,-1,-1,-1,-1,-1,-1,-1,-1],"split_conditions":[6.514658E0,6.3257775E0,2.535E1,2.7033333E1,-2.1003196E-2,1E0,4.1144524E-2,1E0,2.77E1,1.2566667E1,1.1787819E1,2.5583334E1,-2.3774495E-2,2.7366667E1,5.9880238E0,-1.3246673E-2,1.2916667E1,1.57E1,1.2711864E1,6.1538463E0,5.9685297E0,-6.7462595E-3,-1.813892E-2,3.15E-2,2.74709E-2,2.5159413E-2,1.3566667E1,-2.0286027E-2,-7.145052E-3,1.7609171E-3,-9.877729E-3,-2.0853018E-2,1.5288684E-2,3.5182428E-2,6.7754076E-3,-1.3450183E-2,-1.3138929E-3,-1.1465802E-2,4.5023668E-3],"split_indices":[6,6,1,1,0,10,0,7,1,1,6,1,0,1,6,0,1,1,6,6,6,0,0,13,0,0,1,0,0,0,0,0,0,0,0,0,0,0,0],"split_type":[0,0,0,0,0,0,0,0,0,0,0,0,0,0,0,0,0,0,0,0,0,0,0,0,0,0,0,0,0,0,0,0,0,0,0,0,0,0,0],"sum_hessian":[1.5192046E2,8.1125374E1,7.079508E1,7.564677E1,5.4786067E0,6.861113E1,2.1839492E0,1.5982207E1,5.966456E1,5.8175697E1,1.0435433E1,1.4282978E1,1.6992294E0,7.623452E0,5.2041107E1,3.8254006E0,5.4350296E1,5.6130376E0,4.8223963E0,6.0010977E0,8.28188E0,2.9610577E0,4.6623945E0,4.9509975E1,2.5311306E0,4.380424E0,4.996987E1,3.6675854E0,1.9454522E0,2.8888557E0,1.9335406E0,3.6195505E0,2.381547E0,4.0552535E0,4.226627E0,1.1471458E1,3.8038517E1,9.0343075E0,4.0935566E1],"tree_param":{"num_deleted":"0","num_feature":"18","num_nodes":"39","size_leaf_vector":"1"}},{"base_weights":[-7.481382E-3,-2.3843208E-2,3.235033E-2,1.0884109E-2,-2.8209567E-2,5.0901785E-2,-6.99984E-2,-5.095814E-2,6.9619194E-3,2.7153501E-2,2.2039162E-2,1.478151E-4,-1.4326522E-2,-1.05056174E-1,-8.441537E-3,1.3407296E-1,-2.1076113E-2,-1.5189366E-2,4.755238E-2,5.057573E-3,-5.0727925E-3,-3.1850934E-3,-1.6908619E-1,2.711364E-1,-4.2841382E-2,2.2171727E-1,-1.2337251E-2,1.1128266E-1,-5.181228E-2,3.0156085E-2,1.6665366E-2,-7.291139E-3,1.2501447E-2,-2.5893876E-2,-1.7204682E-3,1.1673007E-2,3.3133727E-2,-2.960819E-2,-1.3796424E-3,2.6348561E-2,7.353092E-3,2.6538318E-2,-3.4986015E-3,3.6506397E-3,-2.0043468E-2,5.895376E-3,-1.8680464E-2],"categories":[],"categories_nodes":[],"categories_segments":[],"categories_sizes":[],"default_left":[0,0,0,0,0,0,0,0,0,0,0,0,0,0,0,0,0,0,0,0,0,0,0,0,0,0,0,0,0,0,0,0,0,0,0,0,0,0,0,0,0,0,0,0,0,0,0],"id":25,"left_children":[1,3,5,-1,7,9,11,13,15,17,-1,19,-1,21,23,25,27,-1,29,-1,-1,31,33,35,37,39,-1,41,43,-1,45,-1,-1,-1,-1,-1,-1,-1,-1,-1,-1,-1,-1,-1,-1,-1,-1],"loss_changes":[1.0065209E-1,6.634039E-2,8.909666E-2,0E0,8.5584745E-2,1.4984584E-1,3.771038E-2,1.481712E-1,1.5507014E-1,1.3541098E-1,0E0,1.4740338E-2,0E0,1.8491408E-1,3.7106392E-1,2.046068E-1,1.5166074E-1,0E0,2.4814454E-1,0E0,0E0,1.163135E-1,2.3353449E-1,6.541908E-4,2.4705179E-1,1.9112289E-2,0E0,1.6878122E-1,3.9829403E-1,0E0,2.6767614E-1,0E0,0E0,0E0,0E0,0E0,0E0,0E0,0E0,0E0,0E0,0E0,0E0,0E0,0E0,0E0,0E0],"parents":[2147483647,0,0,1,1,2,2,4,4,5,5,6,6,7,7,8,8,9,9,11,11,13,13,14,14,15,15,16,16,18,18,21,21,22,22,23,23,24,24,25,25,27,27,28,28,30,30],"right_children":[2,4,6,-1,8,10,12,14,16,18,-1,20,-1,22,24,26,28,-1,30,-1,-1,32,34,36,38,40,-1,42,44,-1,46,-1,-1,-1,-1,-1,-1,-1,-1,-1,-1,-1,-1,-1,-1,-1,-1],"split_conditions":[1E0,4.5E-3,3.192E0,1.0884109E-2,1E0,2.099E0,1.2E1,2.5133333E1,1.95E-2,5.5452867E0,2.2039162E-2,3.548E0,-1.4326522E-2,1.3816667E1,2.5783333E1,1.1892963E1,3.7117229E0,-1.5189366E-2,5.899705E0,5.057573E-3,-5.0727925E-3,9.51E-1,1.19E-1,1E0,2.6366667E1,2.029E0,-1.2337251E-2,4.7766666E1,2.61E1,3.0156085E-2,1.836E0,-7.291139E-3,1.2501447E-2,-2.5893876E-2,-1.7204682E-3,1.1673007E-2,3.3133727E-2,-2.960819E-2,-1.3796424E-3,2.6348561E-2,7.353092E-3,2.6538318E-2,-3.4986015E-3,3.6506397E-3,-2.0043468E-2,5.895376E-3,-1.8680464E-2],"split_indices":[8,13,0,0,7,0,5,1,13,6,0,0,0,1,1,6,6,0,6,0,0,0,13,9,1,0,0,1,1,0,0,0,0,0,0,0,0,0,0,0,0,0,0,0,0,0,0],"split_type":[0,0,0,0,0,0,0,0,0,0,0,0,0,0,0,0,0,0,0,0,0,0,0,0,0,0,0,0,0,0,0,0,0,0,0,0,0,0,0,0,0,0,0,0,0,0,0],"sum_hessian":[1.5225726E2,1.08209175E2,4.4048096E1,2.6851768E0,1.05523994E2,3.7714695E1,6.3333993E0,6.3806026E1,4.1717968E1,3.4097313E1,3.6173813E0,3.7454548E0,2.5879447E0,2.7431416E1,3.637461E1,6.8556957E0,3.486227E1,2.828094E0,3.1269218E1,1.8839674E0,1.8614873E0,1.0992388E1,1.6439028E1,3.2312622E0,3.314335E1,5.218051E0,1.6376449E0,6.0761304E0,2.878614E1,2.4399788E0,2.882924E1,7.399273E0,3.5931144E0,9.885768E0,6.553259E0,1.7308635E0,1.5003989E0,2.4642088E0,3.0679142E1,3.4636922E0,1.7543586E0,2.5622902E0,3.5138402E0,1.8529423E1,1.0256719E1,2.4456547E1,4.372693E0],"tree_param":{"num_deleted":"0","num_feature":"18","num_nodes":"47","size_leaf_vector":"1"}},{"base_weights":[5.3714006E-3,-6.614075E-2,1.7640091E-2,9.243025E-2,-1.1361023E-1,1.8452443E-2,7.174857E-3,1.5812283E-2,-2.630704E-3,-1.7204221E-2,-2.489584E-1,-9.416814E-2,2.4207301E-2,-1.03311054E-1,9.3576215E-2,-1.2653246E-2,-3.010935E-2,-1.4953299E-1,8.985273E-2,3.6275648E-3,2.0096879E-1,-3.8213015E-3,-1.221109E-2,2.448082E-2,-1.2438639E-2,-1.8808682E-2,-5.7980895E-2,1.6558127E-2,-1.4919691E-3,-1.7721042E-1,1.8914541E-2,2.6577307E-2,-6.536007E-3,-1.9475764E-2,1.3949694E-2,-2.2493476E-2,-7.7008554E-3,2.711749E-2,4.9042745E-5],"categories":[],"categories_nodes":[],"categories_segments":[],"categories_sizes":[],"default_left":[0,0,0,0,0,0,0,0,0,0,0,0,0,0,0,0,0,0,0,0,0,0,0,0,0,0,0,0,0,0,0,0,0,0,0,0,0,0,0],"id":26,"left_children":[1,3,5,7,9,-1,11,-1,-1,13,15,17,19,21,23,-1,-1,25,27,29,31,-1,-1,-1,-1,-1,33,-1,-1,35,37,-1,-1,-1,-1,-1,-1,-1,-1],"loss_changes":[1.3271903E-1,1.7736277E-1,2.235767E-1,4.829749E-2,2.2418118E-1,0E0,2.1323727E-1,0E0,0E0,1.1745559E-1,7.916212E-3,1.946795E-1,3.8277838E-1,3.696479E-3,2.1064518E-1,0E0,0E0,3.8688153E-2,4.007062E-2,2.6721933E-1,2.0680735E-1,0E0,0E0,0E0,0E0,0E0,1.7867357E-1,0E0,0E0,1.871708E-2,4.1310763E-1,0E0,0E0,0E0,0E0,0E0,0E0,0E0,0E0],"parents":[2147483647,0,0,1,1,2,2,3,3,4,4,6,6,9,9,10,10,11,11,12,12,13,13,14,14,17,17,18,18,19,19,20,20,26,26,29,29,30,30],"right_children":[2,4,6,8,10,-1,12,-1,-1,14,16,18,20,22,24,-1,-1,26,28,30,32,-1,-1,-1,-1,-1,34,-1,-1,36,38,-1,-1,-1,-1,-1,-1,-1,-1],"split_conditions":[1.3566667E1,1.1398964E1,1.395E1,9.83E-1,1.2916667E1,1.8452443E-2,1.5033334E1,1.5812283E-2,-2.630704E-3,1.2566667E1,1.3083333E1,1E0,9.954751E0,1.2E1,1E0,-1.2653246E-2,-3.010935E-2,1.1627907E1,1.4E1,1.68E1,1E0,-3.8213015E-3,-1.221109E-2,2.448082E-2,-1.2438639E-2,-1.8808682E-2,1.4566667E1,1.6558127E-2,-1.4919691E-3,1E0,2.4283333E1,2.6577307E-2,-6.536007E-3,-1.9475764E-2,1.3949694E-2,-2.2493476E-2,-7.7008554E-3,2.711749E-2,4.9042745E-5],"split_indices":[1,6,1,0,1,0,1,0,0,1,1,7,6,1,10,0,0,6,1,1,10,0,0,0,0,0,1,0,0,7,1,0,0,0,0,0,0,0,0],"split_type":[0,0,0,0,0,0,0,0,0,0,0,0,0,0,0,0,0,0,0,0,0,0,0,0,0,0,0,0,0,0,0,0,0,0,0,0,0,0,0],"sum_hessian":[1.4894098E2,2.1167593E1,1.27773384E2,4.65857E0,1.6509024E1,6.5583425E0,1.2121504E2,2.785668E0,1.8729017E0,1.0299787E1,6.2092376E0,1.6789402E1,1.04425644E2,5.833207E0,4.4665794E0,2.8780003E0,3.3312373E0,1.3050437E1,3.7389648E0,9.444971E1,9.975935E0,1.986656E0,3.846551E0,2.564235E0,1.9023445E0,8.4412775E0,4.60916E0,1.833406E0,1.9055588E0,6.536277E0,8.791343E1,8.025277E0,1.950658E0,2.7312331E0,1.8779268E0,3.5843158E0,2.9519613E0,5.0500727E0,8.286336E1],"tree_param":{"num_deleted":"0","num_feature":"18","num_nodes":"39","size_leaf_vector":"1"}},{"base_weights":[9.079379E-3,1.9449314E-2,-7.436176E-2,1.0329051E-2,2.8443275E-2,6.95437E-2,-1.2624829E-2,2.1285132E-2,-9.2910446E-2,2.1948036E-2,-7.018253E-3,7.970952E-3,1.4569198E-1,-4.8695077E-4,-1.184346E-2,1.7096398E-2,-1.5696192E-2,-5.3433344E-2,2.524221E-1,7.153697E-4,2.011426E-2,-1.0839782E-2,2.1325422E-3,3.5252836E-2,3.549099E-3],"categories":[],"categories_nodes":[],"categories_segments":[],"categories_sizes":[],"default_left":[0,0,0,0,0,0,0,0,0,0,0,0,0,0,0,0,0,0,0,0,0,0,0,0,0],"id":27,"left_children":[1,3,5,7,-1,9,-1,11,13,-1,-1,15,17,-1,-1,19,-1,21,23,-1,-1,-1,-1,-1,-1],"loss_changes":[1.3015789E-1,3.187301E-1,1.3310432E-1,1.4869277E-1,0E0,1.2135472E-1,0E0,1.944221E-1,2.7807176E-2,0E0,0E0,1.6481398E-1,2.5486335E-1,0E0,0E0,1.8699844E-1,0E0,2.1988112E-2,1.5185556E-1,0E0,0E0,0E0,0E0,0E0,0E0],"parents":[2147483647,0,0,1,1,2,2,3,3,5,5,7,7,8,8,11,11,12,12,15,15,17,17,18,18],"right_children":[2,4,6,8,-1,10,-1,12,14,-1,-1,16,18,-1,-1,20,-1,22,24,-1,-1,-1,-1,-1,-1],"split_conditions":[4.785E1,3.153E0,3.077784E0,2.117E0,2.8443275E-2,5.1083332E1,-1.2624829E-2,2.026E0,5.1129103E0,2.1948036E-2,-7.018253E-3,2.81E1,5.4294176E0,-4.8695077E-4,-1.184346E-2,2.77E1,-1.5696192E-2,2.06E0,1E0,7.153697E-4,2.011426E-2,-1.0839782E-2,2.1325422E-3,3.5252836E-2,3.549099E-3],"split_indices":[1,0,6,0,0,1,0,0,6,0,0,1,6,0,0,1,0,0,8,0,0,0,0,0,0],"split_type":[0,0,0,0,0,0,0,0,0,0,0,0,0,0,0,0,0,0,0,0,0,0,0,0,0],"sum_hessian":[1.4775154E2,1.3210114E2,1.56504135E1,1.2871013E2,3.3909962E0,4.057308E0,1.1593105E1,1.1707918E2,1.16309595E1,1.6818111E0,2.3754969E0,1.0672175E2,1.0357426E1,2.8817303E0,8.749229E0,1.01975945E2,4.745806E0,3.7885413E0,6.5688844E0,9.773489E1,4.241049E0,1.9240007E0,1.8645406E0,4.0670223E0,2.501862E0],"tree_param":{"num_deleted":"0","num_feature":"18","num_nodes":"25","size_leaf_vector":"1"}},{"base_weights":[7.529806E-3,-9.564933E-2,1.24396E-2,-3.6134012E-3,-1.12538235E-2,1.5301286E-2,5.4376787E-3,1.335235E-2,-1.0431211E-1,7.043736E-3,1.7674852E-2,-3.4350682E-2,-2.7045429E-2,-4.48218E-2,1.9380493E-2,2.6100105E-2,-1.45529825E-2,4.714982E-3,-1.3678362E-2,2.167044E-2,7.8932534E-4,-9.33305E-3,1.097067E-2],"categories":[],"categories_nodes":[],"categories_segments":[],"categories_sizes":[],"default_left":[0,0,0,0,0,0,0,0,0,0,0,0,0,0,0,0,0,0,0,0,0,0,0],"id":28,"left_children":[1,3,5,-1,-1,-1,7,9,11,13,-1,15,-1,17,19,21,-1,-1,-1,-1,-1,-1,-1],"loss_changes":[7.633008E-2,2.821423E-3,1.3940214E-1,0E0,0E0,0E0,1.20178826E-1,1.3114984E-1,9.894772E-2,8.066173E-2,0E0,5.5536672E-2,0E0,2.1167603E-1,2.2822618E-1,6.8499304E-2,0E0,0E0,0E0,0E0,0E0,0E0,0E0],"parents":[2147483647,0,0,1,1,2,2,6,6,7,7,8,8,9,9,11,11,13,13,14,14,15,15],"right_children":[2,4,6,-1,-1,-1,8,10,12,14,-1,16,-1,18,20,22,-1,-1,-1,-1,-1,-1,-1],"split_conditions":[1.2566667E1,1.2E1,9.25E-1,-3.6134012E-3,-1.12538235E-2,1.5301286E-2,1.2096774E1,1.1787819E1,9.91E-1,1.5033334E1,1.7674852E-2,1E0,-2.7045429E-2,1.3983334E1,1.5483334E1,9.5E-1,-1.45529825E-2,4.714982E-3,-1.3678362E-2,2.167044E-2,7.8932534E-4,-9.33305E-3,1.097067E-2],"split_indices":[1,1,0,0,0,0,6,6,0,1,0,9,0,1,1,0,0,0,0,0,0,0,0],"split_type":[0,0,0,0,0,0,0,0,0,0,0,0,0,0,0,0,0,0,0,0,0,0,0],"sum_hessian":[1.4732605E2,5.8525977E0,1.4147345E2,1.9876767E0,3.864921E0,5.7230153E0,1.3575043E2,1.2743847E2,8.311964E0,1.237054E2,3.7330728E0,6.6981635E0,1.6138E0,2.3264566E1,1.00440834E2,4.8346763E0,1.8634875E0,1.1875294E1,1.1389272E1,4.5427213E0,9.589811E1,1.9429293E0,2.8917468E0],"tree_param":{"num_deleted":"0","num_feature":"18","num_nodes":"23","size_leaf_vector":"1"}},{"base_weights":[3.276709E-6,1.3907593E-1,-3.7769033E-3,2.0696903E-2,9.3644747E-4,-9.1989584E-2,3.2986612E-3,-1.6843995E-2,-3.4610473E-2,1.3538472E-1,-3.725425E-3,4.6193018E-3,-6.788121E-2,2.7952088E-2,-6.4657996E-3,-1.855128E-2,3.6496483E-2,-2.5465346E-3,-8.289426E-3,-6.832217E-3,-1.0679602E-2,1.1896827E-1,-9.7925635E-3,-1.4508276E-3,2.4962889E-2,7.014145E-3,1.956493E-2,2.9466231E-3,-2.4898574E-2],"categories":[],"categories_nodes":[],"categories_segments":[],"categories_sizes":[],"default_left":[0,0,0,0,0,0,0,0,0,0,0,0,0,0,0,0,0,0,0,0,0,0,0,0,0,0,0,0,0],"id":29,"left_children":[1,3,5,-1,-1,7,9,-1,11,13,15,-1,17,-1,-1,19,21,-1,-1,23,-1,25,27,-1,-1,-1,-1,-1,-1],"loss_changes":[8.313239E-2,3.4912363E-2,9.639017E-2,0E0,0E0,4.4466965E-2,1.3362391E-1,0E0,2.4127964E-2,2.2773731E-1,8.249847E-2,0E0,1.6690809E-3,0E0,0E0,1.03634596E-1,1.4352596E-1,0E0,0E0,1.8110316E-1,0E0,3.6755174E-2,2.4030536E-1,0E0,0E0,0E0,0E0,0E0,0E0],"parents":[2147483647,0,0,1,1,2,2,5,5,6,6,8,8,9,9,10,10,12,12,15,15,16,16,19,19,21,21,22,22],"right_children":[2,4,6,-1,-1,8,10,-1,12,14,16,-1,18,-1,-1,20,22,-1,-1,24,-1,26,28,-1,-1,-1,-1,-1,-1],"split_conditions":[3.077784E0,1E0,3.4461153E0,2.0696903E-2,9.3644747E-4,5.03E1,3.7117229E0,-1.6843995E-2,3.543E0,4.785E1,1E0,4.6193018E-3,5.0633335E1,2.7952088E-2,-6.4657996E-3,2.107E0,6.2240663E0,-2.5465346E-3,-8.289426E-3,2.066E0,-1.0679602E-2,2.099E0,1.836E0,-1.4508276E-3,2.4962889E-2,7.014145E-3,1.956493E-2,2.9466231E-3,-2.4898574E-2],"split_indices":[6,10,6,0,0,1,6,0,0,1,8,0,1,0,0,0,6,0,0,0,0,0,0,0,0,0,0,0,0],"split_type":[0,0,0,0,0,0,0,0,0,0,0,0,0,0,0,0,0,0,0,0,0,0,0,0,0,0,0,0,0],"sum_hessian":[1.561315E2,3.1844618E0,1.5294704E2,1.699372E0,1.4850899E0,1.0465852E1,1.4248119E2,3.6573434E0,6.8085084E0,6.2715735E0,1.3620961E2,1.8724809E0,4.9360275E0,3.4142263E0,2.8573475E0,9.991834E1,3.6291275E1,1.9952177E0,2.9408097E0,8.915572E1,1.0762621E1,1.2482127E1,2.3809145E1,8.748079E1,1.6749315E0,8.795982E0,3.6861453E0,2.1205496E1,2.6036499E0],"tree_param":{"num_deleted":"0","num_feature":"18","num_nodes":"29","size_leaf_vector":"1"}},{"base_weights":[8.161566E-3,2.7742207E-2,-2.1547414E-2,1.0944272E-2,2.9984703E-2,-1.271853E-1,-3.6265505E-3,2.3856128E-2,-1.22510396E-1,-5.6638634E-3,-1.5381529E-2,2.7467033E-2,-1.7873952E-2,5.876154E-3,2.4648103E-1,-2.6961913E-2,-1.1043403E-3,-1.7909585E-2,-4.8931814E-3,2.4456648E-2,-1.9187756E-1,3.1457197E-2,4.3287827E-3,1.2587525E-2,-1.5423882E-2,1.3004415E-1,-2.183312E-2,5.437829E-4,1.2841544E-2,-2.207032E-2,-8.210485E-3,2.6624803E-2,-7.7478327E-3,-2.5813926E-2,-6.692594E-4],"categories":[],"categories_nodes":[],"categories_segments":[],"categories_sizes":[],"default_left":[0,0,0,0,0,0,0,0,0,0,0,0,0,0,0,0,0,0,0,0,0,0,0,0,0,0,0,0,0,0,0,0,0,0,0],"id":30,"left_children":[1,3,5,7,-1,9,11,13,15,-1,-1,-1,17,19,21,-1,23,-1,25,27,29,-1,-1,-1,-1,31,33,-1,-1,-1,-1,-1,-1,-1,-1],"loss_changes":[8.803596E-2,4.12822E-1,1.1364544E-1,1.5245725E-1,0E0,7.65644E-3,2.1331635E-1,3.1862104E-1,1.393373E-1,0E0,0E0,0E0,1.0573136E-1,2.803088E-1,6.8718135E-2,0E0,1.2222976E-1,0E0,1.12954214E-1,1.3662641E-1,2.6227832E-3,0E0,0E0,0E0,0E0,1.765631E-1,1.544649E-1,0E0,0E0,0E0,0E0,0E0,0E0,0E0,0E0],"parents":[2147483647,0,0,1,1,2,2,3,3,5,5,6,6,7,7,8,8,12,12,13,13,14,14,16,16,18,18,19,19,20,20,25,25,26,26],"right_children":[2,4,6,8,-1,10,12,14,16,-1,-1,-1,18,20,22,-1,24,-1,26,28,30,-1,-1,-1,-1,32,34,-1,-1,-1,-1,-1,-1,-1,-1],"split_conditions":[2.7266666E1,2.68E1,2.77E1,2.63E1,2.9984703E-2,2.7366667E1,2.785E1,2.5583334E1,2.6366667E1,-5.6638634E-3,-1.5381529E-2,2.7467033E-2,1.973E0,2.495E1,1E0,-2.6961913E-2,1E0,-1.7909585E-2,2.031E0,1.7066668E1,1E0,3.1457197E-2,4.3287827E-3,1.2587525E-2,-1.5423882E-2,1E0,2.034E0,5.437829E-4,1.2841544E-2,-2.207032E-2,-8.210485E-3,2.6624803E-2,-7.7478327E-3,-2.5813926E-2,-6.692594E-4],"split_indices":[1,1,1,1,0,1,1,1,1,0,0,0,0,1,7,0,7,0,0,1,10,0,0,0,0,9,0,0,0,0,0,0,0,0,0],"split_type":[0,0,0,0,0,0,0,0,0,0,0,0,0,0,0,0,0,0,0,0,0,0,0,0,0,0,0,0,0,0,0,0,0,0,0],"sum_hessian":[1.4930954E2,9.00352E1,5.9274334E1,8.5779945E1,4.2552595E0,7.712792E0,5.1561543E1,7.896158E1,6.81836E0,2.9704688E0,4.7423234E0,1.6209345E0,4.994061E1,7.401062E1,4.950964E0,2.530874E0,4.2874856E0,2.767768E0,4.717284E1,6.845506E1,5.5555563E0,3.2977362E0,1.6532278E0,2.4412239E0,1.846262E0,4.5168104E0,4.265603E1,5.8757866E1,9.697195E0,3.5997393E0,1.955817E0,2.5561442E0,1.9606661E0,1.6020734E0,4.1053955E1],"tree_param":{"num_deleted":"0","num_feature":"18","num_nodes":"35","size_leaf_vector":"1"}},{"base_weights":[-1.1671692E-3,-3.580163E-2,1.1661509E-2,-1.3118331E-2,-1.5756945E-1,-6.314483E-3,1.3084666E-1,2.7179018E-2,-4.9803678E-2,-1.9311894E-2,-4.9647447E-3,8.43144E-3,-1.392997E-1,6.441174E-2,2.7657071E-2,2.4450852E-2,-2.4275253E-2,-1.5793646E-2,-2.728094E-2,-3.0943565E-3,9.8509416E-2,3.7051234E-3,-1.782588E-2,1.4507939E-1,-2.704381E-2,7.414422E-3,-1.2362658E-2,5.9822532E-3,-2.8309716E-2,1.4427089E-2,-2.103284E-1,2.8561454E-2,3.0265385E-2,2.5749424E-2,7.2040364E-2,-5.299996E-3,2.6149487E-2,6.171404E-4,-1.1057078E-2,2.6443374E-4,2.2098336E-2,-2.4344055E-2,-8.794506E-3,2.386015E-2,-9.649249E-3,1.3631672E-2,-7.2218217E-3],"categories":[],"categories_nodes":[],"categories_segments":[],"categories_sizes":[],"default_left":[0,0,0,0,0,0,0,0,0,0,0,0,0,0,0,0,0,0,0,0,0,0,0,0,0,0,0,0,0,0,0,0,0,0,0,0,0,0,0,0,0,0,0,0,0,0,0],"id":31,"left_children":[1,3,5,7,9,11,13,15,17,-1,-1,19,21,23,-1,-1,25,27,-1,29,31,-1,-1,33,-1,35,-1,-1,37,39,41,43,-1,-1,45,-1,-1,-1,-1,-1,-1,-1,-1,-1,-1,-1,-1],"loss_changes":[7.010412E-2,1.15702525E-1,2.4764545E-1,5.6100503E-2,1.5751272E-2,1.9934976E-1,1.2879965E-1,2.1051672E-1,1.453959E-1,0E0,0E0,9.573227E-2,7.630119E-2,3.5542205E-1,0E0,0E0,5.0353527E-2,1.890694E-2,0E0,3.0244032E-1,1.4067787E-1,0E0,0E0,6.424616E-2,0E0,2.1108261E-1,0E0,0E0,4.6870515E-2,1.8673304E-1,4.9001575E-3,2.5660118E-1,0E0,0E0,7.939656E-2,0E0,0E0,0E0,0E0,0E0,0E0,0E0,0E0,0E0,0E0,0E0,0E0],"parents":[2147483647,0,0,1,1,2,2,3,3,4,4,5,5,6,6,7,7,8,8,11,11,12,12,13,13,16,16,17,17,19,19,20,20,23,23,25,25,28,28,29,29,30,30,31,31,34,34],"right_children":[2,4,6,8,10,12,14,16,18,-1,-1,20,22,24,-1,-1,26,28,-1,30,32,-1,-1,34,-1,36,-1,-1,38,40,42,44,-1,-1,46,-1,-1,-1,-1,-1,-1,-1,-1,-1,-1,-1,-1],"split_conditions":[5.667182E0,1E0,1.941E0,3.5928144E0,1.255E-1,1.876E0,2.865E1,4.785E1,2.381E0,-1.9311894E-2,-4.9647447E-3,2.5583334E1,2.6183332E1,2.048E0,2.7657071E-2,2.4450852E-2,5.1833332E1,1.968E0,-2.728094E-2,1.791E0,6.508876E0,3.7051234E-3,-1.782588E-2,1.958E0,-2.704381E-2,5.1183334E1,-1.2362658E-2,5.9822532E-3,5.481955E0,1.749E0,1E0,2.63E1,3.0265385E-2,2.5749424E-2,1E0,-5.299996E-3,2.6149487E-2,6.171404E-4,-1.1057078E-2,2.6443374E-4,2.2098336E-2,-2.4344055E-2,-8.794506E-3,2.386015E-2,-9.649249E-3,1.3631672E-2,-7.2218217E-3],"split_indices":[6,9,0,6,13,0,1,1,0,0,0,1,1,0,0,0,1,0,0,0,6,0,0,0,0,1,0,0,6,0,10,1,0,0,9,0,0,0,0,0,0,0,0,0,0,0,0],"split_type":[0,0,0,0,0,0,0,0,0,0,0,0,0,0,0,0,0,0,0,0,0,0,0,0,0,0,0,0,0,0,0,0,0,0,0,0,0,0,0,0,0,0,0,0,0,0,0],"sum_hessian":[1.5584079E2,4.1637753E1,1.1420304E2,3.603312E1,5.6046324E0,1.00058784E2,1.4144256E1,1.7294716E1,1.8738403E1,3.6220875E0,1.9825449E0,9.091444E1,9.144351E0,1.0705623E1,3.438633E0,2.59254E0,1.4702175E1,1.7187937E1,1.5504668E0,8.145733E1,9.457107E0,1.663478E0,7.480873E0,9.083965E0,1.6216574E0,1.1848334E1,2.8538413E0,1.9041722E0,1.5283765E1,7.596494E1,5.492383E0,7.8926725E0,1.564434E0,2.5830073E0,6.500958E0,1.0211648E1,1.636686E0,1.1421308E1,3.8624573E0,7.2823616E1,3.1413329E0,3.5442765E0,1.9481064E0,2.6066186E0,5.2860537E0,4.535263E0,1.9656949E0],"tree_param":{"num_deleted":"0","num_feature":"18","num_nodes":"47","size_leaf_vector":"1"}},{"base_weights":[-4.9886405E-3,8.96521E-3,-5.4371636E-2,-8.228889E-2,1.857114E-2,-8.82171E-2,8.102577E-2,-1.40602365E-2,2.6584037E-2,1.2709835E-1,3.5810568E-3,-1.24729075E-1,-2.218483E-2,-7.981932E-3,2.3627754E-2,-6.4877854E-3,1.10607995E-2,1.8284908E-2,2.1962594E-2,-1.45260235E-2,1.0763211E-2,2.1479086E-3,-1.4400221E-1,3.0323137E-2,-1.0814066E-1,1.4763633E-2,-1.1436635E-2,-3.3203885E-3,8.586818E-3,9.787235E-2,-7.613183E-3,1.3579221E-3,-1.6675982E-1,-1.6586969E-2,1.88317E-3,-1.0607757E-3,1.8380037E-2,2.2987693E-3,-4.7524557E-3,-1.9458536E-2,1.1444603E-3],"categories":[],"categories_nodes":[],"categories_segments":[],"categories_sizes":[],"default_left":[0,0,0,0,0,0,0,0,0,0,0,0,0,0,0,0,0,0,0,0,0,0,0,0,0,0,0,0,0,0,0,0,0,0,0,0,0,0,0,0,0],"id":32,"left_children":[1,3,5,7,9,11,13,-1,15,17,19,21,23,25,-1,-1,-1,-1,27,-1,29,-1,31,-1,33,-1,-1,-1,-1,35,37,-1,39,-1,-1,-1,-1,-1,-1,-1,-1],"loss_changes":[1.05749145E-1,1.06683366E-1,1.6201884E-1,7.744184E-2,1.7744131E-1,6.3572645E-2,1.02481656E-1,0E0,4.4757172E-2,7.360026E-2,1.0537367E-1,5.2412182E-2,3.4085873E-1,1.0950079E-1,0E0,0E0,0E0,0E0,2.3034792E-2,0E0,1.5052803E-1,0E0,5.8185667E-2,0E0,7.238812E-2,0E0,0E0,0E0,0E0,1.545689E-1,9.659688E-2,0E0,7.016528E-2,0E0,0E0,0E0,0E0,0E0,0E0,0E0,0E0],"parents":[2147483647,0,0,1,1,2,2,3,3,4,4,5,5,6,6,8,8,9,9,10,10,11,11,12,12,13,13,18,18,20,20,22,22,24,24,29,29,30,30,32,32],"right_children":[2,4,6,8,10,12,14,-1,16,18,20,22,24,26,-1,-1,-1,-1,28,-1,30,-1,32,-1,34,-1,-1,-1,-1,36,38,-1,40,-1,-1,-1,-1,-1,-1,-1,-1],"split_conditions":[1E0,1.325E1,1.255E-1,1.3157895E1,9.91E-1,2.6366667E1,2E0,-1.40602365E-2,8.98E-1,1E0,1.018E0,9.45E-1,1.895E0,1.295E-1,2.3627754E-2,-6.4877854E-3,1.10607995E-2,1.8284908E-2,1.35E1,-1.45260235E-2,2.6E-2,2.1479086E-3,2E-3,3.0323137E-2,5.717008E0,1.4763633E-2,-1.1436635E-2,-3.3203885E-3,8.586818E-3,5.863539E0,2E0,1.3579221E-3,1.19E-1,-1.6586969E-2,1.88317E-3,-1.0607757E-3,1.8380037E-2,2.2987693E-3,-4.7524557E-3,-1.9458536E-2,1.1444603E-3],"split_indices":[9,1,13,6,0,1,15,0,0,8,0,0,0,13,0,0,0,0,1,0,13,0,13,0,6,0,0,0,0,6,15,0,13,0,0,0,0,0,0,0,0],"split_type":[0,0,0,0,0,0,0,0,0,0,0,0,0,0,0,0,0,0,0,0,0,0,0,0,0,0,0,0,0,0,0,0,0,0,0,0,0,0,0,0,0],"sum_hessian":[1.517562E2,1.1896066E2,3.279553E1,1.0609205E1,1.08351456E2,2.6515799E1,6.279731E0,6.719002E0,3.8902032E0,1.2241921E1,9.6109535E1,1.6502161E1,1.0013638E1,4.594332E0,1.6853986E0,1.9717622E0,1.918441E0,7.516793E0,4.725129E0,3.539183E0,9.257035E1,1.90863E0,1.4593532E1,1.564168E0,8.44947E0,1.708049E0,2.8862832E0,2.7938027E0,1.9313264E0,1.537285E1,7.71975E1,1.8925035E0,1.2701028E1,5.5979643E0,2.8515048E0,7.182204E0,8.190647E0,4.393537E1,3.326213E1,1.0906174E1,1.7948546E0],"tree_param":{"num_deleted":"0","num_feature":"18","num_nodes":"41","size_leaf_vector":"1"}},{"base_weights":[3.1876224E-3,1.6554812E-2,2.0216976E-4,1.9404083E-2,-2.5023889E-2,9.3118E-4,1.5656772E-1,-2.0548461E-2,-8.682407E-3,2.037675E-2,-1.8656142E-2,6.978928E-2,3.1550925E-2,2.2254713E-2,-2.259881E-2,9.110439E-3,2.0138803E-1,1.6176972E-1,-1.5624203E-2,-5.4791544E-2,5.3000846E-3,2.143911E-3,-1.2929305E-2,3.5764627E-2,-1.0583937E-3,4.649409E-3,2.3117792E-2,-7.519842E-3,1.0602591E-2,-6.111116E-3,4.0634805E-3],"categories":[],"categories_nodes":[],"categories_segments":[],"categories_sizes":[],"default_left":[0,0,0,0,0,0,0,0,0,0,0,0,0,0,0,0,0,0,0,0,0,0,0,0,0,0,0,0,0,0,0],"id":33,"left_children":[1,-1,3,5,7,9,11,-1,13,15,-1,17,-1,-1,19,21,23,25,-1,27,29,-1,-1,-1,-1,-1,-1,-1,-1,-1,-1],"loss_changes":[7.610856E-2,0E0,7.568671E-2,2.2463739E-1,1.9737966E-1,2.9251975E-1,1.2313029E-1,0E0,2.0766714E-1,1.4632265E-1,0E0,1.934937E-1,0E0,0E0,5.44532E-2,1.2126057E-1,1.4321306E-1,3.9195865E-2,0E0,1.0014624E-1,8.043583E-2,0E0,0E0,0E0,0E0,0E0,0E0,0E0,0E0,0E0,0E0],"parents":[2147483647,0,0,2,2,3,3,4,4,5,5,6,6,8,8,9,9,11,11,14,14,15,15,16,16,17,17,19,19,20,20],"right_children":[2,-1,4,6,8,10,12,-1,14,16,-1,18,-1,-1,20,22,24,26,-1,28,30,-1,-1,-1,-1,-1,-1,-1,-1,-1,-1],"split_conditions":[4.5E-3,1.6554812E-2,1.876E0,2.5583334E1,2.6883333E1,1.791E0,1.2E1,-2.0548461E-2,2.7266666E1,1.749E0,-1.8656142E-2,1E0,3.1550925E-2,2.2254713E-2,1.2E1,1.69E0,1.763E0,1.844E0,-1.5624203E-2,5.1183334E1,2.865E1,2.143911E-3,-1.2929305E-2,3.5764627E-2,-1.0583937E-3,4.649409E-3,2.3117792E-2,-7.519842E-3,1.0602591E-2,-6.111116E-3,4.0634805E-3],"split_indices":[13,0,0,1,1,0,5,0,1,0,0,7,0,0,5,0,0,0,0,1,1,0,0,0,0,0,0,0,0,0,0],"split_type":[0,0,0,0,0,0,0,0,0,0,0,0,0,0,0,0,0,0,0,0,0,0,0,0,0,0,0,0,0,0,0],"sum_hessian":[1.5608469E2,1.8350666E0,1.5424962E2,8.771348E1,6.653615E1,7.8189835E1,9.523648E0,4.5637503E0,6.1972397E1,7.1650055E1,6.5397797E0,7.0911374E0,2.4325113E0,2.6669915E0,5.9305405E1,6.8440575E1,3.2094748E0,5.2421985E0,1.8489387E0,2.7086346E1,3.221906E1,6.3618668E1,4.821911E0,1.4519298E0,1.757545E0,2.5977035E0,2.644495E0,2.4508718E1,2.5776272E0,1.0935814E1,2.1283243E1],"tree_param":{"num_deleted":"0","num_feature":"18","num_nodes":"31","size_leaf_vector":"1"}},{"base_weights":[-4.905466E-3,1.5367853E-2,-7.860531E-3,-4.3581E-3,-1.1298514E-1,-9.472179E-3,1.3780089E-1,-4.709365E-3,-1.4217204E-2,-1.0963568E-1,-3.761977E-3,2.7311295E-2,-8.558714E-3,-6.173978E-2,-1.716573E-2,1.4736625E-2,-8.059934E-3,-8.078376E-3,-1.629453E-3,-3.633847E-4,-1.1584645E-2],"categories":[],"categories_nodes":[],"categories_segments":[],"categories_sizes":[],"default_left":[0,0,0,0,0,0,0,0,0,0,0,0,0,0,0,0,0,0,0,0,0],"id":34,"left_children":[1,-1,3,5,7,9,11,-1,-1,13,15,-1,-1,17,-1,-1,19,-1,-1,-1,-1],"loss_changes":[7.310608E-2,0E0,5.5313632E-2,1.0870028E-1,2.6259013E-3,8.1678405E-2,1.8037298E-1,0E0,0E0,1.2291633E-2,9.005923E-2,0E0,0E0,3.7981328E-3,0E0,0E0,6.350019E-2,0E0,0E0,0E0,0E0],"parents":[2147483647,0,0,2,2,3,3,4,4,5,5,6,6,9,9,10,10,13,13,16,16],"right_children":[2,-1,4,6,8,10,12,-1,-1,14,16,-1,-1,18,-1,-1,20,-1,-1,-1,-1],"split_conditions":[4.5E-3,1.5367853E-2,5.1833332E1,1.94E-1,3.585E0,3.4461153E0,1.98E-1,-4.709365E-3,-1.4217204E-2,3.3426185E0,3.5118525E0,2.7311295E-2,-8.558714E-3,5.03E1,-1.716573E-2,1.4736625E-2,4.7133335E1,-8.078376E-3,-1.629453E-3,-3.633847E-4,-1.1584645E-2],"split_indices":[13,0,1,13,0,6,13,0,0,6,6,0,0,1,0,0,1,0,0,0,0],"split_type":[0,0,0,0,0,0,0,0,0,0,0,0,0,0,0,0,0,0,0,0,0],"sum_hessian":[1.5242311E2,1.8552592E0,1.5056786E2,1.4672102E2,3.8468406E0,1.4252707E2,4.1939516E0,1.9831834E0,1.8636572E0,6.705469E0,1.358216E2,2.4732463E0,1.7207054E0,4.9095488E0,1.7959206E0,2.8353465E0,1.3298625E2,2.9117603E0,1.9977884E0,1.287337E2,4.252538E0],"tree_param":{"num_deleted":"0","num_feature":"18","num_nodes":"21","size_leaf_vector":"1"}},{"base_weights":[-4.311096E-3,1.4275655E-2,-7.041361E-3,-1.2851553E-2,-3.0611963E-3,9.577362E-3,-3.137527E-2,2.7975696E-3,1.9155255E-2,-2.4399256E-2,-1.822707E-2,8.4006665E-3,-1.41263995E-2,1.6299216E-2,-2.9726671E-2,1.955328E-4,2.3661742E-2,-2.4227416E-2,-1.5195771E-3],"categories":[],"categories_nodes":[],"categories_segments":[],"categories_sizes":[],"default_left":[0,0,0,0,0,0,0,0,0,0,0,0,0,0,0,0,0,0,0],"id":35,"left_children":[1,-1,3,-1,5,7,9,11,-1,-1,13,15,-1,-1,17,-1,-1,-1,-1],"loss_changes":[6.326355E-2,0E0,7.366635E-2,0E0,5.374274E-2,1.2779891E-1,1.2505084E-1,8.295383E-2,0E0,0E0,9.8010555E-2,1.4435059E-1,0E0,0E0,1.287668E-1,0E0,0E0,0E0,0E0],"parents":[2147483647,0,0,2,2,4,4,5,5,6,6,7,7,10,10,11,11,14,14],"right_children":[2,-1,4,-1,6,8,10,12,-1,-1,14,16,-1,-1,18,-1,-1,-1,-1],"split_conditions":[4.5E-3,1.4275655E-2,9E-3,-1.2851553E-2,2.031E0,1.973E0,2.034E0,2.785E1,1.9155255E-2,-2.4399256E-2,2.048E0,2.77E1,-1.41263995E-2,1.6299216E-2,2.865E1,1.955328E-4,2.3661742E-2,-2.4227416E-2,-1.5195771E-3],"split_indices":[13,0,13,0,0,0,0,1,0,0,0,1,0,0,1,0,0,0,0],"split_type":[0,0,0,0,0,0,0,0,0,0,0,0,0,0,0,0,0,0,0],"sum_hessian":[1.5405135E2,1.8730221E0,1.5217831E2,3.835336E0,1.4834299E2,1.03019775E2,4.5323208E1,1.0029836E2,2.7214112E0,1.6170506E0,4.3706158E1,9.744986E1,2.8485048E0,1.821881E0,4.1884277E1,9.575412E1,1.6957372E0,1.6772752E0,4.0207005E1],"tree_param":{"num_deleted":"0","num_feature":"18","num_nodes":"19","size_leaf_vector":"1"}},{"base_weights":[-4.9597025E-3,-5.4054894E-2,2.5425567E-3,6.3993814E-3,-1.8620592E-1,6.4852308E-3,-1.0394673E-1,4.7030475E-2,-1.3273519E-2,-6.3195177E-3,-2.7188241E-2,1.8668228E-3,2.2365859E-2,-1.311228E-2,-4.2914483E-3,-3.2266855E-2,1.8344857E-2,-6.5409206E-2,7.601401E-3,1.2490936E-2,-9.49072E-2,3.0478025E-3,-1.0041607E-1,1.4913043E-1,6.527344E-4,-1.5215433E-2,-1.5082763E-3,-5.5859652E-3,-1.5836569E-2,2.2122897E-2,1.0062811E-3,6.216268E-4,-2.4283556E-2],"categories":[],"categories_nodes":[],"categories_segments":[],"categories_sizes":[],"default_left":[0,0,0,0,0,0,0,0,0,0,0,0,0,0,0,0,0,0,0,0,0,0,0,0,0,0,0,0,0,0,0,0,0],"id":36,"left_children":[1,3,5,7,9,11,13,15,-1,-1,-1,17,-1,-1,-1,19,-1,21,23,-1,25,-1,27,29,31,-1,-1,-1,-1,-1,-1,-1,-1],"loss_changes":[5.690438E-2,1.6476443E-1,5.7206187E-2,9.112423E-2,5.089788E-2,1.3075566E-1,2.4436712E-3,1.3961942E-1,0E0,0E0,0E0,5.0291054E-2,0E0,0E0,0E0,9.718198E-2,0E0,3.7438504E-2,1.17743164E-1,0E0,2.8619792E-2,0E0,1.11267045E-2,5.395613E-2,1.575952E-1,0E0,0E0,0E0,0E0,0E0,0E0,0E0,0E0],"parents":[2147483647,0,0,1,1,2,2,3,3,4,4,5,5,6,6,7,7,11,11,15,15,17,17,18,18,20,20,22,22,23,23,24,24],"right_children":[2,4,6,8,10,12,14,16,-1,-1,-1,18,-1,-1,-1,20,-1,22,24,-1,26,-1,28,30,32,-1,-1,-1,-1,-1,-1,-1,-1],"split_conditions":[1.8E-2,1.45E-2,5.1833332E1,1.2096774E1,5.609383E0,5.1183334E1,1E0,1E0,-1.3273519E-2,-6.3195177E-3,-2.7188241E-2,3.4461153E0,2.2365859E-2,-1.311228E-2,-4.2914483E-3,1.39E1,1.8344857E-2,3.077784E0,3.5928144E0,1.2490936E-2,1.2E1,3.0478025E-3,3.3426185E0,4.785E1,4.7133335E1,-1.5215433E-2,-1.5082763E-3,-5.5859652E-3,-1.5836569E-2,2.2122897E-2,1.0062811E-3,6.216268E-4,-2.4283556E-2],"split_indices":[13,13,1,6,6,1,8,7,0,0,0,6,0,0,0,1,0,6,6,0,5,0,6,1,1,0,0,0,0,0,0,0,0],"split_type":[0,0,0,0,0,0,0,0,0,0,0,0,0,0,0,0,0,0,0,0,0,0,0,0,0,0,0,0,0,0,0,0,0],"sum_hessian":[1.5312193E2,1.9474514E1,1.3364742E2,1.401482E1,5.4596934E0,1.2978148E2,3.8659472E0,1.1359511E1,2.655309E0,2.9548478E0,2.5048456E0,1.280666E2,1.7148683E0,1.8802868E0,1.9856606E0,7.6665545E0,3.6929567E0,9.241579E0,1.1882503E2,1.9014337E0,5.7651205E0,2.5062058E0,6.7353735E0,4.603342E0,1.1422169E2,2.8296726E0,2.9354482E0,4.917969E0,1.8174039E0,2.6425378E0,1.9608045E0,1.126228E2,1.5988809E0],"tree_param":{"num_deleted":"0","num_feature":"18","num_nodes":"33","size_leaf_vector":"1"}},{"base_weights":[5.865553E-3,2.1485208E-2,-1.6698077E-2,2.8892253E-2,1.3608003E-2,-1.180115E-2,-4.6255556E-3,2.1809638E-2,-1.83422E-2,1.8925486E-2,-1.4096884E-2,4.920505E-3,1.4371687E-1,-5.7405937E-2,3.811973E-3,1.791059E-2,-1.6298361E-2,6.4955294E-2,2.8602405E-2,-2.3179337E-2,-2.2441978E-2,-2.5427904E-2,2.4441643E-2,7.4423716E-4,1.861388E-2,2.1298084E-2,-4.555933E-3,-6.098296E-3,1.6053578E-2,-9.114014E-4,-1.1297028E-2],"categories":[],"categories_nodes":[],"categories_segments":[],"categories_sizes":[],"default_left":[0,0,0,0,0,0,0,0,0,0,0,0,0,0,0,0,0,0,0,0,0,0,0,0,0,0,0,0,0,0,0],"id":37,"left_children":[1,3,5,-1,7,-1,9,11,-1,-1,13,15,17,19,21,23,-1,25,-1,27,-1,29,-1,-1,-1,-1,-1,-1,-1,-1,-1],"loss_changes":[5.517928E-2,1.9062845E-1,7.796855E-2,0E0,1.5066862E-1,0E0,1.0990549E-1,1.8053536E-1,0E0,0E0,4.4125855E-2,1.7381261E-1,1.0108258E-1,8.981983E-2,2.945641E-1,1.2827525E-1,0E0,1.4329538E-1,0E0,1.1334753E-1,0E0,5.2456155E-2,0E0,0E0,0E0,0E0,0E0,0E0,0E0,0E0,0E0],"parents":[2147483647,0,0,1,1,2,2,4,4,6,6,7,7,10,10,11,11,12,12,13,13,14,14,15,15,17,17,19,19,21,21],"right_children":[2,4,6,-1,8,-1,10,12,-1,-1,14,16,18,20,22,24,-1,26,-1,28,-1,30,-1,-1,-1,-1,-1,-1,-1,-1,-1],"split_conditions":[1.897E0,5.857295E0,1.941E0,2.8892253E-2,1.876E0,-1.180115E-2,2.7266666E1,2.555E1,-1.83422E-2,1.8925486E-2,2.865E1,1.791E0,1.2E1,2.048E0,5.678885E0,1.749E0,-1.6298361E-2,2.63E1,2.8602405E-2,2.034E0,-2.2441978E-2,1E0,2.4441643E-2,7.4423716E-4,1.861388E-2,2.1298084E-2,-4.555933E-3,-6.098296E-3,1.6053578E-2,-9.114014E-4,-1.1297028E-2],"split_indices":[0,6,0,0,0,0,1,1,0,0,1,0,5,0,6,0,0,1,0,0,0,9,0,0,0,0,0,0,0,0,0],"split_type":[0,0,0,0,0,0,0,0,0,0,0,0,0,0,0,0,0,0,0,0,0,0,0,0,0,0,0,0,0,0,0],"sum_hessian":[1.5454738E2,9.135485E1,6.3192528E1,1.5929983E0,8.9761856E1,5.7939653E0,5.739856E1,8.702849E1,2.733368E0,1.7892991E0,5.560926E1,7.735239E1,9.676103E0,1.56229E1,3.9986362E1,7.262686E1,4.725528E0,7.1662827E0,2.5098195E0,1.391089E1,1.7120097E0,3.6450916E1,3.5354452E0,6.935537E1,3.2714875E0,2.6669466E0,4.4993362E0,1.2090954E1,1.8199359E0,3.165583E1,4.795088E0],"tree_param":{"num_deleted":"0","num_feature":"18","num_nodes":"31","size_leaf_vector":"1"}},{"base_weights":[2.338897E-3,-1.3516195E-2,2.1209143E-2,-2.3884019E-4,-1.7516352E-1,8.747676E-3,2.603603E-2,3.1221151E-2,-1.0204492E-2,-2.0300984E-2,-7.2522755E-3,1.8147772E-2,-1.2182396E-2,1.8500233E-2,-4.490503E-2,-1.2387127E-3,2.3421982E-2,7.806371E-2,-4.953836E-3,-1.0430127E-1,1.716717E-2,1.1906891E-2,-2.1410042E-2,-2.881793E-3,2.1901619E-2,-1.0294546E-2,2.467416E-3,-3.301055E-2,-6.5630893E-3,2.186018E-2,-1.6164478E-3,-2.4010602E-4,1.843712E-2],"categories":[],"categories_nodes":[],"categories_segments":[],"categories_sizes":[],"default_left":[0,0,0,0,0,0,0,0,0,0,0,0,0,0,0,0,0,0,0,0,0,0,0,0,0,0,0,0,0,0,0,0,0],"id":38,"left_children":[1,3,5,7,9,11,-1,-1,13,-1,-1,15,-1,17,19,21,-1,23,25,27,29,31,-1,-1,-1,-1,-1,-1,-1,-1,-1,-1,-1],"loss_changes":[4.7810085E-2,1.865251E-1,2.1501753E-1,2.5642997E-1,4.1316003E-3,8.854169E-2,0E0,0E0,8.0301955E-2,0E0,0E0,2.7878293E-1,0E0,6.237604E-2,1.3603565E-1,1.7605045E-1,0E0,1.9607174E-1,9.7701654E-2,1.42044E-1,1.2884308E-1,1.4688429E-1,0E0,0E0,0E0,0E0,0E0,0E0,0E0,0E0,0E0,0E0,0E0],"parents":[2147483647,0,0,1,1,2,2,3,3,4,4,5,5,8,8,11,11,13,13,14,14,15,15,17,17,18,18,19,19,20,20,21,21],"right_children":[2,4,6,8,10,12,-1,-1,14,-1,-1,16,-1,18,20,22,-1,24,26,28,30,32,-1,-1,-1,-1,-1,-1,-1,-1,-1,-1,-1],"split_conditions":[6.514658E0,6.3257775E0,1.798E0,1.763E0,1E0,1.69E0,2.603603E-2,3.1221151E-2,8E-2,-2.0300984E-2,-7.2522755E-3,1.7066668E1,-1.2182396E-2,2.7266666E1,3.385E0,1.6266666E1,2.3421982E-2,2.6366667E1,2.77E1,3.6596522E0,4.785E1,1.6033333E1,-2.1410042E-2,-2.881793E-3,2.1901619E-2,-1.0294546E-2,2.467416E-3,-3.301055E-2,-6.5630893E-3,2.186018E-2,-1.6164478E-3,-2.4010602E-4,1.843712E-2],"split_indices":[6,6,0,0,7,0,0,0,13,0,0,1,0,1,0,1,0,1,1,6,1,1,0,0,0,0,0,0,0,0,0,0,0],"split_type":[0,0,0,0,0,0,0,0,0,0,0,0,0,0,0,0,0,0,0,0,0,0,0,0,0,0,0,0,0,0,0,0,0],"sum_hessian":[1.5784055E2,8.5926994E1,7.191355E1,8.0330315E1,5.596678E0,6.9337166E1,2.576379E0,1.545513E0,7.8784805E1,3.6331422E0,1.9635354E0,6.548387E1,3.853294E0,4.3372982E1,3.541182E1,6.100466E1,4.4792128E0,1.1595901E1,3.1777082E1,1.774832E1,1.7663502E1,5.834551E1,2.6591544E0,7.0474777E0,4.5484233E0,6.8028235E0,2.4974258E1,1.4931457E0,1.6255175E1,1.7186604E0,1.5944841E1,5.4786404E1,3.5591018E0],"tree_param":{"num_deleted":"0","num_feature":"18","num_nodes":"33","size_leaf_vector":"1"}},{"base_weights":[-3.007616E-3,-1.8547176E-4,-1.1109047E-2,-4.055409E-3,2.0885484E-2,-1.9288363E-3,-1.1521714E-2,-5.9614354E-3,2.1430518E-2,-2.263289E-3,-9.349883E-2,-7.3145353E-4,1.8432051E-2,-1.174844E-2,-3.1277363E-3],"categories":[],"categories_nodes":[],"categories_segments":[],"categories_sizes":[],"default_left":[0,0,0,0,0,0,0,0,0,0,0,0,0,0,0],"id":39,"left_children":[1,3,-1,5,-1,7,-1,9,-1,11,13,-1,-1,-1,-1],"loss_changes":[4.657233E-2,1.2208428E-1,0E0,3.4792993E-2,0E0,1.2890062E-1,0E0,4.661622E-2,0E0,1.331203E-1,5.0389543E-3,0E0,0E0,0E0,0E0],"parents":[2147483647,0,0,1,1,3,3,5,5,7,7,9,9,10,10],"right_children":[2,4,-1,6,-1,8,-1,10,-1,12,14,-1,-1,-1,-1],"split_conditions":[5.1833332E1,5.1183334E1,-1.1109047E-2,3.586E0,2.0885484E-2,1.94E-1,-1.1521714E-2,4.9666668E1,2.1430518E-2,3.389E0,5.03E1,-7.3145353E-4,1.8432051E-2,-1.174844E-2,-3.1277363E-3],"split_indices":[1,1,0,0,0,13,0,1,0,0,1,0,0,0,0],"split_type":[0,0,0,0,0,0,0,0,0,0,0,0,0,0,0],"sum_hessian":[1.51751E2,1.488657E2,2.8853068E0,1.4712263E2,1.7430632E0,1.453592E2,1.7634339E0,1.4365263E2,1.7065811E0,1.3881407E2,4.8385506E0,1.3609059E2,2.7234836E0,2.8512616E0,1.987289E0],"tree_param":{"num_deleted":"0","num_feature":"18","num_nodes":"15","size_leaf_vector":"1"}},{"base_weights":[1.4890272E-3,-8.1819564E-2,5.271644E-3,-2.800052E-3,-9.79961E-3,1.2601107E-2,-4.1373947E-4,-1.348634E-2,4.1869967E-3,6.665361E-2,