
{"learner":{"attributes":{"scikit_learn":"{\"_estimator_type\": \"regressor\"}"},"feature_names":[],"feature_types":[],"gradient_booster":{"model":{"cats":{"enc":[],"feature_segments":[],"sorted_idx":[]},"gbtree_model_param":{"num_parallel_tree":"1","num_trees":"300"},"iteration_indptr":[0,1,2,3,4,5,6,7,8,9,10,11,12,13,14,15,16,17,18,19,20,21,22,23,24,25,26,27,28,29,30,31,32,33,34,35,36,37,38,39,40,41,42,43,44,45,46,47,48,49,50,51,52,53,54,55,56,57,58,59,60,61,62,63,64,65,66,67,68,69,70,71,72,73,74,75,76,77,78,79,80,81,82,83,84,85,86,87,88,89,90,91,92,93,94,95,96,97,98,99,100,101,102,103,104,105,106,107,108,109,110,111,112,113,114,115,116,117,118,119,120,121,122,123,124,125,126,127,128,129,130,131,132,133,134,135,136,137,138,139,140,141,142,143,144,145,146,147,148,149,150,151,152,153,154,155,156,157,158,159,160,161,162,163,164,165,166,167,168,169,170,171,172,173,174,175,176,177,178,179,180,181,182,183,184,185,186,187,188,189,190,191,192,193,194,195,196,197,198,199,200,201,202,203,204,205,206,207,208,209,210,211,212,213,214,215,216,217,218,219,220,221,222,223,224,225,226,227,228,229,230,231,232,233,234,235,236,237,238,239,240,241,242,243,244,245,246,247,248,249,250,251,252,253,254,255,256,257,258,259,260,261,262,263,264,265,266,267,268,269,270,271,272,273,274,275,276,277,278,279,280,281,282,283,284,285,286,287,288,289,290,291,292,293,294,295,296,297,298,299,300],"tree_info":[0,0,0,0,0,0,0,0,0,0,0,0,0,0,0,0,0,0,0,0,0,0,0,0,0,0,0,0,0,0,0,0,0,0,0,0,0,0,0,0,0,0,0,0,0,0,0,0,0,0,0,0,0,0,0,0,0,0,0,0,0,0,0,0,0,0,0,0,0,0,0,0,0,0,0,0,0,0,0,0,0,0,0,0,0,0,0,0,0,0,0,0,0,0,0,0,0,0,0,0,0,0,0,0,0,0,0,0,0,0,0,0,0,0,0,0,0,0,0,0,0,0,0,0,0,0,0,0,0,0,0,0,0,0,0,0,0,0,0,0,0,0,0,0,0,0,0,0,0,0,0,0,0,0,0,0,0,0,0,0,0,0,0,0,0,0,0,0,0,0,0,0,0,0,0,0,0,0,0,0,0,0,0,0,0,0,0,0,0,0,0,0,0,0,0,0,0,0,0,0,0,0,0,0,0,0,0,0,0,0,0,0,0,0,0,0,0,0,0,0,0,0,0,0,0,0,0,0,0,0,0,0,0,0,0,0,0,0,0,0,0,0,0,0,0,0,0,0,0,0,0,0,0,0,0,0,0,0,0,0,0,0,0,0,0,0,0,0,0,0,0,0,0,0,0,0,0,0,0,0,0,0,0,0,0,0,0,0,0,0,0,0,0,0,0,0,0,0,0,0],"trees":[{"base_weights":[-4.862815E-2,8.6435395E-1,-5.541271E-2,9.880199E-2,3.355615E-2,-1.0328152E-2,-1.3341945E-1,2.7564831E-2,-1.0238728E-1,6.0482133E-2,-1.3712502E-1,2.238488E-1,7.154882E-3,-1.8774305E-1,-7.383066E-3,-1.0367818E-1,-2.0976712E-1,4.258736E-2,8.126114E-1,2.778553E-2,-1.7437495E-1,3.1206805E-1,-2.0892589E-1,-8.9855805E-2,4.050488E-1,-7.0299685E-2,-2.0958695E-1,-2.4781665E-2,-7.282305E-2,-2.0548472E-2,4.6915542E-2,-1.6246155E-2,1.0563107E-1,2.0333594E-3,6.317106E-2,-2.2069512E-2,-2.8014052E-4,4.3257996E-3,6.0482133E-2,-2.4570882E-2,-1.618055E-2,6.111143E-2,-1.8095348E-2,-2.206988E-2,1.0462973E-1,-1.0517708E-2,3.3934027E-2,-2.4418294E-2,-1.3862038E-2,2.2438152E-2,-1.6666757E-2],"categories":[],"categories_nodes":[],"categories_segments":[],"categories_sizes":[],"default_left":[0,0,0,0,0,0,0,0,0,0,0,0,0,0,0,0,0,0,0,0,0,0,0,0,0,0,0,0,0,0,0,0,0,0,0,0,0,0,0,0,0,0,0,0,0,0,0,0,0,0,0],"id":0,"left_children":[1,3,5,-1,-1,7,9,11,13,-1,15,17,19,21,23,25,27,29,31,33,35,37,39,41,43,45,47,-1,49,-1,-1,-1,-1,-1,-1,-1,-1,-1,-1,-1,-1,-1,-1,-1,-1,-1,-1,-1,-1,-1,-1],"loss_changes":[6.2539067E0,1.5568829E-1,3.499552E0,0E0,0E0,2.2072682E0,1.0801239E0,1.7949834E0,1.49459E0,0E0,8.6146927E-1,4.4696407E0,1.5300319E0,1.0935907E0,3.0414455E0,8.721726E-1,5.740371E-1,3.622982E0,2.5193214E0,1.6367956E0,3.3076692E-1,3.1618458E-1,1.2279034E-1,4.8642387E0,6.2112684E0,2.7826881E0,1.1252141E-1,0E0,7.659943E-1,0E0,0E0,0E0,0E0,0E0,0E0,0E0,0E0,0E0,0E0,0E0,0E0,0E0,0E0,0E0,0E0,0E0,0E0,0E0,0E0,0E0,0E0],"parents":[2147483647,0,0,1,1,2,2,5,5,6,6,7,7,8,8,10,10,11,11,12,12,13,13,14,14,15,15,16,16,17,17,18,18,19,19,20,20,21,21,22,22,23,23,24,24,25,25,26,26,28,28],"right_children":[2,4,6,-1,-1,8,10,12,14,-1,16,18,20,22,24,26,28,30,32,34,36,38,40,42,44,46,48,-1,50,-1,-1,-1,-1,-1,-1,-1,-1,-1,-1,-1,-1,-1,-1,-1,-1,-1,-1,-1,-1,-1,-1],"split_conditions":[1.1E-2,1.896786E0,5.192688E0,9.880199E-2,3.355615E-2,1E0,9.3333334E-2,2.5359256E0,2.4881819E-1,6.0482133E-2,1E0,1E0,9.8588234E-1,4.521739E-2,4.27854E0,1.2513333E2,1.33475E0,2.1370731E-1,4.486E0,9.798235E-1,1E0,2.296584E0,3E0,2.645E-1,3.2293025E-1,1.2386667E0,2.0946666E2,-2.4781665E-2,2E0,-2.0548472E-2,4.6915542E-2,-1.6246155E-2,1.0563107E-1,2.0333594E-3,6.317106E-2,-2.2069512E-2,-2.8014052E-4,4.3257996E-3,6.0482133E-2,-2.4570882E-2,-1.618055E-2,6.111143E-2,-1.8095348E-2,-2.206988E-2,1.0462973E-1,-1.0517708E-2,3.3934027E-2,-2.4418294E-2,-1.3862038E-2,2.2438152E-2,-1.6666757E-2],"split_indices":[13,0,0,0,0,7,13,6,13,0,7,9,13,13,0,1,13,13,0,13,10,0,15,13,13,13,1,0,15,0,0,0,0,0,0,0,0,0,0,0,0,0,0,0,0,0,0,0,0,0,0],"split_type":[0,0,0,0,0,0,0,0,0,0,0,0,0,0,0,0,0,0,0,0,0,0,0,0,0,0,0,0,0,0,0,0,0,0,0,0,0,0,0,0,0,0,0,0,0,0,0,0,0,0,0],"sum_hessian":[1.00091003E3,6.450726E0,9.944593E2,4.5242243E0,1.9265019E0,6.309371E2,3.6352222E2,4.4745724E2,1.8347984E2,1.0053831E0,3.625168E2,4.1206234E1,4.06251E2,9.613341E1,8.7346436E1,2.4988754E2,1.1262928E2,3.2326317E1,8.879919E0,3.6555325E2,4.0697754E1,3.3503122E0,9.27831E1,7.34425E1,1.390394E1,1.9127011E2,5.8617435E1,8.750628E1,2.5123E1,2.0767303E1,1.1559011E1,1.8422375E0,7.037682E0,3.6211865E2,3.4345765E0,3.1820728E1,8.877025E0,2.344929E0,1.0053831E0,4.974041E1,4.3042683E1,7.7902718E0,6.565222E1,7.36895E0,6.5349903E0,1.7694774E2,1.4322368E1,3.776587E1,2.0851568E1,5.695241E0,1.9427757E1],"tree_param":{"num_deleted":"0","num_feature":"21","num_nodes":"51","size_leaf_vector":"1"}},{"base_weights":[-3.646419E-2,8.140097E-2,-4.111468E-2,-4.3851654E-3,-1.2668239E-1,4.111397E-2,-8.1393756E-2,3.7269527E-1,-1.3463965E-1,3.1903345E-2,4.94436E-1,6.519955E-2,-8.855124E-2,4.0253955E-3,6.519955E-2,-1.9460662E-1,-9.1172695E-2,4.1392893E-2,-2.0191844E-1,-2.100256E-2,8.445195E-2,-2.323473E-2,-7.160097E-2,-1.5276001E-1,-2.2176199E-2,4.3741995E-1,-1.0814606E-1,1.5229741E-3,1.5665187E-2,1.27147315E-2,-2.3997031E-2,-3.5931114E-3,-1.6092671E-2,-2.2197861E-2,4.9664717E-2,7.6724045E-2,-1.4476326E-2,-5.142737E-3,-1.65497E-2],"categories":[],"categories_nodes":[],"categories_segments":[],"categories_sizes":[],"default_left":[0,0,0,0,0,0,0,0,0,0,0,0,0,0,0,0,0,0,0,0,0,0,0,0,0,0,0,0,0,0,0,0,0,0,0,0,0,0,0],"id":1,"left_children":[1,-1,3,5,7,9,11,13,15,17,19,-1,21,-1,-1,23,25,27,29,-1,-1,-1,31,33,-1,35,37,-1,-1,-1,-1,-1,-1,-1,-1,-1,-1,-1,-1],"loss_changes":[4.0162463E0,0E0,3.1500628E0,2.4645488E0,1.246398E0,1.8306413E0,1.4289255E0,4.3679816E-1,7.565384E-1,9.7240543E-1,2.332107E0,0E0,6.160438E-1,0E0,0E0,1.06975555E-1,1.609317E0,1.2592028E0,2.4482441E-1,0E0,0E0,0E0,7.386745E-1,2.447416E0,0E0,1.1891783E0,5.427979E-1,0E0,0E0,0E0,0E0,0E0,0E0,0E0,0E0,0E0,0E0,0E0,0E0],"parents":[2147483647,0,0,2,2,3,3,4,4,5,5,6,6,7,7,8,8,9,9,10,10,12,12,15,15,16,16,17,17,18,18,22,22,23,23,25,25,26,26],"right_children":[2,-1,4,6,8,10,12,14,16,18,20,-1,22,-1,-1,24,26,28,30,-1,-1,-1,32,34,-1,36,38,-1,-1,-1,-1,-1,-1,-1,-1,-1,-1,-1,-1],"split_conditions":[2E-3,8.140097E-2,1E0,5.184E0,4.521739E-2,7.386093E1,9.3333334E-2,2.296584E0,2.5125E-1,7.141787E1,4.747476E0,6.519955E-2,5.372E0,4.0253955E-3,6.519955E-2,3.849684E0,2.5547826E-1,4.522E0,1.3E1,-2.100256E-2,8.445195E-2,-2.323473E-2,1.10166664E2,5.26551E1,-2.2176199E-2,4.08E0,4.778538E0,1.5229741E-3,1.5665187E-2,1.27147315E-2,-2.3997031E-2,-3.5931114E-3,-1.6092671E-2,-2.2197861E-2,4.9664717E-2,7.6724045E-2,-1.4476326E-2,-5.142737E-3,-1.65497E-2],"split_indices":[13,0,7,0,13,1,13,0,13,1,0,0,0,0,0,0,13,0,5,0,0,0,1,1,0,0,0,0,0,0,0,0,0,0,0,0,0,0,0],"split_type":[0,0,0,0,0,0,0,0,0,0,0,0,0,0,0,0,0,0,0,0,0,0,0,0,0,0,0,0,0,0,0,0,0,0,0,0,0,0,0],"sum_hessian":[1.0059931E3,4.52449E0,1.0014686E3,7.0143317E2,3.0003546E2,4.4121524E2,2.6021793E2,3.9869576E0,2.960485E2,4.3347818E2,7.7370563E0,1.6442816E0,2.5857364E2,2.3426762E0,1.6442816E0,1.22949875E2,1.7309862E2,4.173627E2,1.6115496E1,2.7013295E0,5.035727E0,2.5925909E1,2.3264774E2,5.099369E1,7.1956184E1,4.614691E0,1.6848392E2,3.4107312E2,7.628958E1,1.4276879E0,1.4687808E1,1.6725938E2,6.538836E1,4.6676723E1,4.3169656E0,2.7429035E0,1.8717872E0,8.5662506E1,8.282142E1],"tree_param":{"num_deleted":"0","num_feature":"21","num_nodes":"39","size_leaf_vector":"1"}},{"base_weights":[-3.2916896E-2,1.5991593E-2,-1.01336345E-1,5.463393E-1,7.242584E-3,5.7568695E-2,-1.05601765E-1,-1.8794904E-2,7.397531E-2,-1.2752577E-2,1.0429742E-1,-7.713965E-2,-1.703252E-1,1.7407307E-2,-7.63546E-2,1.3632557E-2,4.592592E-1,-5.333015E-2,-1.6923632E-1,-1.9944081E-2,-6.563553E-2,3.8477037E-2,-1.601012E-1,-1.2852262E-1,6.6681385E-2,-6.8499744E-2,3.009273E-1,2.5433376E-2,5.8454347E-1,-8.6531356E-2,1.996199E-1,-1.9885635E-2,-1.1673021E-1,2.034729E-1,-1.786386E-1,2.2872167E-3,6.2809266E-2,-1.9737216E-2,1.9428967E-2,3.379056E-2,-1.49057945E-2,7.412049E-2,-6.0514673E-3,9.253582E-4,-1.4658356E-2,4.658129E-2,-1.006249E-2,6.014795E-2,-2.3334855E-2,6.2214613E-2,1.4187156E-2,-1.889886E-2,-5.952934E-3,-1.4960582E-4,7.575827E-2,2.1778626E-2,-1.7182777E-2,6.0246885E-4,7.1815014E-2,-2.1223903E-2,6.0082744E-3],"categories":[],"categories_nodes":[],"categories_segments":[],"categories_sizes":[],"default_left":[0,0,0,0,0,0,0,0,0,0,0,0,0,0,0,0,0,0,0,0,0,0,0,0,0,0,0,0,0,0,0,0,0,0,0,0,0,0,0,0,0,0,0,0,0,0,0,0,0,0,0,0,0,0,0,0,0,0,0,0,0],"id":2,"left_children":[1,3,5,7,9,-1,11,-1,-1,13,15,17,19,21,23,25,27,29,31,-1,33,35,37,39,41,43,45,47,49,51,53,-1,55,57,59,-1,-1,-1,-1,-1,-1,-1,-1,-1,-1,-1,-1,-1,-1,-1,-1,-1,-1,-1,-1,-1,-1,-1,-1,-1,-1],"loss_changes":[3.3916874E0,2.7412589E0,1.2807169E0,1.5007789E0,1.1328148E0,0E0,7.617545E-1,0E0,0E0,9.3040824E-1,3.2026343E0,6.3563156E-1,3.7600327E-1,1.2379878E0,1.1724873E0,1.9190068E0,1.0860615E0,1.9913626E0,6.9995165E-2,0E0,9.263599E-1,2.7019238E0,5.024921E-1,1.1483916E0,3.6778474E0,3.861618E-1,1.243429E0,9.728146E-1,1.725955E-1,5.6553173E-1,3.0955367E0,0E0,4.8044205E-1,9.227443E-1,1.8235296E-1,0E0,0E0,0E0,0E0,0E0,0E0,0E0,0E0,0E0,0E0,0E0,0E0,0E0,0E0,0E0,0E0,0E0,0E0,0E0,0E0,0E0,0E0,0E0,0E0,0E0,0E0],"parents":[2147483647,0,0,1,1,2,2,3,3,4,4,6,6,9,9,10,10,11,11,12,12,13,13,14,14,15,15,16,16,17,17,18,18,20,20,21,21,22,22,23,23,24,24,25,25,26,26,27,27,28,28,29,29,30,30,32,32,33,33,34,34],"right_children":[2,4,6,8,10,-1,12,-1,-1,14,16,18,20,22,24,26,28,30,32,-1,34,36,38,40,42,44,46,48,50,52,54,-1,56,58,60,-1,-1,-1,-1,-1,-1,-1,-1,-1,-1,-1,-1,-1,-1,-1,-1,-1,-1,-1,-1,-1,-1,-1,-1,-1,-1],"split_conditions":[6.986667E1,1.1E-2,9.3333334E-2,2.81228E1,6.29508E1,5.7568695E-2,1E0,-1.8794904E-2,7.397531E-2,1E0,2.43E-1,1.2513333E2,1.33475E0,9.8588234E-1,5.345E1,1E0,2E0,8.947727E-1,2.0946666E2,-1.9944081E-2,2.6082728E0,9.7764707E-1,1E0,4.521739E-2,5.45589E1,6.6E1,1.6E1,6.39443E1,1.6E1,2.1370731E-1,1E0,-1.9885635E-2,3.9288333E2,2.023E0,8.793E0,2.2872167E-3,6.2809266E-2,-1.9737216E-2,1.9428967E-2,3.379056E-2,-1.49057945E-2,7.412049E-2,-6.0514673E-3,9.253582E-4,-1.4658356E-2,4.658129E-2,-1.006249E-2,6.014795E-2,-2.3334855E-2,6.2214613E-2,1.4187156E-2,-1.889886E-2,-5.952934E-3,-1.4960582E-4,7.575827E-2,2.1778626E-2,-1.7182777E-2,6.0246885E-4,7.1815014E-2,-2.1223903E-2,6.0082744E-3],"split_indices":[1,13,13,1,1,0,7,0,0,7,13,1,13,13,1,9,15,13,1,0,13,13,10,13,1,1,5,1,5,13,8,0,1,13,13,0,0,0,0,0,0,0,0,0,0,0,0,0,0,0,0,0,0,0,0,0,0,0,0,0,0],"split_type":[0,0,0,0,0,0,0,0,0,0,0,0,0,0,0,0,0,0,0,0,0,0,0,0,0,0,0,0,0,0,0,0,0,0,0,0,0,0,0,0,0,0,0,0,0,0,0,0,0,0,0,0,0,0,0,0,0,0,0,0,0],"sum_hessian":[1.01208167E3,5.9063934E2,4.214423E2,8.588289E0,5.820511E2,1.7998333E0,4.1964246E2,1.7964374E0,6.7918515E0,4.8334195E2,9.8709114E1,2.929914E2,1.26651054E2,3.2836066E2,1.549813E2,7.9453415E1,1.9255703E1,2.3405966E2,5.893174E1,9.8384056E1,2.8266998E1,2.9422076E2,3.413989E1,1.136371E2,4.1344196E1,6.238131E1,1.7072102E1,4.5843463E0,1.4671357E1,2.0748405E2,2.657561E1,3.58951E1,2.3036642E1,8.122728E0,2.014427E1,2.8764664E2,6.5741158E0,3.1292004E1,2.8478837E0,4.1403623E0,1.09496735E2,5.79356E0,3.5550636E1,3.1698483E1,3.0682829E1,1.1989101E1,5.083001E0,1.0105655E0,3.5737805E0,1.3148986E1,1.522372E0,4.2024815E1,1.6545923E2,2.0267551E1,6.3080573E0,2.84018E0,2.019646E1,6.6017656E0,1.5209627E0,1.7756016E1,2.388254E0],"tree_param":{"num_deleted":"0","num_feature":"21","num_nodes":"61","size_leaf_vector":"1"}},{"base_weights":[-2.4477603E-2,1.6661257E-2,-8.089623E-2,5.6681152E-2,1.0576212E-2,-6.22372E-2,-1.8298103E-1,8.0299184E-2,-1.5887644E-2,-7.748063E-2,4.4346443E-1,1.5641475E-2,-1.9313373E-1,1.7588133E-2,2.577971E-1,-2.3716992E-2,5.4056454E-3,5.1104315E-2,-8.208185E-2,8.818759E-2,3.3849895E-2,-2.0177126E-2,-9.371429E-2,-1.4389831E-1,9.1886245E-2,7.029292E-2,1.6135053E-1,3.7658278E-2,-8.889345E-2,-1.0640651E-1,-1.2323661E-3,5.926015E-2,-1.7000724E-2,-1.8991947E-2,1.6601717E-2,-7.5598718E-3,-2.3013575E-2,8.0339156E-2,5.310954E-3,-1.3532118E-3,5.7523128E-2,1.1416519E-2,-4.991004E-3,-1.6206745E-2,1.011134E-2,-1.3093499E-2,-3.1355692E-3,1.3135168E-2,-5.1863147E-3],"categories":[],"categories_nodes":[],"categories_segments":[],"categories_sizes":[],"default_left":[0,0,0,0,0,0,0,0,0,0,0,0,0,0,0,0,0,0,0,0,0,0,0,0,0,0,0,0,0,0,0,0,0,0,0,0,0,0,0,0,0,0,0,0,0,0,0,0,0],"id":3,"left_children":[1,3,5,-1,7,9,11,13,15,17,19,-1,21,23,25,-1,27,-1,29,-1,31,-1,33,35,37,-1,39,41,43,45,47,-1,-1,-1,-1,-1,-1,-1,-1,-1,-1,-1,-1,-1,-1,-1,-1,-1,-1],"loss_changes":[2.4095662E0,2.0055413E0,8.223555E-1,0E0,1.0997216E0,2.8987381E0,2.6150727E-1,1.820463E0,2.0385056E0,1.0210226E0,1.9494038E0,0E0,3.7443876E-2,1.4796919E0,1.7210577E0,0E0,1.2058802E0,0E0,7.071028E-1,0E0,8.6822444E-1,0E0,2.0926178E-1,2.1174574E-1,2.283729E0,0E0,2.643787E0,1.9842405E0,1.4215536E0,5.0477386E-1,5.719233E-1,0E0,0E0,0E0,0E0,0E0,0E0,0E0,0E0,0E0,0E0,0E0,0E0,0E0,0E0,0E0,0E0,0E0,0E0],"parents":[2147483647,0,0,1,1,2,2,4,4,5,5,6,6,7,7,8,8,9,9,10,10,12,12,13,13,14,14,16,16,18,18,20,20,22,22,23,23,24,24,26,26,27,27,28,28,29,29,30,30],"right_children":[2,4,6,-1,8,10,12,14,16,18,20,-1,22,24,26,-1,28,-1,30,-1,32,-1,34,36,38,-1,40,42,44,46,48,-1,-1,-1,-1,-1,-1,-1,-1,-1,-1,-1,-1,-1,-1,-1,-1,-1,-1],"split_conditions":[4.92E0,2E-3,2.5427625E0,5.6681152E-2,3.2716587E0,2.5014265E0,6.888333E1,1E0,3.45125E0,9.3333334E-2,2.297561E-1,1.5641475E-2,2.9726636E0,6.0666668E1,2.4563124E0,-2.3716992E-2,5.5266666E-1,5.1104315E-2,1E0,8.818759E-2,7.273333E1,-2.0177126E-2,4.997912E0,1E0,4.342668E0,7.029292E-2,2.5242856E-1,4E0,1E0,1E0,7.8683334E1,5.926015E-2,-1.7000724E-2,-1.8991947E-2,1.6601717E-2,-7.5598718E-3,-2.3013575E-2,8.0339156E-2,5.310954E-3,-1.3532118E-3,5.7523128E-2,1.1416519E-2,-4.991004E-3,-1.6206745E-2,1.011134E-2,-1.3093499E-2,-3.1355692E-3,1.3135168E-2,-5.1863147E-3],"split_indices":[0,13,6,0,6,6,1,9,6,13,13,0,6,1,6,0,13,0,8,0,1,0,0,8,0,0,13,15,10,9,1,0,0,0,0,0,0,0,0,0,0,0,0,0,0,0,0,0,0],"split_type":[0,0,0,0,0,0,0,0,0,0,0,0,0,0,0,0,0,0,0,0,0,0,0,0,0,0,0,0,0,0,0,0,0,0,0,0,0,0,0,0,0,0,0,0,0,0,0,0,0],"sum_hessian":[1.0365791E3,5.998732E2,4.3670584E2,5.554355E0,5.9431885E2,3.7058084E2,6.6124985E1,1.629551E2,4.3136377E2,3.6055923E2,1.0021598E1,1.5021805E0,6.46228E1,1.2122476E2,4.173033E1,3.697519E1,3.9438858E2,1.9432139E0,3.5861603E2,4.2837496E0,5.7378483E0,5.8509975E1,6.1128273E0,3.790397E1,8.332079E1,6.3116665E0,3.5418663E1,2.9432333E2,1.0006524E2,2.7543237E2,8.318368E1,1.0240598E0,4.7137885E0,4.6567435E0,1.4560841E0,2.2199062E1,1.5704906E1,3.2871518E0,8.0033646E1,2.5578104E1,9.84056E0,1.5692072E2,1.3740262E2,7.234957E1,2.7715668E1,2.0702637E2,6.8406E1,2.2546938E1,6.0636738E1],"tree_param":{"num_deleted":"0","num_feature":"21","num_nodes":"49","size_leaf_vector":"1"}},{"base_weights":[-2.6075982E-2,8.269169E-3,-8.589398E-2,4.1102234E-1,1.5238352E-3,4.5596723E-2,-9.014849E-2,5.497807E-2,-1.7060911E-2,2.93041E-2,-6.14291E-2,-1.3254648E-1,-5.084355E-2,-5.0335385E-2,6.236169E-2,-1.2542011E-1,3.2551505E-2,-1.7490521E-1,-7.557341E-2,4.8023015E-1,-7.506455E-2,6.427755E-2,-1.5116571E-1,9.4008625E-1,2.9988162E-2,2.2889794E-1,-1.385834E-1,7.798585E-2,-3.0477343E-2,-1.0135051E-1,-2.0109437E-1,2.6756743E-1,-1.1455489E-1,-1.6236309E-2,8.19667E-1,-2.36752E-3,-1.0908182E-1,-1.0910626E-2,3.9147273E-2,2.768649E-2,-2.1949511E-2,1.0412347E-1,1.454798E-2,2.4254993E-3,6.997353E-2,-1.4447073E-3,5.0589543E-2,-1.7321022E-2,-8.922151E-3,-1.3479185E-2,3.2531235E-2,-1.8636009E-2,6.040834E-3,-2.1535443E-2,-1.6466456E-2,-1.378452E-2,6.529389E-2,4.5646753E-2,-1.426424E-2,1.7195173E-2,9.895357E-2,-8.660907E-3,3.694911E-2,-1.3610356E-3,-1.3119864E-2],"categories":[],"categories_nodes":[],"categories_segments":[],"categories_sizes":[],"default_left":[0,0,0,0,0,0,0,0,0,0,0,0,0,0,0,0,0,0,0,0,0,0,0,0,0,0,0,0,0,0,0,0,0,0,0,0,0,0,0,0,0,0,0,0,0,0,0,0,0,0,0,0,0,0,0,0,0,0,0,0,0,0,0,0,0],"id":4,"left_children":[1,3,5,7,9,-1,11,-1,-1,13,15,17,19,21,23,25,27,29,31,33,35,37,39,41,43,45,47,-1,49,51,53,55,57,-1,59,61,63,-1,-1,-1,-1,-1,-1,-1,-1,-1,-1,-1,-1,-1,-1,-1,-1,-1,-1,-1,-1,-1,-1,-1,-1,-1,-1,-1,-1],"loss_changes":[2.103155E0,1.7679734E0,9.018047E-1,9.589535E-1,1.1233184E0,0E0,6.1197114E-1,0E0,0E0,1.1763165E0,1.1868384E0,4.1631913E-1,2.5351906E0,1.5267043E0,8.932545E0,5.783843E-1,3.8136258E0,1.7480731E-1,1.0694565E0,2.0110192E0,4.6138692E-1,3.567743E0,2.1118946E0,7.474623E-1,1.1548011E0,3.1573057E-1,1.787734E-1,0E0,2.8335207E0,4.0482268E-1,2.8281212E-3,1.3746008E0,1.1948509E0,0E0,4.6789932E-1,1.9281389E0,2.666911E-1,0E0,0E0,0E0,0E0,0E0,0E0,0E0,0E0,0E0,0E0,0E0,0E0,0E0,0E0,0E0,0E0,0E0,0E0,0E0,0E0,0E0,0E0,0E0,0E0,0E0,0E0,0E0,0E0],"parents":[2147483647,0,0,1,1,2,2,3,3,4,4,6,6,9,9,10,10,11,11,12,12,13,13,14,14,15,15,16,16,17,17,18,18,19,19,20,20,21,21,22,22,23,23,24,24,25,25,26,26,28,28,29,29,30,30,31,31,32,32,34,34,35,35,36,36],"right_children":[2,4,6,8,10,-1,12,-1,-1,14,16,18,20,22,24,26,28,30,32,34,36,38,40,42,44,46,48,-1,50,52,54,56,58,-1,60,62,64,-1,-1,-1,-1,-1,-1,-1,-1,-1,-1,-1,-1,-1,-1,-1,-1,-1,-1,-1,-1,-1,-1,-1,-1,-1,-1,-1,-1],"split_conditions":[5.192688E0,1.1E-2,9.3333334E-2,1.919832E0,1E0,4.5596723E-2,6.124224E0,5.497807E-2,-1.7060911E-2,3.75416E1,5.345E1,2.3290508E0,8.578333E1,1.506E0,2.648E0,4.521739E-2,3.832268E0,5.448876E0,2.4123018E0,8.453333E1,9.796667E1,1.044E0,1.0139394E-1,5.3404255E0,5.3242984E0,2.1E1,3.047586E-1,7.798585E-2,3.2293025E-1,3.1416667E-1,1E0,2.5125E-1,1.4820689E-1,-1.6236309E-2,2.59E-1,6.2875E-1,2E0,-1.0910626E-2,3.9147273E-2,2.768649E-2,-2.1949511E-2,1.0412347E-1,1.454798E-2,2.4254993E-3,6.997353E-2,-1.4447073E-3,5.0589543E-2,-1.7321022E-2,-8.922151E-3,-1.3479185E-2,3.2531235E-2,-1.8636009E-2,6.040834E-3,-2.1535443E-2,-1.6466456E-2,-1.378452E-2,6.529389E-2,4.5646753E-2,-1.426424E-2,1.7195173E-2,9.895357E-2,-8.660907E-3,3.694911E-2,-1.3610356E-3,-1.3119864E-2],"split_indices":[0,13,13,0,7,0,0,0,0,1,1,6,1,0,0,13,0,0,6,1,1,0,13,6,6,2,13,0,13,13,7,13,13,0,13,13,15,0,0,0,0,0,0,0,0,0,0,0,0,0,0,0,0,0,0,0,0,0,0,0,0,0,0,0,0],"split_type":[0,0,0,0,0,0,0,0,0,0,0,0,0,0,0,0,0,0,0,0,0,0,0,0,0,0,0,0,0,0,0,0,0,0,0,0,0,0,0,0,0,0,0,0,0,0,0,0,0,0,0,0,0,0,0,0,0,0,0,0,0,0,0,0,0],"sum_hessian":[1.0223571E3,6.500091E2,3.72348E2,9.71982E0,6.402893E2,2.0736387E0,3.7027435E2,7.8918443E0,1.8279761E0,4.446194E2,1.956699E2,1.7698718E2,1.9328719E2,1.3026752E2,3.1435187E2,1.1620909E2,7.9460815E1,1.0032611E2,7.6661064E1,7.6096516E0,1.8567754E2,6.11366E1,6.913091E1,1.018458E1,3.041673E2,3.5755863E0,1.1263351E2,5.2959447E0,7.416487E1,2.7620712E1,7.27054E1,7.2222333E0,6.9438835E1,2.8105755E0,4.799076E0,5.9529305E1,1.26148224E2,4.03966E1,2.074E1,9.096499E0,6.0034416E1,8.759209E0,1.4253707E0,3.0261307E2,1.5542134E0,2.4079888E0,1.1675975E0,6.4722466E1,4.7911045E1,5.7830585E1,1.633429E1,1.8005922E1,9.61479E0,4.8722145E1,2.3983253E1,3.8326125E0,3.389621E0,2.5404067E0,6.689843E1,1.4151856E0,3.3838904E0,4.915967E1,1.0369633E1,2.4030663E1,1.0211756E2],"tree_param":{"num_deleted":"0","num_feature":"21","num_nodes":"65","size_leaf_vector":"1"}},{"base_weights":[-1.3279282E-2,2.2405913E-2,-6.23843E-2,3.443298E-3,1.261588E-1,4.0872607E-2,-6.567165E-2,3.3982763E-1,-3.5702032E-3,8.399836E-2,6.432663E-2,-4.1981723E-2,-1.2428E-1,4.6454716E-2,-1.5832055E-2,-5.3034894E-2,3.494015E-2,1.6451642E-1,-1.8055322E-2,-1.95108E-2,-1.4755806E-1,-1.4947933E-2,-3.0603673E-2,-1.2815334E-1,-1.0255371E-2,6.641502E-1,-4.7026654E-3,-2.3095375E-2,2.3774901E-1,-3.7888676E-2,5.545223E-1,-1.7901164E-2,-6.008304E-3,2.4157228E-1,-1.388892E-1,-7.795866E-3,-2.0498054E-2,-2.768508E-3,8.009714E-2,8.387757E-2,7.512105E-3,-1.9357082E-3,2.9575204E-2,1.6112218E-2,6.659525E-2,2.7219761E-2,-5.3065782E-3,3.2890958E-3,7.7584505E-2,-1.9474648E-2,6.8776E-2,4.6545472E-2,-1.3646546E-2,-1.7173259E-2,1.7408859E-2],"categories":[],"categories_nodes":[],"categories_segments":[],"categories_sizes":[],"default_left":[0,0,0,0,0,0,0,0,0,0,0,0,0,0,0,0,0,0,0,0,0,0,0,0,0,0,0,0,0,0,0,0,0,0,0,0,0,0,0,0,0,0,0,0,0,0,0,0,0,0,0,0,0,0,0],"id":5,"left_children":[1,3,5,7,9,-1,11,13,15,17,-1,19,21,-1,-1,23,25,27,-1,29,31,-1,33,35,37,39,41,-1,43,45,47,-1,49,51,53,-1,-1,-1,-1,-1,-1,-1,-1,-1,-1,-1,-1,-1,-1,-1,-1,-1,-1,-1,-1],"loss_changes":[1.8344535E0,1.1929146E0,7.0907557E-1,1.2135133E0,1.9887567E0,0E0,6.033691E-1,7.2622657E-1,9.6258783E-1,1.8996542E0,0E0,7.412554E-1,2.920667E-1,0E0,0E0,7.094271E-1,7.0915337E0,2.0192256E0,0E0,2.7614684E0,2.4331796E-1,0E0,8.5571945E-1,2.9316378E-1,2.03006E0,1.6701899E0,1.1871643E0,0E0,1.7866309E0,1.2034625E0,9.122298E-1,0E0,1.5761998E0,7.663934E-1,2.4155888E-1,0E0,0E0,0E0,0E0,0E0,0E0,0E0,0E0,0E0,0E0,0E0,0E0,0E0,0E0,0E0,0E0,0E0,0E0,0E0,0E0],"parents":[2147483647,0,0,1,1,2,2,3,3,4,4,6,6,7,7,8,8,9,9,11,11,12,12,15,15,16,16,17,17,19,19,20,20,22,22,23,23,24,24,25,25,26,26,28,28,29,29,30,30,32,32,33,33,34,34],"right_children":[2,4,6,8,10,-1,12,14,16,18,-1,20,22,-1,-1,24,26,28,-1,30,32,-1,34,36,38,40,42,-1,44,46,48,-1,50,52,54,-1,-1,-1,-1,-1,-1,-1,-1,-1,-1,-1,-1,-1,-1,-1,-1,-1,-1,-1,-1],"split_conditions":[6.986667E1,4.522E0,9.3333334E-2,1.1E-2,3.390625E-1,4.0872607E-2,1E0,1.919832E0,2.5142857E-1,1E0,6.432663E-2,2.5427625E0,1.33475E0,4.6454716E-2,-1.5832055E-2,3.4746351E0,2.5547826E-1,2.2697794E0,-1.8055322E-2,2.5014265E0,2.9224663E0,-1.4947933E-2,2.6082728E0,3.1866271E0,4.205394E0,5.7947533E1,4.27854E0,-2.3095375E-2,4.83966E0,5.21076E0,5.154E0,-1.7901164E-2,1E0,1.01404E1,8.793E0,-7.795866E-3,-2.0498054E-2,-2.768508E-3,8.009714E-2,8.387757E-2,7.512105E-3,-1.9357082E-3,2.9575204E-2,1.6112218E-2,6.659525E-2,2.7219761E-2,-5.3065782E-3,3.2890958E-3,7.7584505E-2,-1.9474648E-2,6.8776E-2,4.6545472E-2,-1.3646546E-2,-1.7173259E-2,1.7408859E-2],"split_indices":[1,0,13,13,13,0,7,0,13,7,0,6,13,0,0,6,13,6,0,6,6,0,13,6,0,1,0,0,0,0,0,0,9,0,13,0,0,0,0,0,0,0,0,0,0,0,0,0,0,0,0,0,0,0,0],"split_type":[0,0,0,0,0,0,0,0,0,0,0,0,0,0,0,0,0,0,0,0,0,0,0,0,0,0,0,0,0,0,0,0,0,0,0,0,0,0,0,0,0,0,0,0,0,0,0,0,0,0,0,0,0,0,0],"sum_hessian":[1.0450723E3,6.055533E2,4.3951898E2,5.1285364E2,9.2699585E1,2.191018E0,4.3732794E2,9.5052595E0,5.0334842E2,8.678623E1,5.913357E0,3.126634E2,1.2466455E2,7.6559258E0,1.8493339E0,2.2017152E2,2.8317688E2,6.6825554E1,1.9960678E1,2.587712E2,5.3892193E1,9.776866E1,2.6895891E1,7.916557E1,1.4100595E2,1.5850155E1,2.6732672E2,1.01046715E1,5.6720882E1,2.5164857E2,7.122624E0,4.3877567E1,1.0014625E1,7.304679E0,1.9591213E1,4.910064E1,3.0064934E1,1.3898564E2,2.0203195E0,1.1898645E1,3.9515092E0,2.5578653E2,1.1540191E1,4.9278744E1,7.4421387E0,1.0951976E1,2.4069661E2,2.4639647E0,4.6586595E0,8.438296E0,1.5763288E0,4.442495E0,2.862184E0,1.8139027E1,1.4521854E0],"tree_param":{"num_deleted":"0","num_feature":"21","num_nodes":"55","size_leaf_vector":"1"}},{"base_weights":[-1.6282087E-2,1.32002365E-2,-6.656871E-2,3.9958272E-2,-4.8992943E-2,-4.6449278E-2,-1.1135659E-1,7.710654E-2,-2.8525656E-2,-1.01889595E-1,2.1219416E-2,-2.3305671E-2,-1.0955668E-1,-1.4205298E-1,-6.074458E-2,-1.2908562E-1,1.0233025E-1,6.3193105E-2,-3.9277773E-2,2.8582138E-1,-1.19631775E-1,6.622189E-2,-3.916965E-2,-5.157954E-2,4.719546E-1,4.343954E-2,-1.23618804E-1,-1.3093621E-2,-1.8688489E-2,6.792638E-2,-1.0173334E-1,-2.2124775E-2,7.9509206E-2,6.9693935E-1,7.208928E-2,-9.02265E-2,5.572724E-2,2.9771135E-4,5.0988384E-2,-9.057413E-2,-1.7598819E-2,-1.24474704E-1,2.7739495E-1,-9.808781E-2,1.8784024E-3,6.265066E-1,-2.0541884E-2,5.8087368E-2,-1.5459943E-2,-1.6149422E-2,-4.018462E-2,3.0523816E-1,-1.4448806E-2,-2.4714002E-2,7.847947E-2,3.2177586E-2,9.221021E-2,5.8476026E-3,4.8666123E-2,4.026791E-3,-1.1924546E-2,-3.4065198E-3,4.69453E-2,-1.1824545E-2,7.9272255E-2,-1.6095107E-2,1.1573796E-2,-2.1153172E-2,5.8838952E-2,1.739315E-2,-1.1349283E-2,-4.9309274E-3,3.4396417E-2,1.4637438E-2,8.4129594E-2,4.42075E-2,-1.6378006E-2,-9.490932E-3,6.296505E-2],"categories":[],"categories_nodes":[],"categories_segments":[],"categories_sizes":[],"default_left":[0,0,0,0,0,0,0,0,0,0,0,0,0,0,0,0,0,0,0,0,0,0,0,0,0,0,0,0,0,0,0,0,0,0,0,0,0,0,0,0,0,0,0,0,0,0,0,0,0,0,0,0,0,0,0,0,0,0,0,0,0,0,0,0,0,0,0,0,0,0,0,0,0,0,0,0,0,0,0],"id":6,"left_children":[1,3,5,7,9,11,13,15,17,19,21,23,25,27,29,31,33,-1,35,37,39,-1,41,43,45,47,49,-1,-1,-1,51,-1,53,55,57,59,61,-1,-1,63,-1,65,67,69,71,73,-1,-1,-1,-1,75,77,-1,-1,-1,-1,-1,-1,-1,-1,-1,-1,-1,-1,-1,-1,-1,-1,-1,-1,-1,-1,-1,-1,-1,-1,-1,-1,-1],"loss_changes":[1.5575423E0,1.1048762E0,3.4466803E-1,1.182467E0,7.442715E-1,3.9121807E-1,1.7722261E-1,1.5789379E0,1.1886053E0,8.192868E-1,3.3813608E0,2.80441E0,1.6043228E-1,1.22692585E-2,1.4919643E0,6.569147E-1,4.783059E0,0E0,7.9013526E-1,3.3369234E-1,1.6393626E-1,0E0,2.1993032E0,4.6937227E-1,1.261493E0,8.14264E-1,2.0291996E-1,0E0,0E0,0E0,8.3262205E-1,0E0,2.7111597E0,7.924328E-1,1.4213934E0,4.0605807E-1,2.142346E0,0E0,0E0,1.9155114E0,0E0,5.779758E-1,2.7589483E0,4.42707E-1,1.5715244E0,8.109071E-1,0E0,0E0,0E0,0E0,1.3849716E0,6.607305E-1,0E0,0E0,0E0,0E0,0E0,0E0,0E0,0E0,0E0,0E0,0E0,0E0,0E0,0E0,0E0,0E0,0E0,0E0,0E0,0E0,0E0,0E0,0E0,0E0,0E0,0E0,0E0],"parents":[2147483647,0,0,1,1,2,2,3,3,4,4,5,5,6,6,7,7,8,8,9,9,10,10,11,11,12,12,13,13,14,14,15,15,16,16,18,18,19,19,20,20,22,22,23,23,24,24,25,25,26,26,30,30,32,32,33,33,34,34,35,35,36,36,39,39,41,41,42,42,43,43,44,44,45,45,50,50,51,51],"right_children":[2,4,6,8,10,12,14,16,18,20,22,24,26,28,30,32,34,-1,36,38,40,-1,42,44,46,48,50,-1,-1,-1,52,-1,54,56,58,60,62,-1,-1,64,-1,66,68,70,72,74,-1,-1,-1,-1,76,78,-1,-1,-1,-1,-1,-1,-1,-1,-1,-1,-1,-1,-1,-1,-1,-1,-1,-1,-1,-1,-1,-1,-1,-1,-1,-1,-1],"split_conditions":[5.184E0,1E0,1E0,4E0,5.345E1,1.10166664E2,6.83E0,1.087E0,2.8959537E0,4.521739E-2,3.832268E0,1.2386667E0,8.42E0,9.514286E-1,6.90879E0,3E0,1.370736E0,6.3193105E-2,1E0,2.296584E0,4.6816666E1,6.622189E-2,3.2293025E-1,8.11119E1,1.04E1,1.4535282E0,2.0946666E2,-1.3093621E-2,-1.8688489E-2,6.792638E-2,2E0,-2.2124775E-2,1E0,3.528125E-1,5.154E0,3.2444184E0,7.9148936E-1,2.9771135E-4,5.0988384E-2,3.337296E0,-1.7598819E-2,3.6448846E0,4.27854E0,1.464898E-1,2.238958E0,7.852953E1,-2.0541884E-2,5.8087368E-2,-1.5459943E-2,-1.6149422E-2,2.826642E1,1.6E-1,-1.4448806E-2,-2.4714002E-2,7.847947E-2,3.2177586E-2,9.221021E-2,5.8476026E-3,4.8666123E-2,4.026791E-3,-1.1924546E-2,-3.4065198E-3,4.69453E-2,-1.1824545E-2,7.9272255E-2,-1.6095107E-2,1.1573796E-2,-2.1153172E-2,5.8838952E-2,1.739315E-2,-1.1349283E-2,-4.9309274E-3,3.4396417E-2,1.4637438E-2,8.4129594E-2,4.42075E-2,-1.6378006E-2,-9.490932E-3,6.296505E-2],"split_indices":[0,7,7,15,1,1,0,0,6,13,0,13,0,13,0,15,0,0,10,0,1,0,13,1,0,6,1,0,0,0,15,0,9,13,0,6,13,0,0,0,0,6,0,13,6,1,0,0,0,0,0,13,0,0,0,0,0,0,0,0,0,0,0,0,0,0,0,0,0,0,0,0,0,0,0,0,0,0,0],"split_type":[0,0,0,0,0,0,0,0,0,0,0,0,0,0,0,0,0,0,0,0,0,0,0,0,0,0,0,0,0,0,0,0,0,0,0,0,0,0,0,0,0,0,0,0,0,0,0,0,0,0,0,0,0,0,0,0,0,0,0,0,0,0,0,0,0,0,0,0,0,0,0,0,0,0,0,0,0,0,0],"sum_hessian":[1.048979E3,6.6174493E2,3.8723404E2,4.629308E2,1.9881413E2,2.6860806E2,1.1862595E2,3.000477E2,1.628831E2,1.131317E2,8.5682434E1,1.9753474E2,7.107333E1,7.2716446E1,4.5909504E1,3.2255585E1,2.677921E2,1.6837671E0,1.6119934E2,4.289334E0,1.0884237E2,6.5191426E0,7.916329E1,1.877142E2,9.820545E0,5.8067403E0,6.5266594E1,6.1409588E1,1.1306858E1,1.592194E0,4.431731E1,2.232931E1,9.926275E0,1.1893407E1,2.558987E2,1.049615E2,5.623784E1,2.3438594E0,1.9454744E0,7.3534676E1,3.530769E1,6.2837254E1,1.6326036E1,9.993562E1,8.777858E1,8.057264E0,1.7632809E0,1.0430377E0,4.763703E0,4.4245502E1,2.1021088E1,3.6295197E0,4.068779E1,7.2281733E0,2.6981015E0,5.3718977E0,6.521509E0,2.488677E2,7.030986E0,1.9024265E1,8.593723E1,4.696296E1,9.274882E0,7.214083E1,1.3938475E0,5.483978E1,7.9974756E0,6.4716015E0,9.854435E0,4.8046875E0,9.5130936E1,7.709796E1,1.0680622E1,3.0100923E0,5.0471716E0,3.762667E0,1.7258419E1,1.9418188E0,1.6877007E0],"tree_param":{"num_deleted":"0","num_feature":"21","num_nodes":"79","size_leaf_vector":"1"}},{"base_weights":[-1.9170284E-2,4.87827E-3,-7.492762E-2,2.6663413E-2,-5.1163446E-2,-1.1237273E-1,-4.5016788E-2,1.8933475E-2,5.508225E-1,1.3185206E-1,-6.914546E-2,1.1105239E-1,-1.1813175E-1,3.9102983E-1,-6.2163964E-2,9.114281E-2,-1.7676128E-2,-1.6952138E-2,9.925905E-2,-4.361225E-2,6.7670844E-2,-1.897251E-1,-3.6652837E-2,-1.9869044E-2,4.3820344E-2,-1.4655222E-2,-9.965414E-2,5.933183E-2,-8.08996E-3,-1.6612953E-2,-4.0328883E-2,1.646933E-1,-6.8742186E-2,-2.0552994E-1,-1.1699739E-3,-1.3989368E-2,1.4731944E-1,3.8863618E-3,-2.0549668E-2,4.1271338E-1,-5.1624756E-2,2.2274338E-1,-1.183481E-1,4.0307358E-1,-6.009349E-2,-1.9848544E-2,1.8692259E-2,-1.137018E-2,5.6614716E-2,-2.2747636E-2,-2.6765766E-3,1.940129E-2,-1.8856786E-3,-1.9377215E-2,3.571078E-2,7.80249E-2,-1.1449356E-2,-2.3711704E-2,-3.2120794E-3,-7.0308405E-3,4.2869918E-2,-4.63249E-3,-1.2824331E-2,-1.2153394E-2,6.5835565E-2,5.3241244E-4,-1.0554838E-2],"categories":[],"categories_nodes":[],"categories_segments":[],"categories_sizes":[],"default_left":[0,0,0,0,0,0,0,0,0,0,0,0,0,0,0,0,0,0,0,0,0,0,0,0,0,0,0,0,0,0,0,0,0,0,0,0,0,0,0,0,0,0,0,0,0,0,0,0,0,0,0,0,0,0,0,0,0,0,0,0,0,0,0,0,0,0,0],"id":7,"left_children":[1,3,5,7,9,11,13,15,17,19,21,23,25,27,29,31,33,-1,-1,35,-1,37,39,-1,-1,-1,41,-1,-1,-1,43,45,47,49,51,-1,53,-1,-1,55,57,59,61,63,65,-1,-1,-1,-1,-1,-1,-1,-1,-1,-1,-1,-1,-1,-1,-1,-1,-1,-1,-1,-1,-1,-1],"loss_changes":[1.4223262E0,9.0706646E-1,3.5292006E-1,2.15662E0,6.9363797E-1,1.9488657E-1,1.3653339E0,1.3976985E0,2.630477E0,1.8414137E0,7.376375E-1,4.990059E-1,5.7970405E-2,7.0893514E-1,3.8700515E-1,2.1025662E0,1.0889798E0,0E0,0E0,3.0141544E-1,0E0,1.5256107E-1,1.0368427E0,0E0,0E0,0E0,5.499471E-1,0E0,0E0,0E0,1.2918814E0,1.0228066E0,1.683888E0,1.052016E-1,1.1218491E0,0E0,4.704693E-1,0E0,0E0,1.0539409E0,5.2408385E-1,3.3845422E-1,5.304587E-2,9.240382E-1,4.149173E-1,0E0,0E0,0E0,0E0,0E0,0E0,0E0,0E0,0E0,0E0,0E0,0E0,0E0,0E0,0E0,0E0,0E0,0E0,0E0,0E0,0E0,0E0],"parents":[2147483647,0,0,1,1,2,2,3,3,4,4,5,5,6,6,7,7,8,8,9,9,10,10,11,11,12,12,13,13,14,14,15,15,16,16,19,19,21,21,22,22,26,26,30,30,31,31,32,32,33,33,34,34,36,36,39,39,40,40,41,41,42,42,43,43,44,44],"right_children":[2,4,6,8,10,12,14,16,18,20,22,24,26,28,30,32,34,-1,-1,36,-1,38,40,-1,-1,-1,42,-1,-1,-1,44,46,48,50,52,-1,54,-1,-1,56,58,60,62,64,66,-1,-1,-1,-1,-1,-1,-1,-1,-1,-1,-1,-1,-1,-1,-1,-1,-1,-1,-1,-1,-1,-1],"split_conditions":[1E0,5.3933334E-1,2.5125E-1,5.128163E-1,6.1913335E-1,4.521739E-2,2.5547826E-1,5.16698E1,1E0,1E0,3.87042E1,2.1E1,5.26551E1,5.7947533E1,4.5497932E1,4E0,5.54273E1,-1.6952138E-2,9.925905E-2,4.6666667E-1,6.7670844E-2,5.5266666E-1,4.66765E1,-1.9869044E-2,4.3820344E-2,-1.4655222E-2,5.3733334E1,5.933183E-2,-8.08996E-3,-1.6612953E-2,4.66765E1,1.47127E1,4.53405E1,2.6863638E-1,1.4272727E-1,-1.3989368E-2,1E0,3.8863618E-3,-2.0549668E-2,1.4E1,5.3948265E1,5.345E1,5.59784E1,3.047586E-1,6.735E1,-1.9848544E-2,1.8692259E-2,-1.137018E-2,5.6614716E-2,-2.2747636E-2,-2.6765766E-3,1.940129E-2,-1.8856786E-3,-1.9377215E-2,3.571078E-2,7.80249E-2,-1.1449356E-2,-2.3711704E-2,-3.2120794E-3,-7.0308405E-3,4.2869918E-2,-4.63249E-3,-1.2824331E-2,-1.2153394E-2,6.5835565E-2,5.3241244E-4,-1.0554838E-2],"split_indices":[7,13,13,13,1,13,13,1,9,10,1,2,1,1,1,15,1,0,0,1,0,13,1,0,0,0,1,0,0,0,1,1,1,13,13,0,9,0,0,5,1,1,1,13,1,0,0,0,0,0,0,0,0,0,0,0,0,0,0,0,0,0,0,0,0,0,0],"split_type":[0,0,0,0,0,0,0,0,0,0,0,0,0,0,0,0,0,0,0,0,0,0,0,0,0,0,0,0,0,0,0,0,0,0,0,0,0,0,0,0,0,0,0,0,0,0,0,0,0,0,0,0,0,0,0,0,0,0,0,0,0,0,0,0,0,0,0],"sum_hessian":[1.0594656E3,7.408458E2,3.186198E2,5.3384717E2,2.0699864E2,1.402656E2,1.7835422E2,5.271098E2,6.7373314E0,1.7952375E1,1.8904626E2,3.0652142E0,1.3720038E2,5.9232693E0,1.7243095E2,1.7683272E2,3.502771E2,2.7954144E0,3.9419172E0,1.4275184E1,3.6771917E0,3.910164E1,1.4994463E2,1.7761964E0,1.2890177E0,5.1325356E1,8.587502E1,3.966042E0,1.9572276E0,2.878165E1,1.4364929E2,1.2109595E2,5.5736774E1,2.7366928E1,3.229102E2,9.667465E0,4.6077185E0,2.4292111E0,3.667243E1,3.9781728E0,1.4596645E2,4.108267E0,8.1766754E1,5.3023257E0,1.3834697E2,6.527161E0,1.1456879E2,5.2817425E1,2.9193487E0,2.413183E1,3.2350974E0,2.6001476E1,2.969087E2,1.7838043E0,2.8239143E0,2.0612388E0,1.9169339E0,1.2826143E1,1.331403E2,1.9674425E0,2.140824E0,1.0563193E1,7.120356E1,1.9071119E0,3.3952138E0,5.708068E1,8.12663E1],"tree_param":{"num_deleted":"0","num_feature":"21","num_nodes":"67","size_leaf_vector":"1"}},{"base_weights":[-1.476845E-2,2.9323846E-1,-1.8511692E-2,3.7881933E-2,-1.3057107E-2,2.0020641E-3,-5.908638E-2,7.822313E-2,-7.020626E-4,-8.415197E-2,2.9473796E-2,-3.909152E-2,2.9573357E-2,-1.3543414E-1,-5.3749774E-2,2.2050378E-1,-4.474002E-2,-2.1274786E-1,-2.879094E-2,1.9099292E-1,-4.8169615E-3,-1.081999E-1,-1.9081156E-1,-8.129543E-2,2.412685E-1,1.16675064E-1,8.740086E-2,-1.9473312E-2,5.8879465E-2,-2.5164826E-2,1.1310323E-2,-7.6754525E-4,-1.1357941E-2,5.7857297E-3,4.310245E-2,1.2243218E-2,-2.8351906E-3,-1.3864951E-2,-5.345238E-3,-2.5243506E-2,-1.661519E-2,-1.4744435E-2,-6.0412586E-3,6.755549E-3,7.3843464E-2,-2.3325167E-3,7.1253546E-2,6.780853E-2,-5.247274E-3],"categories":[],"categories_nodes":[],"categories_segments":[],"categories_sizes":[],"default_left":[0,0,0,0,0,0,0,0,0,0,0,0,0,0,0,0,0,0,0,0,0,0,0,0,0,0,0,0,0,0,0,0,0,0,0,0,0,0,0,0,0,0,0,0,0,0,0,0,0],"id":8,"left_children":[1,3,5,-1,-1,7,9,-1,11,13,15,17,19,21,23,25,27,29,31,33,35,37,39,41,43,45,-1,-1,47,-1,-1,-1,-1,-1,-1,-1,-1,-1,-1,-1,-1,-1,-1,-1,-1,-1,-1,-1,-1],"loss_changes":[1.2286409E0,5.1365936E-1,8.7336534E-1,0E0,0E0,1.472809E0,7.846117E-1,0E0,8.1054693E-1,4.2127514E-1,1.1222864E0,5.438875E-1,2.165434E0,1.3265562E-1,1.4354639E0,1.3991352E0,9.027047E-1,2.4472088E-1,5.20875E-1,2.1642766E0,9.6901846E-1,1.1002827E-1,6.9892406E-3,2.122463E-1,1.2568314E0,1.7053988E0,0E0,0E0,2.426907E0,0E0,0E0,0E0,0E0,0E0,0E0,0E0,0E0,0E0,0E0,0E0,0E0,0E0,0E0,0E0,0E0,0E0,0E0,0E0,0E0],"parents":[2147483647,0,0,1,1,2,2,5,5,6,6,8,8,9,9,10,10,11,11,12,12,13,13,14,14,15,15,16,16,17,17,18,18,19,19,20,20,21,21,22,22,23,23,24,24,25,25,28,28],"right_children":[2,4,6,-1,-1,8,10,-1,12,14,16,18,20,22,24,26,28,30,32,34,36,38,40,42,44,46,-1,-1,48,-1,-1,-1,-1,-1,-1,-1,-1,-1,-1,-1,-1,-1,-1,-1,-1,-1,-1,-1,-1],"split_conditions":[1.1E-2,1.919832E0,7.565E1,3.7881933E-2,-1.3057107E-2,2.0476544E0,1E0,7.822313E-2,2.2568421E-1,8.34332E1,3.1416667E-1,2.4380466E1,2.574E-1,1E0,2.1841047E0,3.115E-1,6.5225E-1,1.7E1,2.0363636E-1,3.5145857E0,2E0,7.9066666E1,5.417E0,3.802E-1,6.70338E0,2.238958E0,8.740086E-2,-1.9473312E-2,1.0595547E2,-2.5164826E-2,1.1310323E-2,-7.6754525E-4,-1.1357941E-2,5.7857297E-3,4.310245E-2,1.2243218E-2,-2.8351906E-3,-1.3864951E-2,-5.345238E-3,-2.5243506E-2,-1.661519E-2,-1.4744435E-2,-6.0412586E-3,6.755549E-3,7.3843464E-2,-2.3325167E-3,7.1253546E-2,6.780853E-2,-5.247274E-3],"split_indices":[13,0,1,0,0,6,8,0,13,1,13,1,13,10,6,13,13,5,13,6,15,1,0,13,0,6,0,0,1,0,0,0,0,0,0,0,0,0,0,0,0,0,0,0,0,0,0,0,0],"split_type":[0,0,0,0,0,0,0,0,0,0,0,0,0,0,0,0,0,0,0,0,0,0,0,0,0,0,0,0,0,0,0,0,0,0,0,0,0,0,0,0,0,0,0,0,0,0,0,0,0],"sum_hessian":[1.0599463E3,1.1798365E1,1.048148E3,9.904486E0,1.8938795E0,6.968068E2,3.5134106E2,1.4110103E0,6.953958E2,2.7387482E2,7.7466255E1,3.064825E2,3.8891333E2,1.0064794E2,1.7322688E2,2.112312E1,5.6343132E1,1.606083E1,2.904217E2,6.750553E1,3.2140778E2,6.9447845E1,3.12001E1,1.5909657E2,1.41303005E1,1.924415E1,1.8789696E0,2.2661072E1,3.3682064E1,1.4551391E1,1.509438E0,2.3338953E2,5.7032158E1,4.4219715E1,2.3285814E1,4.9510647E1,2.7189716E2,4.364226E1,2.580558E1,6.2771063E0,2.4922995E1,3.6720238E1,1.2237634E2,1.1313257E1,2.817043E0,1.6360926E1,2.8832228E0,4.3580914E0,2.932397E1],"tree_param":{"num_deleted":"0","num_feature":"21","num_nodes":"49","size_leaf_vector":"1"}},{"base_weights":[-1.2643656E-2,1.9877534E-1,-1.6952092E-2,-1.24087796E-1,3.7275073E-1,1.9848128E-3,-6.1306555E-2,-1.980166E-2,1.1686408E-2,3.9105974E-2,1.2806252E-2,2.5934743E-2,-4.561396E-2,-1.06974736E-1,-2.8342573E-2,1.9016584E-2,4.1413194E-1,2.1664372E-2,-7.1204014E-2,-1.4298367E-2,-9.203699E-2,2.081249E-1,-5.233542E-2,-2.1536235E-2,5.163252E-2,1.0005654E-1,6.219563E-2,-4.930625E-2,4.0668443E-1,-1.7510632E-2,-4.5508984E-2,1.5880814E-2,-1.1323831E-1,3.8773608E-1,-1.0851574E-2,-1.1570254E-1,-4.2227986E-3,-2.2501247E-2,-2.9949806E-4,2.2621883E-2,8.504402E-4,2.9027779E-2,-1.0219425E-2,-1.1341812E-2,7.232692E-3,5.3804945E-2,-1.28135905E-2,3.0672384E-2,-5.683297E-3,-5.681142E-3,5.2242875E-2,-1.3385549E-2,-9.352405E-3,9.032755E-3,5.0360274E-2,-6.1846296E-3,-1.6753556E-2,4.024823E-2,-6.180843E-3],"categories":[],"categories_nodes":[],"categories_segments":[],"categories_sizes":[],"default_left":[0,0,0,0,0,0,0,0,0,0,0,0,0,0,0,0,0,0,0,0,0,0,0,0,0,0,0,0,0,0,0,0,0,0,0,0,0,0,0,0,0,0,0,0,0,0,0,0,0,0,0,0,0,0,0,0,0,0,0],"id":9,"left_children":[1,3,5,7,9,11,13,-1,-1,-1,-1,15,17,19,21,23,25,27,29,-1,31,33,35,37,39,41,-1,43,45,-1,47,49,51,53,-1,55,57,-1,-1,-1,-1,-1,-1,-1,-1,-1,-1,-1,-1,-1,-1,-1,-1,-1,-1,-1,-1,-1,-1],"loss_changes":[9.5789635E-1,1.2262282E0,8.6349547E-1,1.6753903E-1,1.2195945E-2,8.2348055E-1,4.600041E-1,0E0,0E0,0E0,0E0,1.2825785E0,4.1786462E-1,5.6004167E-2,1.032121E0,6.269215E-1,4.8378456E-1,1.8617443E0,4.603508E-1,0E0,2.1615839E-1,9.964994E-1,5.001692E-1,7.976862E-1,1.9747931E0,2.0366716E-1,0E0,4.5894337E-1,8.1353664E-1,0E0,5.837742E-1,6.284326E-1,1.9358635E-2,3.310386E-1,0E0,1.8737715E-1,2.2353337E0,0E0,0E0,0E0,0E0,0E0,0E0,0E0,0E0,0E0,0E0,0E0,0E0,0E0,0E0,0E0,0E0,0E0,0E0,0E0,0E0,0E0,0E0],"parents":[2147483647,0,0,1,1,2,2,3,3,4,4,5,5,6,6,11,11,12,12,13,13,14,14,15,15,16,16,17,17,18,18,20,20,21,21,22,22,23,23,24,24,25,25,27,27,28,28,30,30,31,31,32,32,33,33,35,35,36,36],"right_children":[2,4,6,8,10,12,14,-1,-1,-1,-1,16,18,20,22,24,26,28,30,-1,32,34,36,38,40,42,-1,44,46,-1,48,50,52,54,-1,56,58,-1,-1,-1,-1,-1,-1,-1,-1,-1,-1,-1,-1,-1,-1,-1,-1,-1,-1,-1,-1,-1,-1],"split_conditions":[4.521739E-2,2.82124E1,1E0,1.7E1,1.4E1,7.565E1,2.5125E-1,-1.980166E-2,1.1686408E-2,3.9105974E-2,1.2806252E-2,7.51E1,3.1416667E-1,3.277E0,2.6367345E-1,2.2568421E-1,2.6863638E-1,6.124224E0,3.8788235E-1,-1.4298367E-2,3.849684E0,4.08E0,4.27854E0,2.6133333E1,2.574E-1,7.54004E1,6.219563E-2,4E0,8.758227E1,-1.7510632E-2,3.9392683E-1,5.4952267E1,4.997912E0,3E0,-1.0851574E-2,3.405568E0,4.679E0,-2.2501247E-2,-2.9949806E-4,2.2621883E-2,8.504402E-4,2.9027779E-2,-1.0219425E-2,-1.1341812E-2,7.232692E-3,5.3804945E-2,-1.28135905E-2,3.0672384E-2,-5.683297E-3,-5.681142E-3,5.2242875E-2,-1.3385549E-2,-9.352405E-3,9.032755E-3,5.0360274E-2,-6.1846296E-3,-1.6753556E-2,4.024823E-2,-6.180843E-3],"split_indices":[13,1,7,5,5,1,13,0,0,0,0,1,13,0,13,13,13,0,13,0,0,0,0,1,13,1,0,15,1,0,13,1,0,15,0,0,0,0,0,0,0,0,0,0,0,0,0,0,0,0,0,0,0,0,0,0,0,0,0],"split_type":[0,0,0,0,0,0,0,0,0,0,0,0,0,0,0,0,0,0,0,0,0,0,0,0,0,0,0,0,0,0,0,0,0,0,0,0,0,0,0,0,0,0,0,0,0,0,0,0,0,0,0,0,0,0,0,0,0,0,0],"sum_hessian":[1.0469111E3,2.000711E1,1.026904E3,7.1061974E0,1.2900913E1,7.203217E2,3.0658234E2,5.574133E0,1.5320642E0,1.1446242E1,1.4546709E0,4.7950687E2,2.4081487E2,1.2758345E2,1.7899887E2,4.7214172E2,7.365166E0,6.639925E1,1.7441562E2,3.489458E1,9.2688866E1,1.5781905E1,1.6321696E2,2.1061482E2,2.615269E2,3.5227869E0,3.842379E0,5.6801064E1,9.598183E0,3.342818E1,1.4098744E2,1.5260689E1,7.742818E1,9.926607E0,5.855297E0,6.983517E1,9.3381805E1,1.665901E1,1.9395581E2,5.096618E1,2.1056071E2,1.5910928E0,1.931694E0,3.7239803E1,1.956126E1,7.7006707E0,1.897512E0,3.5789165E0,1.3740852E2,1.4121961E1,1.138728E0,3.5017307E1,4.2410873E1,3.2819703E0,6.644637E0,3.5324745E1,3.4510418E1,1.0839229E1,8.254258E1],"tree_param":{"num_deleted":"0","num_feature":"21","num_nodes":"59","size_leaf_vector":"1"}},{"base_weights":[-9.633417E-3,-5.8575984E-2,1.1174691E-2,-8.2438916E-2,-1.2831214E-2,1.6836459E-2,-2.1012466E-2,-1.1213025E-1,-5.2045416E-2,2.5436106E-1,-8.667039E-2,1.0433654E-1,4.7893445E-3,-1.3503928E-1,-3.5709597E-2,4.8821127E-1,-8.959934E-2,6.539418E-1,-2.8799618E-2,-4.0401095E-3,-1.0918816E-1,6.3818544E-2,2.950589E-1,1.6044317E-2,-1.2410775E-1,3.7628196E-2,-1.4911686E-1,3.757917E-1,-1.3167805E-2,1.1459536E-2,5.688165E-1,-1.3537417E-1,-6.543726E-2,1.5678959E-2,8.0394275E-2,-1.644113E-1,2.2742556E-1,5.4807205E-2,-9.244177E-2,-9.58075E-2,-1.3404426E-2,4.321115E-2,3.3291608E-2,4.6316126E-1,8.3403245E-2,1.7709205E-1,9.709781E-3,-5.406943E-3,-1.2727483E-1,-2.2019284E-2,3.9506968E-2,-1.7485803E-2,-1.2723644E-2,-1.3320694E-2,7.172334E-2,6.7765616E-2,1.6870266E-2,7.5159357E-3,-1.5430736E-2,-8.30398E-3,4.88784E-2,-1.1216647E-2,-2.7745908E-2,-1.8632045E-2,4.699071E-2,-1.5604629E-2,2.196991E-2,1.0653368E-2,-1.0934692E-2,2.3366129E-2,-1.7238364E-3,5.58456E-2,5.5318535E-3,4.3390106E-2,-1.1868216E-2,3.3777997E-2,-7.2588446E-3,-5.37449E-4,7.806513E-3,-1.31704705E-2,-7.319891E-3],"categories":[],"categories_nodes":[],"categories_segments":[],"categories_sizes":[],"default_left":[0,0,0,0,0,0,0,0,0,0,0,0,0,0,0,0,0,0,0,0,0,0,0,0,0,0,0,0,0,0,0,0,0,0,0,0,0,0,0,0,0,0,0,0,0,0,0,0,0,0,0,0,0,0,0,0,0,0,0,0,0,0,0,0,0,0,0,0,0,0,0,0,0,0,0,0,0,0,0,0,0],"id":10,"left_children":[1,3,5,7,9,11,-1,13,15,17,19,21,23,25,27,29,31,33,35,37,39,41,43,45,47,49,51,53,-1,-1,55,57,59,-1,-1,61,63,-1,65,67,-1,-1,69,71,73,75,77,-1,79,-1,-1,-1,-1,-1,-1,-1,-1,-1,-1,-1,-1,-1,-1,-1,-1,-1,-1,-1,-1,-1,-1,-1,-1,-1,-1,-1,-1,-1,-1,-1,-1],"loss_changes":[1.0848875E0,3.4581614E-1,9.4058555E-1,1.8244994E-1,2.1946456E0,7.691635E-1,0E0,1.7843509E-1,2.1734405E0,2.7453213E0,1.614793E-1,6.636282E-1,9.345686E-1,2.0049262E-1,1.0565635E0,1.44943E-1,1.0062808E-1,6.2238693E-1,5.607148E-1,1.0109442E0,9.889722E-3,8.1887966E-1,5.021242E-1,6.02313E-1,4.594505E-3,7.1755207E-1,1.96172E-2,9.787749E-1,0E0,0E0,1.2462294E-1,1.4419228E-1,6.9156194E-1,0E0,0E0,3.0472934E-2,6.525936E-1,0E0,3.8797474E-1,1.4297447E-1,0E0,0E0,7.0795166E-1,2.8978658E-1,6.144043E-1,9.212006E-1,5.889091E-1,0E0,2.039969E-3,0E0,0E0,0E0,0E0,0E0,0E0,0E0,0E0,0E0,0E0,0E0,0E0,0E0,0E0,0E0,0E0,0E0,0E0,0E0,0E0,0E0,0E0,0E0,0E0,0E0,0E0,0E0,0E0,0E0,0E0,0E0,0E0],"parents":[2147483647,0,0,1,1,2,2,3,3,4,4,5,5,7,7,8,8,9,9,10,10,11,11,12,12,13,13,14,14,15,15,16,16,17,17,18,18,19,19,20,20,21,21,22,22,23,23,24,24,25,25,26,26,27,27,30,30,31,31,32,32,35,35,36,36,38,38,39,39,42,42,43,43,44,44,45,45,46,46,48,48],"right_children":[2,4,6,8,10,12,-1,14,16,18,20,22,24,26,28,30,32,34,36,38,40,42,44,46,48,50,52,54,-1,-1,56,58,60,-1,-1,62,64,-1,66,68,-1,-1,70,72,74,76,78,-1,80,-1,-1,-1,-1,-1,-1,-1,-1,-1,-1,-1,-1,-1,-1,-1,-1,-1,-1,-1,-1,-1,-1,-1,-1,-1,-1,-1,-1,-1,-1,-1,-1],"split_conditions":[2.316763E0,8.947727E-1,1.4402857E0,8.453333E1,8.42E0,2.5427625E0,-2.1012466E-2,3.115E-1,8.578333E1,2.6834285E0,1.385E2,2.5014265E0,7.141787E1,4.863708E0,7.83731E1,1.3E1,6.70338E0,5.259E0,2.12626E0,1.121181E0,3.9288333E2,9.3333334E-2,2.5547826E-1,4.521739E-2,1.526E-1,6.735E1,7.6583336E1,5.259E0,-1.3167805E-2,1.1459536E-2,2.6628572E-1,3.115E-1,2.0851505E0,1.5678959E-2,8.0394275E-2,6.06918E0,1E0,5.4807205E-2,1E0,7.4104017E-1,-1.3404426E-2,4.321115E-2,2.372874E0,2.5359256E0,7.07579E1,2E0,4.315E0,-5.406943E-3,3.189796E-1,-2.2019284E-2,3.9506968E-2,-1.7485803E-2,-1.2723644E-2,-1.3320694E-2,7.172334E-2,6.7765616E-2,1.6870266E-2,7.5159357E-3,-1.5430736E-2,-8.30398E-3,4.88784E-2,-1.1216647E-2,-2.7745908E-2,-1.8632045E-2,4.699071E-2,-1.5604629E-2,2.196991E-2,1.0653368E-2,-1.0934692E-2,2.3366129E-2,-1.7238364E-3,5.58456E-2,5.5318535E-3,4.3390106E-2,-1.1868216E-2,3.3777997E-2,-7.2588446E-3,-5.37449E-4,7.806513E-3,-1.31704705E-2,-7.319891E-3],"split_indices":[6,13,13,1,0,6,0,13,1,13,1,6,1,0,1,5,0,0,6,6,1,13,13,13,13,1,1,0,0,0,13,13,6,0,0,0,8,0,8,6,0,0,6,6,1,15,0,0,13,0,0,0,0,0,0,0,0,0,0,0,0,0,0,0,0,0,0,0,0,0,0,0,0,0,0,0,0,0,0,0,0],"split_type":[0,0,0,0,0,0,0,0,0,0,0,0,0,0,0,0,0,0,0,0,0,0,0,0,0,0,0,0,0,0,0,0,0,0,0,0,0,0,0,0,0,0,0,0,0,0,0,0,0,0,0,0,0,0,0,0,0,0,0,0,0,0,0,0,0,0,0,0,0,0,0,0,0,0,0,0,0,0,0,0,0],"sum_hessian":[1.0636411E3,3.1676526E2,7.468758E2,2.0764455E2,1.0912073E2,7.2914514E2,1.7730679E1,1.03675224E2,1.0396932E2,2.3097172E1,8.602355E1,8.7313416E1,6.418317E2,7.9173805E1,2.4501413E1,5.977389E0,9.7991936E1,9.036262E0,1.4060911E1,1.867478E1,6.734877E1,7.3115105E1,1.4198316E1,5.9109436E2,5.073736E1,5.842321E0,7.333149E1,4.0820947E0,2.041932E1,1.4904838E0,4.486905E0,3.2264465E1,6.572747E1,2.568539E0,6.4677224E0,9.428856E0,4.6320553E0,1.8597744E0,1.6815006E1,4.6936283E1,2.0412487E1,4.589529E0,6.852557E1,7.251061E0,6.947255E0,2.1349638E1,5.6974475E2,2.9769108E0,4.776045E1,3.6172147E0,2.2251065E0,3.0480843E1,4.2850643E1,1.8837677E0,2.1983268E0,2.9820607E0,1.5048444E0,2.417097E0,2.9847366E1,6.452817E1,1.1993016E0,7.81115E0,1.6177056E0,1.7971649E0,2.8348906E0,1.4384063E1,2.4309435E0,2.5129437E0,4.442334E1,1.307082E1,5.5454754E1,5.5783544E0,1.6727066E0,2.1211703E0,4.8260846E0,1.2775079E1,8.574559E0,4.675007E2,1.0224403E2,4.2817326E1,4.943121E0],"tree_param":{"num_deleted":"0","num_feature":"21","num_nodes":"81","size_leaf_vector":"1"}},{"base_weights":[-2.125271E-3,-4.235722E-2,1.6086537E-2,-3.4944247E-2,-1.9759921E-2,3.9959658E-2,-3.861144E-2,-4.103734E-2,1.12714835E-1,1.7922486E-1,2.0261949E-2,-1.9617239E-2,-1.13079056E-1,-5.8824588E-2,1.6898204E-2,1.5836537E-2,3.3259153E-1,3.4551558E-1,5.63357E-2,7.517914E-2,-2.478283E-2,-4.3932002E-2,5.6877505E-2,-1.4255586E-2,-1.606288E-2,-6.518565E-2,1.6209702E-1,9.060133E-2,-6.6888824E-2,2.2047448E-1,-1.1310261E-2,4.385793E-2,1.1414397E-2,6.0539678E-2,5.552513E-1,-2.9590775E-3,4.8948105E-2,4.8203137E-2,7.0020884E-2,4.226089E-3,-1.0406185E-1,-1.0630609E-1,-6.3148313E-3,-1.2572213E-2,3.4355674E-2,-1.6758254E-2,-5.365214E-3,5.0090104E-2,-7.3637487E-3,2.7093652E-3,3.9224852E-2,-1.9848451E-2,-3.543732E-3,3.1638194E-2,4.850187E-3,3.1627443E-2,-2.2926856E-2,6.6629186E-2,3.5027977E-2,9.925615E-3,-1.1310831E-2,7.194997E-5,1.6718067E-2,5.680436E-3,-5.0592213E-3,2.2533229E-2,-1.4124984E-2,-4.7334763E-3,-1.38876615E-2,4.285201E-2,-5.1987497E-3],"categories":[],"categories_nodes":[],"categories_segments":[],"categories_sizes":[],"default_left":[0,0,0,0,0,0,0,0,0,0,0,0,0,0,0,0,0,0,0,0,0,0,0,0,0,0,0,0,0,0,0,0,0,0,0,0,0,0,0,0,0,0,0,0,0,0,0,0,0,0,0,0,0,0,0,0,0,0,0,0,0,0,0,0,0,0,0,0,0,0,0],"id":11,"left_children":[1,3,5,7,-1,9,11,13,15,17,19,21,23,25,27,29,31,33,35,37,39,41,-1,-1,43,45,47,49,51,53,-1,-1,-1,55,57,59,-1,61,-1,63,65,67,69,-1,-1,-1,-1,-1,-1,-1,-1,-1,-1,-1,-1,-1,-1,-1,-1,-1,-1,-1,-1,-1,-1,-1,-1,-1,-1,-1,-1],"loss_changes":[7.885349E-1,3.7901258E-1,9.6906245E-1,2.936788E-1,0E0,1.4126828E0,3.1693125E-1,3.1970972E-1,2.716261E-1,1.2853136E0,1.123577E0,2.614326E0,1.282444E-1,3.434142E-1,4.594939E-1,2.90727E-1,4.0828913E-2,1.5764806E0,9.751207E-1,3.4156494E0,5.7508755E-1,4.0931532E-1,0E0,0E0,5.0710773E-1,2.6374388E-1,5.8922684E-1,7.4585056E-1,1.3756922E-1,5.4467008E-2,0E0,0E0,0E0,1.0021272E0,1.1701155E-1,3.9785758E-1,0E0,1.1139063E0,0E0,5.329002E-1,8.522461E-1,1.19565964E-1,2.2081144E0,0E0,0E0,0E0,0E0,0E0,0E0,0E0,0E0,0E0,0E0,0E0,0E0,0E0,0E0,0E0,0E0,0E0,0E0,0E0,0E0,0E0,0E0,0E0,0E0,0E0,0E0,0E0,0E0],"parents":[2147483647,0,0,1,1,2,2,3,3,5,5,6,6,7,7,8,8,9,9,10,10,11,11,12,12,13,13,14,14,15,15,16,16,17,17,18,18,19,19,20,20,21,21,24,24,25,25,26,26,27,27,28,28,29,29,33,33,34,34,35,35,37,37,39,39,40,40,41,41,42,42],"right_children":[2,4,6,8,-1,10,12,14,16,18,20,22,24,26,28,30,32,34,36,38,40,42,-1,-1,44,46,48,50,52,54,-1,-1,-1,56,58,60,-1,62,-1,64,66,68,70,-1,-1,-1,-1,-1,-1,-1,-1,-1,-1,-1,-1,-1,-1,-1,-1,-1,-1,-1,-1,-1,-1,-1,-1,-1,-1,-1,-1],"split_conditions":[2.316763E0,2.2906282E0,1E0,2.2697794E0,-1.9759921E-2,2.5359256E0,4.2722E0,1E0,5.771E0,7.4433334E1,3.132E0,4.132231E0,2.1E1,1.7E1,9.796667E1,4.863708E0,6.192E0,4.667316E0,2.5014265E0,4.3456467E1,1E0,5.345E1,5.6877505E-2,-1.4255586E-2,6.082391E0,5.417E0,7.65027E0,6.351304E0,7.555E0,2.2828069E0,-1.1310261E-2,4.385793E-2,1.1414397E-2,1E0,7.273333E1,1E0,4.8948105E-2,2.476E0,7.0020884E-2,3.2716587E0,2.6104E0,3.669016E0,3.849684E0,-1.2572213E-2,3.4355674E-2,-1.6758254E-2,-5.365214E-3,5.0090104E-2,-7.3637487E-3,2.7093652E-3,3.9224852E-2,-1.9848451E-2,-3.543732E-3,3.1638194E-2,4.850187E-3,3.1627443E-2,-2.2926856E-2,6.6629186E-2,3.5027977E-2,9.925615E-3,-1.1310831E-2,7.194997E-5,1.6718067E-2,5.680436E-3,-5.0592213E-3,2.2533229E-2,-1.4124984E-2,-4.7334763E-3,-1.38876615E-2,4.285201E-2,-5.1987497E-3],"split_indices":[6,6,7,6,0,6,6,8,0,1,0,6,2,5,1,0,0,0,6,1,8,1,0,0,6,0,0,0,0,6,0,0,0,10,1,10,0,0,0,6,6,6,0,0,0,0,0,0,0,0,0,0,0,0,0,0,0,0,0,0,0,0,0,0,0,0,0,0,0,0,0],"split_type":[0,0,0,0,0,0,0,0,0,0,0,0,0,0,0,0,0,0,0,0,0,0,0,0,0,0,0,0,0,0,0,0,0,0,0,0,0,0,0,0,0,0,0,0,0,0,0,0,0,0,0,0,0,0,0,0,0,0,0,0,0,0,0,0,0,0,0,0,0,0,0],"sum_hessian":[1.0742795E3,3.3434583E2,7.3993365E2,3.202773E2,1.4068494E1,5.152991E2,2.246346E2,3.082784E2,1.1998901E1,6.2849148E1,4.5244992E2,1.7998888E2,4.4645718E1,2.3585223E2,7.24262E1,9.073234E0,2.9256678E0,2.5938362E1,3.6910786E1,2.0358116E2,2.4886876E2,1.7373479E2,6.254092E0,3.388186E1,1.0763858E1,2.2993652E2,5.915699E0,3.848851E1,3.3937687E1,3.232715E0,5.8405185E0,1.2913924E0,1.6342752E0,1.1543039E1,1.4395323E1,3.3339935E1,3.5708513E0,1.9619078E2,7.3903832E0,1.8289317E2,6.59756E1,6.4672874E1,1.09061905E2,8.747021E0,2.0168374E0,2.190748E1,2.0802905E2,1.9656956E0,3.9500036E0,3.2694874E1,5.793638E0,5.522072E0,2.8415615E1,1.5362437E0,1.6964712E0,6.0834827E0,5.4595566E0,7.8772655E0,6.5180573E0,1.7344057E1,1.5995877E1,1.4094574E2,5.524504E1,9.333544E1,8.9557724E1,6.1796675E0,5.979593E1,2.388345E1,4.0789425E1,9.569674E0,9.949223E1],"tree_param":{"num_deleted":"0","num_feature":"21","num_nodes":"71","size_leaf_vector":"1"}},{"base_weights":[-1.1183012E-2,7.911519E-3,-4.0167276E-2,-8.6261295E-2,1.724883E-2,-2.8498465E-2,-1.1663784E-1,-1.5926999E-1,7.11982E-2,4.9647462E-1,1.1232258E-3,-3.4632422E-2,2.3731093E-1,-1.3411385E-2,-6.436877E-3,-2.0442078E-2,-1.1395496E-1,3.9406872E-1,-1.2376096E-2,-1.292958E-4,5.699095E-1,1.7133072E-2,-1.8510178E-1,7.596911E-2,-4.555276E-2,3.31563E-1,-4.6135206E-3,-1.7125271E-2,1.0312667E-2,6.0982287E-2,-1.7778816E-2,8.12871E-2,3.6523598E-1,9.4890585E-3,3.1558523E-1,-7.0149335E-3,-2.1061724E-1,-2.2831794E-2,3.838739E-1,-8.081236E-2,-2.349234E-2,-7.6720054E-4,4.6601597E-2,4.816025E-2,-1.4542036E-2,-2.5043776E-2,5.0487738E-2,-1.1409222E-2,2.011006E-3,1.5891522E-2,7.716439E-2,2.9458154E-2,-1.99331E-2,-2.1624437E-2,-6.8746596E-3,2.1561777E-2,-9.761294E-3,4.7850814E-2,1.4001644E-2,-1.0633372E-2,-8.172239E-4,3.0616978E-2,-3.875951E-3],"categories":[],"categories_nodes":[],"categories_segments":[],"categories_sizes":[],"default_left":[0,0,0,0,0,0,0,0,0,0,0,0,0,0,0,0,0,0,0,0,0,0,0,0,0,0,0,0,0,0,0,0,0,0,0,0,0,0,0,0,0,0,0,0,0,0,0,0,0,0,0,0,0,0,0,0,0,0,0,0,0,0,0],"id":12,"left_children":[1,3,5,7,9,11,13,15,17,19,21,23,25,-1,-1,-1,27,29,-1,-1,31,33,35,37,39,41,-1,-1,43,-1,-1,-1,45,47,49,51,53,55,57,59,61,-1,-1,-1,-1,-1,-1,-1,-1,-1,-1,-1,-1,-1,-1,-1,-1,-1,-1,-1,-1,-1,-1],"loss_changes":[5.904013E-1,5.6741744E-1,3.7467206E-1,6.806727E-1,4.530834E0,6.0961735E-1,4.2300224E-2,5.8725953E-2,1.253277E0,6.984153E-1,1.6974857E0,4.399671E-1,2.4096602E-1,0E0,0E0,0E0,1.603153E-1,1.0267813E0,0E0,0E0,5.303302E-1,1.1929357E0,2.0333302E-1,1.0081578E0,2.544412E-1,2.9828626E-1,0E0,0E0,6.550145E-1,0E0,0E0,0E0,1.0588093E0,6.7452735E-1,8.105215E-1,4.4634652E-1,1.6580105E-2,4.8136765E-1,1.1846864E-1,2.3350358E-1,1.0392522E0,0E0,0E0,0E0,0E0,0E0,0E0,0E0,0E0,0E0,0E0,0E0,0E0,0E0,0E0,0E0,0E0,0E0,0E0,0E0,0E0,0E0,0E0],"parents":[2147483647,0,0,1,1,2,2,3,3,4,4,5,5,6,6,7,7,8,8,9,9,10,10,11,11,12,12,16,16,17,17,20,20,21,21,22,22,23,23,24,24,25,25,28,28,32,32,33,33,34,34,35,35,36,36,37,37,38,38,39,39,40,40],"right_children":[2,4,6,8,10,12,14,16,18,20,22,24,26,-1,-1,-1,28,30,-1,-1,32,34,36,38,40,42,-1,-1,44,-1,-1,-1,46,48,50,52,54,56,58,60,62,-1,-1,-1,-1,-1,-1,-1,-1,-1,-1,-1,-1,-1,-1,-1,-1,-1,-1,-1,-1,-1,-1],"split_conditions":[7.141787E1,1.044E0,2.5359256E0,3.611111E2,1.370736E0,2.5014265E0,1E0,3E0,9.8588234E-1,6.1E-2,6.3471265E0,7.565E1,1E0,-1.3411385E-2,-6.436877E-3,-2.0442078E-2,1E0,1E0,-1.2376096E-2,-1.292958E-4,1E0,6.082391E0,1.506E0,7.51E1,6.124224E0,5.172E0,-4.6135206E-3,-1.7125271E-2,4E0,6.0982287E-2,-1.7778816E-2,8.12871E-2,3.528125E-1,3.5156734E1,1.977948E0,1.4E1,1E0,5.21076E0,2.1474168E0,2.3290508E0,8.578333E1,-7.6720054E-4,4.6601597E-2,4.816025E-2,-1.4542036E-2,-2.5043776E-2,5.0487738E-2,-1.1409222E-2,2.011006E-3,1.5891522E-2,7.716439E-2,2.9458154E-2,-1.99331E-2,-2.1624437E-2,-6.8746596E-3,2.1561777E-2,-9.761294E-3,4.7850814E-2,1.4001644E-2,-1.0633372E-2,-8.172239E-4,3.0616978E-2,-3.875951E-3],"split_indices":[1,0,6,6,0,6,7,15,13,13,6,1,7,0,0,0,9,8,0,0,8,6,0,1,0,0,0,0,15,0,0,0,13,1,0,5,7,0,6,6,1,0,0,0,0,0,0,0,0,0,0,0,0,0,0,0,0,0,0,0,0,0,0],"split_type":[0,0,0,0,0,0,0,0,0,0,0,0,0,0,0,0,0,0,0,0,0,0,0,0,0,0,0,0,0,0,0,0,0,0,0,0,0,0,0,0,0,0,0,0,0,0,0,0,0,0,0,0,0,0,0,0,0,0,0,0,0,0,0],"sum_hessian":[1.0652086E3,6.425985E2,4.2261017E2,5.722356E1,5.8537494E2,3.6785156E2,5.47586E1,3.908818E1,1.813538E1,1.8086506E1,5.6728845E2,3.604044E2,7.4471674E0,3.9864265E1,1.4894331E1,1.7820833E1,2.126735E1,6.4433327E0,1.1692047E1,2.4515345E0,1.5634971E1,5.232154E2,4.407306E1,3.1851795E1,3.285526E2,5.4613814E0,1.9857857E0,1.4297097E1,6.9702516E0,4.630075E0,1.8132577E0,5.790136E0,9.844835E0,5.1115536E2,1.2060014E1,5.683017E0,3.8390045E1,2.481498E1,7.036816E0,1.2542314E2,2.0312946E2,1.8178208E0,3.6435606E0,1.2114851E0,5.758766E0,1.6734077E0,8.171427E0,3.9682713E1,4.7147266E2,9.980025E0,2.0799885E0,2.0057597E0,3.6772568E0,3.6421204E1,1.9688398E0,5.4747376E0,1.934024E1,4.3762655E0,2.6605508E0,9.247067E1,3.295247E1,8.147496E0,1.9498196E2],"tree_param":{"num_deleted":"0","num_feature":"21","num_nodes":"63","size_leaf_vector":"1"}},{"base_weights":[-1.0267362E-2,1.4561293E-1,-1.3089008E-2,2.6892303E-2,-3.56738E-2,-2.2451867E-1,-1.1236193E-2,-1.568974E-2,8.749966E-2,-2.4819497E-2,-8.969228E-3,9.6122787E-4,-3.906426E-2,2.851628E-3,1.3632643E-2,6.503873E-2,-9.681031E-3,-7.591232E-2,-1.2315539E-2,1.6369963E-2,6.144468E-1,-9.055397E-2,5.2896733E-3,-5.5449132E-2,-1.2199323E-1,1.4199492E-1,-2.9770197E-2,-1.0043087E-2,8.271814E-3,8.794876E-2,1.4088692E-2,-4.7186636E-3,-1.824314E-2,9.17981E-3,-1.1813318E-3,-8.588683E-3,2.4334542E-2,-1.0975397E-2,-1.789115E-2,-1.3852484E-3,3.93385E-2,-7.6026144E-3,3.8451367E-4],"categories":[],"categories_nodes":[],"categories_segments":[],"categories_sizes":[],"default_left":[0,0,0,0,0,0,0,0,0,0,0,0,0,0,0,0,0,0,0,0,0,0,0,0,0,0,0,0,0,0,0,0,0,0,0,0,0,0,0,0,0,0,0],"id":13,"left_children":[1,3,5,-1,7,9,11,-1,13,-1,-1,15,17,-1,-1,19,21,23,25,27,29,31,33,35,37,39,41,-1,-1,-1,-1,-1,-1,-1,-1,-1,-1,-1,-1,-1,-1,-1,-1],"loss_changes":[4.8109883E-1,4.4445094E-1,4.1703904E-1,0E0,1.444984E-1,7.271141E-3,3.60774E-1,0E0,1.0472078E-2,0E0,0E0,5.051726E-1,3.183074E-1,0E0,0E0,2.8111563E0,7.697329E-1,1.21512115E-1,5.1290476E-1,7.673794E-1,9.5029116E-1,3.8704622E-1,7.957041E-1,8.943125E-1,8.925438E-3,7.641393E-1,2.6539382E-1,0E0,0E0,0E0,0E0,0E0,0E0,0E0,0E0,0E0,0E0,0E0,0E0,0E0,0E0,0E0,0E0],"parents":[2147483647,0,0,1,1,2,2,4,4,5,5,6,6,8,8,11,11,12,12,15,15,16,16,17,17,18,18,19,19,20,20,21,21,22,22,23,23,24,24,25,25,26,26],"right_children":[2,4,6,-1,8,10,12,-1,14,-1,-1,16,18,-1,-1,20,22,24,26,28,30,32,34,36,38,40,42,-1,-1,-1,-1,-1,-1,-1,-1,-1,-1,-1,-1,-1,-1,-1,-1],"split_conditions":[4.521739E-2,2E0,6.1E-2,2.6892303E-2,5.01E-1,1E0,1E0,-1.568974E-2,2.07414E0,-2.4819497E-2,-8.969228E-3,1.7826086E-1,2.5125E-1,2.851628E-3,1.3632643E-2,1.7366667E-1,2.11E-1,3.6824732E0,2.645E-1,2E0,1.7755102E-1,1E0,2.574E-1,3.3467202E0,3.789096E0,3.5459132E0,4.27854E0,-1.0043087E-2,8.271814E-3,8.794876E-2,1.4088692E-2,-4.7186636E-3,-1.824314E-2,9.17981E-3,-1.1813318E-3,-8.588683E-3,2.4334542E-2,-1.0975397E-2,-1.789115E-2,-1.3852484E-3,3.93385E-2,-7.6026144E-3,3.8451367E-4],"split_indices":[13,15,13,0,3,7,7,0,0,0,0,13,13,0,0,13,13,6,13,15,13,10,13,6,0,6,0,0,0,0,0,0,0,0,0,0,0,0,0,0,0,0,0],"split_type":[0,0,0,0,0,0,0,0,0,0,0,0,0,0,0,0,0,0,0,0,0,0,0,0,0,0,0,0,0,0,0,0,0,0,0,0,0,0,0,0,0,0,0],"sum_hessian":[1.0884738E3,1.8452806E1,1.070021E3,1.0694835E1,7.7579722E0,8.251427E0,1.0617695E3,3.7719455E0,3.9860265E0,6.303625E0,1.9478014E0,7.388757E2,3.2289386E2,2.5226552E0,1.4633713E0,1.0450929E2,6.343664E2,1.3503566E2,1.8785818E2,9.69508E1,7.5584946E0,9.8298935E1,5.3606744E2,9.503617E1,3.999949E1,1.8364965E1,1.6949323E2,3.4935627E1,6.201517E1,4.296601E0,3.2618937E0,6.780682E1,3.0492117E1,8.776699E1,4.4830045E2,8.6896706E1,8.139466E0,3.533056E1,4.6689315E0,1.1920091E1,6.444875E0,7.080343E1,9.86898E1],"tree_param":{"num_deleted":"0","num_feature":"21","num_nodes":"43","size_leaf_vector":"1"}},{"base_weights":[5.142835E-3,2.0860031E-2,-3.0644877E-2,4.120605E-2,-3.0039247E-2,1.7447726E-1,-3.433366E-2,3.4162052E-2,5.202673E-1,-1.4738686E-1,-1.9414962E-5,5.955461E-5,2.9752536E-2,-6.918299E-2,-1.1098966E-2,-4.8409373E-2,6.110513E-2,-1.26149645E-2,7.565114E-2,-1.0670163E-1,-1.9024992E-1,7.6321624E-2,-2.009902E-2,-5.119703E-2,-1.0735716E-2,1.85071E-1,-2.9589428E-2,3.55216E-2,-1.14429764E-1,2.3256569E-1,3.3880766E-2,-1.6010495E-1,2.0135851E-1,-2.119741E-2,-1.179206E-2,-3.893043E-2,1.3747086E-1,-7.9097934E-2,1.3265662E-1,3.2907018E-1,-6.8811267E-3,-1.1387528E-1,-1.0879496E-2,1.0503808E-2,-1.4576646E-2,-1.5699318E-2,-2.5261017E-3,2.9886564E-2,-2.245799E-3,1.3615871E-3,3.2755714E-2,5.1148455E-3,-1.9078193E-2,5.2514095E-2,-1.0316438E-2,-1.5319875E-2,-1.7942459E-3,3.8535107E-2,-1.107144E-2,-1.0495908E-2,-5.846953E-3,1.0735388E-3,5.100232E-2,1.502682E-2,3.928289E-2,-1.3126246E-2,-6.154268E-3,6.080718E-2,-1.9280494E-3],"categories":[],"categories_nodes":[],"categories_segments":[],"categories_sizes":[],"default_left":[0,0,0,0,0,0,0,0,0,0,0,0,0,0,0,0,0,0,0,0,0,0,0,0,0,0,0,0,0,0,0,0,0,0,0,0,0,0,0,0,0,0,0,0,0,0,0,0,0,0,0,0,0,0,0,0,0,0,0,0,0,0,0,0,0,0,0,0,0],"id":14,"left_children":[1,3,5,7,9,11,13,15,17,19,21,-1,-1,23,25,27,29,-1,-1,31,33,-1,35,37,-1,39,41,43,45,47,49,51,53,-1,-1,55,57,59,61,63,-1,65,67,-1,-1,-1,-1,-1,-1,-1,-1,-1,-1,-1,-1,-1,-1,-1,-1,-1,-1,-1,-1,-1,-1,-1,-1,-1,-1],"loss_changes":[6.021111E-1,7.7130795E-1,2.5320122E-1,1.7763393E0,7.501095E-1,1.2683038E-1,2.5978243E-1,1.1710126E0,1.2612288E0,5.534309E-2,2.6292124E0,0E0,0E0,8.275026E-2,7.100867E-1,7.229077E-1,1.8420321E0,0E0,0E0,4.3579924E-1,6.187141E-3,0E0,5.0135857E-1,4.6845257E-1,0E0,6.394092E-1,2.8006798E-1,7.447388E-1,2.7251756E-1,9.21983E-1,2.0378685E0,1.4885378E-1,4.551894E-1,0E0,0E0,3.5721606E-1,1.154059E0,3.5548657E-2,5.5291986E-1,6.566274E-2,0E0,2.1311074E-2,7.7653295E-1,0E0,0E0,0E0,0E0,0E0,0E0,0E0,0E0,0E0,0E0,0E0,0E0,0E0,0E0,0E0,0E0,0E0,0E0,0E0,0E0,0E0,0E0,0E0,0E0,0E0,0E0],"parents":[2147483647,0,0,1,1,2,2,3,3,4,4,5,5,6,6,7,7,8,8,9,9,10,10,13,13,14,14,15,15,16,16,19,19,20,20,22,22,23,23,25,25,26,26,27,27,28,28,29,29,30,30,31,31,32,32,35,35,36,36,37,37,38,38,39,39,41,41,42,42],"right_children":[2,4,6,8,10,12,14,16,18,20,22,-1,-1,24,26,28,30,-1,-1,32,34,-1,36,38,-1,40,42,44,46,48,50,52,54,-1,-1,56,58,60,62,64,-1,66,68,-1,-1,-1,-1,-1,-1,-1,-1,-1,-1,-1,-1,-1,-1,-1,-1,-1,-1,-1,-1,-1,-1,-1,-1,-1,-1],"split_conditions":[1E0,5.3933334E-1,4.521739E-2,5.128163E-1,7.1075E-1,2.296584E0,2.5125E-1,2.316763E0,6.95388E-1,6.350909E-1,7.5238097E-1,5.955461E-5,2.9752536E-2,3.6824732E0,2.645E-1,2.0476544E0,2.5359256E0,-1.26149645E-2,7.565114E-2,6.310909E-1,4.238E0,7.6321624E-2,3.611111E2,3.3467202E0,-1.0735716E-2,4.023028E0,3.168837E-1,4.5E-1,2.2697794E0,3.0142555E-1,4.047619E-1,8.48E-1,4.108E0,-2.119741E-2,-1.179206E-2,2.476E0,9.8588234E-1,4.778538E0,1.8069696E-1,3.418E0,-6.8811267E-3,5.042E0,3.189796E-1,1.0503808E-2,-1.4576646E-2,-1.5699318E-2,-2.5261017E-3,2.9886564E-2,-2.245799E-3,1.3615871E-3,3.2755714E-2,5.1148455E-3,-1.9078193E-2,5.2514095E-2,-1.0316438E-2,-1.5319875E-2,-1.7942459E-3,3.8535107E-2,-1.107144E-2,-1.0495908E-2,-5.846953E-3,1.0735388E-3,5.100232E-2,1.502682E-2,3.928289E-2,-1.3126246E-2,-6.154268E-3,6.080718E-2,-1.9280494E-3],"split_indices":[7,13,13,13,13,0,13,6,0,13,13,0,0,6,13,6,6,0,0,13,0,0,6,6,0,0,13,13,6,13,13,0,0,0,0,0,13,0,13,0,0,0,13,0,0,0,0,0,0,0,0,0,0,0,0,0,0,0,0,0,0,0,0,0,0,0,0,0,0],"split_type":[0,0,0,0,0,0,0,0,0,0,0,0,0,0,0,0,0,0,0,0,0,0,0,0,0,0,0,0,0,0,0,0,0,0,0,0,0,0,0,0,0,0,0,0,0,0,0,0,0,0,0,0,0,0,0,0,0,0,0,0,0,0,0,0,0,0,0,0,0],"sum_hessian":[1.0683167E3,7.425998E2,3.2571683E2,5.3066644E2,2.1193338E2,4.9360957E0,3.2078073E2,5.240325E2,6.633936E0,4.237596E1,1.6955742E2,2.4619312E0,2.4741645E0,1.2752721E2,1.9325351E2,1.28728E2,3.953045E2,1.9003017E0,4.733634E0,2.3530434E1,1.8845528E1,3.39775E0,1.6615967E2,8.827643E1,3.925078E1,1.5870489E1,1.7738303E2,5.687958E1,7.184841E1,5.3132225E1,3.4217227E2,2.0463326E1,3.0671093E0,1.3007909E1,5.83762E0,1.4909415E2,1.706553E1,7.713978E1,1.113665E1,9.937754E0,5.932735E0,3.129894E1,1.4608409E2,4.1418064E1,1.5461516E1,4.8118916E1,2.3729494E1,4.2032803E1,1.10994215E1,3.2106387E2,2.1108383E1,2.51015E0,1.7953175E1,1.1354145E0,1.931695E0,2.2157734E1,1.2693641E2,8.261505E0,8.804026E0,3.2414597E1,4.472518E1,9.194499E0,1.9421506E0,3.4945688E0,6.443185E0,2.2361303E1,8.937638E0,1.0003649E0,1.4508372E2],"tree_param":{"num_deleted":"0","num_feature":"21","num_nodes":"69","size_leaf_vector":"1"}},{"base_weights":[-6.355935E-3,1.6355906E-1,-8.571813E-3,2.0894757E-2,-7.8116655E-3,-1.4659664E-1,-6.421475E-3,-2.168036E-2,9.4226346E-4,5.6746197E-3,-3.360677E-2,-1.5711663E-2,2.9591847E-2,1.17633566E-1,-3.0414618E-3,-8.2709625E-2,-2.0640649E-2,-6.2956912E-3,2.3842156E-1,8.011337E-2,-1.2058671E-2,-9.2099644E-2,1.1865853E-2,4.5950063E-2,-2.719722E-2,1.6527986E-2,-2.3989826E-2,8.640253E-2,5.8477186E-3,-4.6808585E-3,4.914805E-2,-1.5896102E-2,3.4916514E-4,-7.0617767E-3,-1.1621742E-2,-3.1623754E-3,5.1291224E-2],"categories":[],"categories_nodes":[],"categories_segments":[],"categories_sizes":[],"default_left":[0,0,0,0,0,0,0,0,0,0,0,0,0,0,0,0,0,0,0,0,0,0,0,0,0,0,0,0,0,0,0,0,0,0,0,0,0],"id":15,"left_children":[1,3,5,-1,-1,7,9,-1,11,13,15,-1,-1,17,19,21,23,25,27,29,31,33,-1,-1,35,-1,-1,-1,-1,-1,-1,-1,-1,-1,-1,-1,-1],"loss_changes":[4.1284886E-1,1.7118141E-1,3.195051E-1,0E0,0E0,1.7128894E-1,3.5012293E-1,0E0,3.4120625E-1,7.198667E-1,2.0701629E-1,0E0,0E0,7.990604E-1,5.146258E-1,1.3979283E-1,8.331471E-1,1.132741E0,2.9898427E0,3.528926E0,1.4143378E0,2.5820553E-2,0E0,0E0,6.33325E-1,0E0,0E0,0E0,0E0,0E0,0E0,0E0,0E0,0E0,0E0,0E0,0E0],"parents":[2147483647,0,0,1,1,2,2,5,5,6,6,8,8,9,9,10,10,13,13,14,14,15,15,16,16,17,17,18,18,19,19,20,20,21,21,24,24],"right_children":[2,4,6,-1,-1,8,10,-1,12,14,16,-1,-1,18,20,22,24,26,28,30,32,34,-1,-1,36,-1,-1,-1,-1,-1,-1,-1,-1,-1,-1,-1,-1],"split_conditions":[1.1E-2,1.919832E0,6.1E-2,2.0894757E-2,-7.8116655E-3,1E0,1E0,-2.168036E-2,5.02E-1,1.4395653E-1,3.277E0,-1.5711663E-2,2.9591847E-2,4.08E0,1.506E0,9.7764707E-1,3.32E0,1.0139394E-1,4.38375E0,1.087E0,2.476E0,2.5547826E-1,1.1865853E-2,4.5950063E-2,4.0779853E0,1.6527986E-2,-2.3989826E-2,8.640253E-2,5.8477186E-3,-4.6808585E-3,4.914805E-2,-1.5896102E-2,3.4916514E-4,-7.0617767E-3,-1.1621742E-2,-3.1623754E-3,5.1291224E-2],"split_indices":[13,0,13,0,0,7,7,0,3,13,0,0,0,0,0,13,0,13,0,0,0,13,0,0,6,0,0,0,0,0,0,0,0,0,0,0,0],"split_type":[0,0,0,0,0,0,0,0,0,0,0,0,0,0,0,0,0,0,0,0,0,0,0,0,0,0,0,0,0,0,0,0,0,0,0,0,0],"sum_hessian":[1.0917887E3,1.3117504E1,1.0786711E3,1.115747E1,1.9600346E0,1.5516738E1,1.0631544E3,1.0195636E1,5.3211017E0,7.363201E2,3.268343E2,3.768931E0,1.5521708E0,5.228015E1,6.8404E2,6.715157E1,2.5968274E2,2.6272387E1,2.6007763E1,6.6148415E1,6.1789154E2,6.467819E1,2.4733837E0,2.5676794E0,2.5711505E2,1.5315783E1,1.0956605E1,4.960436E0,2.1047327E1,5.1228687E1,1.4919731E1,5.826313E1,5.596284E2,3.6286003E1,2.8392187E1,2.5595876E2,1.156292E0],"tree_param":{"num_deleted":"0","num_feature":"21","num_nodes":"37","size_leaf_vector":"1"}},{"base_weights":[-4.761662E-3,7.5429464E-3,-2.774848E-2,1.2752041E-2,-7.940604E-2,-4.2191226E-2,2.531465E-2,-1.5966602E-2,3.829768E-2,-1.09460525E-1,2.535148E-2,1.986869E-2,-4.4326585E-2,1.3227475E-1,-1.63232E-2,4.6162467E-2,-4.7336828E-2,-5.6151196E-2,5.6219306E-2,-1.4214578E-1,4.588321E-2,-7.551411E-2,-2.4384512E-2,4.0876523E-2,6.479244E-2,-1.390781E-2,6.1801292E-2,1.8417738E-2,2.5071013E-1,2.4955945E-2,-9.187607E-2,-1.2883116E-1,8.76638E-2,4.0682194E-1,3.236271E-2,-1.1537637E-2,-2.1087065E-2,4.138003E-2,-1.0839676E-2,-1.06073044E-1,-5.869681E-2,1.0280322E-1,-3.6879953E-2,3.3184666E-2,-1.563459E-2,1.5731184E-1,-1.1005375E-2,7.968853E-3,-4.6378653E-3,-1.3315225E-2,5.962205E-2,-6.0205306E-3,2.018868E-2,-1.2760505E-2,-2.0218648E-3,-1.6725145E-2,-8.500736E-3,-5.3365403E-3,4.5894813E-2,5.761966E-2,2.5727972E-2,-1.29648065E-2,5.4243645E-3,-8.788114E-3,-1.5292952E-2,9.870934E-3,-8.134083E-3,-6.6442224E-3,4.4842344E-2,-1.14174E-2,-1.356915E-3,-1.4372396E-2,1.183914E-2,6.398807E-3,5.773145E-2],"categories":[],"categories_nodes":[],"categories_segments":[],"categories_sizes":[],"default_left":[0,0,0,0,0,0,0,0,0,0,0,0,0,0,0,0,0,0,0,0,0,0,0,0,0,0,0,0,0,0,0,0,0,0,0,0,0,0,0,0,0,0,0,0,0,0,0,0,0,0,0,0,0,0,0,0,0,0,0,0,0,0,0,0,0,0,0,0,0,0,0,0,0,0,0],"id":16,"left_children":[1,3,5,7,9,11,13,15,17,19,-1,-1,21,23,25,27,29,31,33,35,37,39,41,43,-1,-1,45,47,49,51,53,55,57,59,61,-1,-1,-1,-1,63,65,67,69,-1,71,73,-1,-1,-1,-1,-1,-1,-1,-1,-1,-1,-1,-1,-1,-1,-1,-1,-1,-1,-1,-1,-1,-1,-1,-1,-1,-1,-1,-1,-1],"loss_changes":[3.0429274E-1,3.1853175E-1,2.8849995E-1,4.8648173E-1,4.2561537E-1,1.6063935E-1,3.6230645E-1,6.112126E-1,5.9694034E-1,1.9524896E-1,0E0,0E0,1.8064302E-1,1.0466104E0,5.7535154E-1,5.932443E-1,6.724552E-1,6.013105E-1,2.4571779E0,3.261447E-2,4.5451945E-1,5.2340865E-2,2.9057148E-1,3.4076253E-1,0E0,0E0,6.214485E-1,3.7627056E-1,1.737686E0,1.2195568E0,3.2769585E-1,4.959953E-2,1.047917E0,3.2616282E-1,9.911731E-1,0E0,0E0,0E0,0E0,1.9987106E-2,2.780156E-1,9.8946387E-1,2.95821E-1,0E0,3.2678717E-1,9.064966E-1,0E0,0E0,0E0,0E0,0E0,0E0,0E0,0E0,0E0,0E0,0E0,0E0,0E0,0E0,0E0,0E0,0E0,0E0,0E0,0E0,0E0,0E0,0E0,0E0,0E0,0E0,0E0,0E0,0E0],"parents":[2147483647,0,0,1,1,2,2,3,3,4,4,5,5,6,6,7,7,8,8,9,9,12,12,13,13,14,14,15,15,16,16,17,17,18,18,19,19,20,20,21,21,22,22,23,23,26,26,27,27,28,28,29,29,30,30,31,31,32,32,33,33,34,34,39,39,40,40,41,41,42,42,44,44,45,45],"right_children":[2,4,6,8,10,12,14,16,18,20,-1,-1,22,24,26,28,30,32,34,36,38,40,42,44,-1,-1,46,48,50,52,54,56,58,60,62,-1,-1,-1,-1,64,66,68,70,-1,72,74,-1,-1,-1,-1,-1,-1,-1,-1,-1,-1,-1,-1,-1,-1,-1,-1,-1,-1,-1,-1,-1,-1,-1,-1,-1,-1,-1,-1,-1],"split_conditions":[5.21076E0,1.0995E0,1E0,2.2568421E-1,5.042E0,9.3333334E-2,3.1416667E-1,1.4395653E-1,1.044E0,5E0,2.535148E-2,1.986869E-2,5.817612E0,3.115E-1,6.5225E-1,1.3605264E-1,3E0,9.7764707E-1,1.370736E0,1E0,2.890516E0,5.417E0,2.6125926E-1,1.4820689E-1,6.479244E-2,-1.390781E-2,2.826642E1,2.793128E0,3E0,2E0,4.614384E0,3E0,1E0,1E0,2.496984E0,-1.1537637E-2,-2.1087065E-2,4.138003E-2,-1.0839676E-2,9.514286E-1,5.448876E0,1E0,3.802E-1,3.3184666E-2,2.6125926E-1,5.35075E0,-1.1005375E-2,7.968853E-3,-4.6378653E-3,-1.3315225E-2,5.962205E-2,-6.0205306E-3,2.018868E-2,-1.2760505E-2,-2.0218648E-3,-1.6725145E-2,-8.500736E-3,-5.3365403E-3,4.5894813E-2,5.761966E-2,2.5727972E-2,-1.29648065E-2,5.4243645E-3,-8.788114E-3,-1.5292952E-2,9.870934E-3,-8.134083E-3,-6.6442224E-3,4.4842344E-2,-1.14174E-2,-1.356915E-3,-1.4372396E-2,1.183914E-2,6.398807E-3,5.773145E-2],"split_indices":[0,13,8,13,0,13,13,13,0,15,0,0,0,13,13,13,15,13,0,10,0,0,13,13,0,0,0,0,15,15,0,15,10,8,0,0,0,0,0,13,0,10,13,0,13,13,0,0,0,0,0,0,0,0,0,0,0,0,0,0,0,0,0,0,0,0,0,0,0,0,0,0,0,0,0],"split_type":[0,0,0,0,0,0,0,0,0,0,0,0,0,0,0,0,0,0,0,0,0,0,0,0,0,0,0,0,0,0,0,0,0,0,0,0,0,0,0,0,0,0,0,0,0,0,0,0,0,0,0,0,0,0,0,0,0,0,0,0,0,0,0,0,0,0,0,0,0,0,0,0,0,0,0],"sum_hessian":[1.0740933E3,7.000406E2,3.740527E2,6.61277E2,3.8763622E1,2.941859E2,7.986677E1,3.114815E2,3.4979544E2,3.6169613E1,2.5940065E0,1.7762032E0,2.9240973E2,2.1769098E1,5.8097668E1,1.0434788E2,2.0713364E2,5.5447582E1,2.9434784E2,2.9952406E1,6.217208E0,1.12961655E2,1.7944806E2,1.9408278E1,2.3608203E0,2.2291471E1,3.5806194E1,9.2844536E1,1.150334E1,7.9132065E1,1.2800157E2,3.6902374E1,1.854521E1,1.7730026E1,2.7661783E2,2.3483881E1,6.468526E0,1.3398587E0,4.877349E0,3.8214397E1,7.474726E1,1.5406113E1,1.6404195E2,2.3640065E0,1.7044271E1,2.3069603E1,1.2736591E1,4.7602386E1,4.524215E1,5.740386E0,5.7629538E0,5.3865147E1,2.5266918E1,8.489264E1,4.3108936E1,1.8162697E1,1.8739676E1,1.40606575E1,4.4845533E0,6.9759016E0,1.0754124E1,3.2328205E1,2.4428961E2,2.9598421E1,8.615975E0,8.978124E0,6.5769135E1,1.0884086E1,4.522027E0,3.7106426E1,1.26935524E2,8.678154E0,8.366118E0,1.9818356E1,3.2512488E0],"tree_param":{"num_deleted":"0","num_feature":"21","num_nodes":"75","size_leaf_vector":"1"}},{"base_weights":[9.24055E-4,3.9269082E-2,-7.7756494E-3,-3.3462705E-4,4.758132E-1,-1.1854883E-1,-2.8452955E-3,-1.5189926E-2,1.4038198E-1,5.6172676E-2,-1.3287241E-2,-2.0040931E-1,-6.155041E-2,5.017528E-2,-6.0299695E-3,-1.1699017E-1,1.6658189E-2,3.832565E-2,-9.108938E-3,-2.6066894E-2,-9.224892E-3,-1.1217335E-1,4.7397617E-2,-1.3980932E-3,-1.513385E-1,-1.5045682E-1,-7.870261E-2,2.9965913E-1,-3.6385223E-2,3.1441897E-2,-1.6567768E-1,-5.8879396E-3,3.0374947E-1,-2.1173991E-2,-8.307462E-2,-1.5841471E-2,-5.120786E-3,-1.3295697E-2,2.111133E-3,1.1541772E-2,3.9004352E-2,4.209818E-3,-1.3435394E-2,1.8063342E-2,-1.335716E-2,1.8059198E-2,-2.1423545E-2,-2.1630675E-3,4.045505E-3,5.060525E-2,-4.825765E-3,-5.6618247E-3,-1.0925332E-2],"categories":[],"categories_nodes":[],"categories_segments":[],"categories_sizes":[],"default_left":[0,0,0,0,0,0,0,0,0,0,0,0,0,0,0,0,0,0,0,0,0,0,0,0,0,0,0,0,0,0,0,0,0,0,0,0,0,0,0,0,0,0,0,0,0,0,0,0,0,0,0,0,0],"id":17,"left_children":[1,3,5,7,9,11,13,15,17,-1,-1,19,21,-1,23,25,27,-1,-1,-1,-1,29,-1,31,33,35,37,39,41,43,45,47,49,-1,51,-1,-1,-1,-1,-1,-1,-1,-1,-1,-1,-1,-1,-1,-1,-1,-1,-1,-1],"loss_changes":[3.6053342E-1,3.4554203E0,4.8081928E-1,3.8724878E-1,9.4396687E-1,1.6271299E-1,1.3600872E0,5.4514575E-1,1.029396E0,0E0,0E0,7.343471E-2,6.918774E-1,0E0,5.652665E-1,3.9476573E-2,1.9397516E0,0E0,0E0,0E0,0E0,1.7682347E-1,0E0,1.1187019E0,8.9386106E-2,7.900059E-3,1.1531745E-1,2.9453433E-1,8.445351E-1,1.9405971E-1,3.1496593E-1,5.8772737E-1,8.675771E-1,0E0,3.3896118E-3,0E0,0E0,0E0,0E0,0E0,0E0,0E0,0E0,0E0,0E0,0E0,0E0,0E0,0E0,0E0,0E0,0E0,0E0],"parents":[2147483647,0,0,1,1,2,2,3,3,4,4,5,5,6,6,7,7,8,8,11,11,12,12,14,14,15,15,16,16,21,21,23,23,24,24,25,25,26,26,27,27,28,28,29,29,30,30,31,31,32,32,34,34],"right_children":[2,4,6,8,10,12,14,16,18,-1,-1,20,22,-1,24,26,28,-1,-1,-1,-1,30,-1,32,34,36,38,40,42,44,46,48,50,-1,52,-1,-1,-1,-1,-1,-1,-1,-1,-1,-1,-1,-1,-1,-1,-1,-1,-1,-1],"split_conditions":[3.8216667E1,3.75416E1,4.08816E1,3.611111E2,2.754976E0,2.739468E0,2.890516E0,1.044E0,9.8588234E-1,5.6172676E-2,-1.3287241E-2,1E0,2.1370731E-1,5.017528E-2,4.4180417E0,3E0,1.370736E0,3.832565E-2,-9.108938E-3,-2.6066894E-2,-9.224892E-3,2.05E1,4.7397617E-2,4.162387E0,1E0,1E0,1E0,3.528125E-1,6.3471265E0,4.0870156E0,2.793128E0,1E0,4.2722E0,-2.1173991E-2,2.0363636E-1,-1.5841471E-2,-5.120786E-3,-1.3295697E-2,2.111133E-3,1.1541772E-2,3.9004352E-2,4.209818E-3,-1.3435394E-2,1.8063342E-2,-1.335716E-2,1.8059198E-2,-2.1423545E-2,-2.1630675E-3,4.045505E-3,5.060525E-2,-4.825765E-3,-5.6618247E-3,-1.0925332E-2],"split_indices":[1,1,1,6,0,0,0,0,13,0,0,7,13,0,6,15,0,0,0,0,0,2,0,6,7,7,9,13,6,6,0,9,6,0,13,0,0,0,0,0,0,0,0,0,0,0,0,0,0,0,0,0,0],"split_type":[0,0,0,0,0,0,0,0,0,0,0,0,0,0,0,0,0,0,0,0,0,0,0,0,0,0,0,0,0,0,0,0,0,0,0,0,0,0,0,0,0,0,0,0,0,0,0,0,0,0,0,0,0],"sum_hessian":[1.0788514E3,1.9885583E2,8.799956E2,1.8323207E2,1.5623759E1,3.6516354E1,8.4347925E2,1.6654242E2,1.668965E1,1.3758893E1,1.8648655E0,1.3956351E1,2.2560001E1,4.308216E0,8.39171E2,3.904964E1,1.2749278E2,7.824229E0,8.86542E0,8.057331E0,5.89902E0,2.1333864E1,1.2261385E0,8.1422626E2,2.4944775E1,1.9273376E1,1.9776264E1,1.9390406E1,1.0810238E2,5.9025917E0,1.5431272E1,8.0338617E2,1.0840071E1,1.2119439E1,1.2825336E1,1.7290846E1,1.982531E0,1.2597036E1,7.1792274E0,7.1311283E0,1.2259277E1,6.03366E1,4.7765774E1,3.0501976E0,2.8523943E0,1.5634016E0,1.386787E1,6.0007404E2,2.0331218E2,6.605935E0,4.2341356E0,7.951876E0,4.8734603E0],"tree_param":{"num_deleted":"0","num_feature":"21","num_nodes":"53","size_leaf_vector":"1"}},{"base_weights":[5.099797E-4,5.352031E-3,-6.1028E-2,1.607893E-2,-1.9660955E-2,-1.1478119E-1,-1.5268213E-2,7.470905E-2,8.613904E-3,-2.2809504E-2,2.7655302E-2,-1.3118923E-1,-5.4497164E-2,2.8726984E-2,-9.692769E-3,-1.7345423E-1,1.3089214E-1,-3.6969762E-2,2.6850741E-2,-3.4142733E-2,2.45445E-2,-1.5563034E-1,-7.068038E-3,-1.4649357E-2,-1.4195817E-2,-5.3478565E-2,5.669497E-1,-6.9106924E-3,-1.837124E-2,5.7697E-2,3.2412866E-1,4.2783722E-2,-7.593937E-2,2.933723E-1,2.0104889E-2,-2.2519998E-2,-1.02463976E-1,4.6649907E-2,-3.4588218E-2,-2.062676E-2,-9.757284E-3,-8.04892E-3,1.3282645E-2,-8.524283E-2,2.6727676E-2,7.311352E-2,1.7793944E-2,-1.6354768E-2,1.8849699E-2,6.9409154E-2,2.054579E-2,-5.4375E-3,1.9828357E-2,-1.4257574E-2,-1.282944E-3,1.4231558E-2,5.7494678E-2,-8.073772E-3,2.778288E-3,-3.3867012E-3,1.4855626E-2,-1.2854024E-2,-6.628847E-3,-1.2748112E-2,-2.485101E-4,-1.0396559E-2,2.747523E-3],"categories":[],"categories_nodes":[],"categories_segments":[],"categories_sizes":[],"default_left":[0,0,0,0,0,0,0,0,0,0,0,0,0,0,0,0,0,0,0,0,0,0,0,0,0,0,0,0,0,0,0,0,0,0,0,0,0,0,0,0,0,0,0,0,0,0,0,0,0,0,0,0,0,0,0,0,0,0,0,0,0,0,0,0,0,0,0],"id":18,"left_children":[1,3,5,7,9,11,13,15,17,19,-1,21,23,25,-1,27,29,31,33,35,37,39,-1,41,-1,43,45,-1,-1,47,49,51,53,55,57,59,61,-1,63,-1,-1,-1,-1,65,-1,-1,-1,-1,-1,-1,-1,-1,-1,-1,-1,-1,-1,-1,-1,-1,-1,-1,-1,-1,-1,-1,-1],"loss_changes":[3.268735E-1,2.7315822E-1,1.9507733E-1,3.110815E-1,2.91376E-1,2.9095829E-2,1.6221666E-1,1.1424518E0,5.271381E-1,1.636458E-1,0E0,3.0546546E-2,3.1204356E-2,1.3404633E0,0E0,3.6341548E-3,9.155879E-1,5.6665456E-1,8.079087E-1,1.924004E-1,1.5623577E0,3.625521E-2,0E0,8.522435E-2,0E0,2.9381496E-1,1.2599611E-1,0E0,0E0,1.4524503E0,6.446105E-1,9.194211E-1,5.11803E-1,3.9031053E-1,3.4488714E-1,4.1430038E-1,2.4841547E-2,0E0,1.5807775E-1,0E0,0E0,0E0,0E0,5.5537745E-2,0E0,0E0,0E0,0E0,0E0,0E0,0E0,0E0,0E0,0E0,0E0,0E0,0E0,0E0,0E0,0E0,0E0,0E0,0E0,0E0,0E0,0E0,0E0],"parents":[2147483647,0,0,1,1,2,2,3,3,4,4,5,5,6,6,7,7,8,8,9,9,11,11,12,12,13,13,15,15,16,16,17,17,18,18,19,19,20,20,21,21,23,23,25,25,26,26,29,29,30,30,31,31,32,32,33,33,34,34,35,35,36,36,38,38,43,43],"right_children":[2,4,6,8,10,12,14,16,18,20,-1,22,24,26,-1,28,30,32,34,36,38,40,-1,42,-1,44,46,-1,-1,48,50,52,54,56,58,60,62,-1,64,-1,-1,-1,-1,66,-1,-1,-1,-1,-1,-1,-1,-1,-1,-1,-1,-1,-1,-1,-1,-1,-1,-1,-1,-1,-1,-1,-1],"split_conditions":[2.8381429E0,1E0,5.4748573E0,1.4472727E-1,2.023E0,5.02E-1,2.826642E1,2.82124E1,2.2568421E-1,5.306818E-1,2.7655302E-2,1E0,1E0,2.1030453E2,-9.692769E-3,1.1E-2,5.3404255E0,3E0,2.3162962E-1,3.7016666E-1,5.976923E-1,8.919804E0,-7.068038E-3,2.0673904E0,-1.4195817E-2,1E0,1E0,-6.9106924E-3,-1.837124E-2,4.08E0,3.19272E1,2E0,6.4128E1,4E0,1.607717E0,3.455294E-1,4.27854E0,4.6649907E-2,3E0,-2.062676E-2,-9.757284E-3,-8.04892E-3,1.3282645E-2,2.0946666E2,2.6727676E-2,7.311352E-2,1.7793944E-2,-1.6354768E-2,1.8849699E-2,6.9409154E-2,2.054579E-2,-5.4375E-3,1.9828357E-2,-1.4257574E-2,-1.282944E-3,1.4231558E-2,5.7494678E-2,-8.073772E-3,2.778288E-3,-3.3867012E-3,1.4855626E-2,-1.2854024E-2,-6.628847E-3,-1.2748112E-2,-2.485101E-4,-1.0396559E-2,2.747523E-3],"split_indices":[13,7,13,13,13,3,0,1,13,13,0,7,10,1,0,13,6,15,13,13,13,0,0,6,0,8,7,0,0,0,1,15,1,15,6,13,0,0,15,0,0,0,0,1,0,0,0,0,0,0,0,0,0,0,0,0,0,0,0,0,0,0,0,0,0,0,0],"split_type":[0,0,0,0,0,0,0,0,0,0,0,0,0,0,0,0,0,0,0,0,0,0,0,0,0,0,0,0,0,0,0,0,0,0,0,0,0,0,0,0,0,0,0,0,0,0,0,0,0,0,0,0,0,0,0,0,0,0,0,0,0,0,0,0,0,0,0],"sum_hessian":[1.0949052E3,1.01588434E3,7.902076E1,7.1122876E2,3.0465558E2,3.564311E1,4.337765E1,7.9311386E1,6.3191736E2,3.0236465E2,2.2909307E0,2.7092829E1,8.550278E0,2.8611181E1,1.476647E1,1.4255757E1,6.505563E1,1.8027814E2,4.5163922E2,2.4419943E2,5.8165226E1,1.8178165E1,8.914664E0,6.676099E0,1.8741786E0,2.560156E1,3.0096207E0,1.9685198E0,1.2287238E1,4.8125126E1,1.6930506E1,5.914228E1,1.21135864E2,1.0100236E1,4.41539E2,2.0983257E2,3.436686E1,6.0510445E0,5.211418E1,8.346021E0,9.832145E0,4.929548E0,1.7465512E0,2.396278E1,1.6387808E0,1.4979296E0,1.5116911E0,1.7787567E1,3.0337559E1,2.9341722E0,1.3996333E1,3.6799625E1,2.2342657E1,5.8309254E1,6.2826607E1,7.5534506E0,2.5467849E0,3.0566294E1,4.1097272E2,1.975328E2,1.2299768E1,1.8487408E1,1.5879454E1,1.2621599E1,3.949258E1,2.061605E1,3.3467288E0],"tree_param":{"num_deleted":"0","num_feature":"21","num_nodes":"67","size_leaf_vector":"1"}},{"base_weights":[-5.2933404E-3,-1.6971616E-2,1.9153943E-2,-8.3378494E-2,-1.2488314E-2,8.6364344E-2,-7.1638236E-3,3.071148E-2,-1.3624522E-1,2.2531255E-1,-1.8690256E-2,5.3760596E-2,2.9511204E-1,7.0940373E-3,-8.0222644E-2,-4.5735065E-2,3.1411316E-2,-1.5176426E-2,-5.8509666E-3,-1.5262188E-2,2.792011E-1,-1.2360267E-2,-1.3691013E-1,5.03696E-2,4.179475E-2,5.592309E-1,5.7752423E-2,1.7934891E-3,5.3850528E-2,-1.4701791E-1,5.3101886E-2,-9.2330325E-4,-2.152214E-2,4.5557696E-2,1.22706175E-1,-1.696666E-2,1.9532073E-1,-7.980652E-2,-1.6923105E-2,7.65643E-2,-9.560552E-2,2.5671277E-2,6.52673E-2,2.9576818E-2,-7.838066E-3,2.3811527E-2,-6.378905E-2,3.857802E-2,-1.8243553E-1,-1.6558684E-2,2.1003248E-1,-8.458585E-3,3.2885168E-2,-3.0131519E-2,2.4048954E-2,-1.3172704E-2,-1.1593034E-3,9.520058E-3,5.5801757E-2,-1.2290857E-2,1.565893E-2,1.5238158E-2,-1.3893715E-5,4.0193443E-4,-1.8509587E-2,5.067998E-5,7.004963E-3,-2.6978677E-2,-4.0113884E-3,-1.622584E-2,3.2775454E-2,-2.0273598E-2,-1.1516201E-2,2.939616E-2,1.4569524E-3],"categories":[],"categories_nodes":[],"categories_segments":[],"categories_sizes":[],"default_left":[0,0,0,0,0,0,0,0,0,0,0,0,0,0,0,0,0,0,0,0,0,0,0,0,0,0,0,0,0,0,0,0,0,0,0,0,0,0,0,0,0,0,0,0,0,0,0,0,0,0,0,0,0,0,0,0,0,0,0,0,0,0,0,0,0,0,0,0,0,0,0,0,0,0,0],"id":19,"left_children":[1,3,5,7,9,11,13,15,17,19,21,23,25,27,29,31,-1,-1,-1,-1,33,35,37,-1,39,41,43,45,-1,47,49,51,-1,-1,53,55,57,59,-1,61,63,-1,-1,-1,-1,65,67,69,71,-1,73,-1,-1,-1,-1,-1,-1,-1,-1,-1,-1,-1,-1,-1,-1,-1,-1,-1,-1,-1,-1,-1,-1,-1,-1],"loss_changes":[3.1212813E-1,2.191548E-1,6.259329E-1,2.8524595E-1,1.0277478E0,6.616869E-1,2.661578E-1,3.517222E-1,2.9757142E-2,4.034313E-1,5.051429E-1,4.4910496E-1,7.968359E-1,6.025321E-1,3.7929267E-1,9.957139E-2,0E0,0E0,0E0,0E0,3.8183677E-1,6.193698E-1,4.9841285E-2,0E0,4.189139E-1,6.1514378E-3,2.850173E-1,3.0929154E-1,0E0,1.9146359E-1,5.37824E-1,3.4216624E-1,0E0,0E0,5.6048924E-1,3.8754338E-1,4.5719504E-1,1.6492766E-1,0E0,4.0309843E-1,1.5982886E-1,0E0,0E0,0E0,0E0,1.726937E-1,2.5177383E-1,3.622401E-1,9.06688E-3,0E0,1.429492E-1,0E0,0E0,0E0,0E0,0E0,0E0,0E0,0E0,0E0,0E0,0E0,0E0,0E0,0E0,0E0,0E0,0E0,0E0,0E0,0E0,0E0,0E0,0E0,0E0],"parents":[2147483647,0,0,1,1,2,2,3,3,4,4,5,5,6,6,7,7,8,8,9,9,10,10,11,11,12,12,13,13,14,14,15,15,20,20,21,21,22,22,24,24,25,25,26,26,27,27,29,29,30,30,31,31,34,34,35,35,36,36,37,37,39,39,40,40,45,45,46,46,47,47,48,48,50,50],"right_children":[2,4,6,8,10,12,14,16,18,20,22,24,26,28,30,32,-1,-1,-1,-1,34,36,38,-1,40,42,44,46,-1,48,50,52,-1,-1,54,56,58,60,-1,62,64,-1,-1,-1,-1,66,68,70,72,-1,74,-1,-1,-1,-1,-1,-1,-1,-1,-1,-1,-1,-1,-1,-1,-1,-1,-1,-1,-1,-1,-1,-1,-1,-1],"split_conditions":[2.1E1,1.044E0,3.570224E0,3.8152E-2,1.370736E0,4.575E1,3.2716587E0,1E0,1E0,6.1E-2,6.1355557E0,3.6448846E0,1E0,3.2355478E0,3.669016E0,1E0,3.1411316E-2,-1.5176426E-2,-5.8509666E-3,-1.5262188E-2,1E0,5.7894735E0,1.7366667E-1,5.03696E-2,3.002994E0,3.0921054E-1,3.405568E0,1E0,5.3850528E-2,1.5660976E-1,3.785556E0,3.6E-2,-2.152214E-2,4.5557696E-2,3.528125E-1,3.5156734E1,1E0,1.5894872E-1,-1.6923105E-2,6.3471265E0,2.5547826E-1,2.5671277E-2,6.52673E-2,2.9576818E-2,-7.838066E-3,5.04E-1,6.489187E1,3.4746351E0,1E0,-1.6558684E-2,3.895776E0,-8.458585E-3,3.2885168E-2,-3.0131519E-2,2.4048954E-2,-1.3172704E-2,-1.1593034E-3,9.520058E-3,5.5801757E-2,-1.2290857E-2,1.565893E-2,1.5238158E-2,-1.3893715E-5,4.0193443E-4,-1.8509587E-2,5.067998E-5,7.004963E-3,-2.6978677E-2,-4.0113884E-3,-1.622584E-2,3.2775454E-2,-2.0273598E-2,-1.1516201E-2,2.939616E-2,1.4569524E-3],"split_indices":[2,0,0,0,0,1,6,10,7,13,6,6,7,6,6,8,0,0,0,0,8,6,13,0,0,13,0,10,0,13,0,0,0,0,13,1,10,13,0,6,13,0,0,0,0,13,1,6,7,0,0,0,0,0,0,0,0,0,0,0,0,0,0,0,0,0,0,0,0,0,0,0,0,0,0],"split_type":[0,0,0,0,0,0,0,0,0,0,0,0,0,0,0,0,0,0,0,0,0,0,0,0,0,0,0,0,0,0,0,0,0,0,0,0,0,0,0,0,0,0,0,0,0,0,0,0,0,0,0,0,0,0,0,0,0,0,0,0,0,0,0,0,0,0,0,0,0,0,0,0,0,0,0],"sum_hessian":[1.0911218E3,7.3860284E2,3.5251898E2,4.5598473E1,6.9300433E2,9.8552826E1,2.5396616E2,1.4571426E1,3.1027046E1,1.6716455E1,6.762879E2,8.6327156E1,1.2225673E1,2.1325172E2,4.0714436E1,1.213632E1,2.435106E0,2.5069818E1,5.9572268E0,1.8574554E0,1.4859E1,6.429654E2,3.3322514E1,1.1717808E0,8.515537E1,5.144806E0,7.080867E0,2.1213911E2,1.1126015E0,2.705649E1,1.3657946E1,1.03937E1,1.7426207E0,6.0872746E0,8.771727E0,6.299122E2,1.3053228E1,1.3297718E1,2.0024797E1,6.831167E1,1.6843704E1,2.0984335E0,3.0463724E0,2.149693E0,4.9311733E0,1.5929567E2,5.2843445E1,4.321526E0,2.2734964E1,5.6831293E0,7.974816E0,8.883497E0,1.5102022E0,1.5681511E0,7.203575E0,2.7124369E1,6.027878E2,1.1218823E1,1.834405E0,1.1653084E1,1.6446334E0,3.3858047E1,3.4453617E1,8.422484E0,8.421221E0,1.0658575E2,5.2709923E1,4.3756375E0,4.8467808E1,2.8093176E0,1.5122085E0,1.5917955E1,6.8170094E0,5.2266426E0,2.7481732E0],"tree_param":{"num_deleted":"0","num_feature":"21","num_nodes":"75","size_leaf_vector":"1"}},{"base_weights":[-7.053946E-3,2.9042678E-2,-1.5575421E-2,-1.4955678E-4,3.4959695E-1,-1.751006E-2,2.1118326E-1,-1.27709145E-2,1.0979698E-1,4.5604132E-2,-1.721218E-2,-1.0841471E-2,-1.246033E-1,4.18541E-2,-9.699363E-3,2.3898138E-2,-1.1031323E-1,-1.2895488E-3,6.99081E-2,-1.3933079E-2,4.3461025E-1,-8.210928E-2,-2.1794511E-2,-3.7972655E-2,7.810732E-2,-7.635172E-2,-1.476412E-1,-1.5858972E-2,1.0362245E-1,6.1486416E-2,-1.8255733E-2,5.915651E-3,5.4980654E-2,-1.8825062E-1,-2.9769104E-2,-1.0076648E-2,8.663984E-3,2.4996279E-2,-1.8734063E-4,-9.94745E-3,1.3015437E-3,-1.5545264E-2,-7.2480976E-3,6.7698275E-4,5.2512445E-2,4.49004E-2,-3.5684493E-3,-8.726052E-3,-1.0904807E-3,-7.661491E-3,-2.1541094E-2,4.0357843E-2,-6.932319E-3],"categories":[],"categories_nodes":[],"categories_segments":[],"categories_sizes":[],"default_left":[0,0,0,0,0,0,0,0,0,0,0,0,0,0,0,0,0,0,0,0,0,0,0,0,0,0,0,0,0,0,0,0,0,0,0,0,0,0,0,0,0,0,0,0,0,0,0,0,0,0,0,0,0],"id":20,"left_children":[1,3,5,7,9,11,13,15,17,-1,-1,19,21,-1,-1,23,25,27,-1,29,31,33,-1,35,37,39,41,-1,43,45,47,-1,-1,49,51,-1,-1,-1,-1,-1,-1,-1,-1,-1,-1,-1,-1,-1,-1,-1,-1,-1,-1],"loss_changes":[3.444176E-1,2.0018265E0,4.008575E-1,2.748601E-1,1.0700791E0,6.403818E-1,5.3489316E-1,6.381073E-1,1.3360897E0,0E0,0E0,1.1725173E0,1.9065595E-1,0E0,0E0,4.3879986E-1,5.0489843E-2,3.1611514E-1,0E0,2.7566892E-1,2.2131836E-1,2.0402956E-1,0E0,4.8884562E-1,9.569702E-1,5.8288828E-2,1.7303526E-3,0E0,4.6586233E-1,1.7436275E0,4.0345567E-1,0E0,0E0,2.071318E-2,4.8152402E-1,0E0,0E0,0E0,0E0,0E0,0E0,0E0,0E0,0E0,0E0,0E0,0E0,0E0,0E0,0E0,0E0,0E0,0E0],"parents":[2147483647,0,0,1,1,2,2,3,3,4,4,5,5,6,6,7,7,8,8,11,11,12,12,15,15,16,16,17,17,19,19,20,20,21,21,23,23,24,24,25,25,26,26,28,28,29,29,30,30,33,33,34,34],"right_children":[2,4,6,8,10,12,14,16,18,-1,-1,20,22,-1,-1,24,26,28,-1,30,32,34,-1,36,38,40,42,-1,44,46,48,-1,-1,50,52,-1,-1,-1,-1,-1,-1,-1,-1,-1,-1,-1,-1,-1,-1,-1,-1,-1,-1],"split_conditions":[3.8216667E1,3.75416E1,5.3242984E0,2.476E0,2.754976E0,4.2722E0,5.6444025E0,2.02E0,5E0,4.5604132E-2,-1.721218E-2,4.178359E0,1E0,4.18541E-2,-9.699363E-3,1.044E0,3.2E1,4.178359E0,6.99081E-2,3.32E0,1E0,4.0176735E1,-2.1794511E-2,3.611111E2,1.370736E0,3.1333334E1,6.018054E0,-1.5858972E-2,1E0,3.669016E0,5.345E1,5.915651E-3,5.4980654E-2,2.711412E0,2.890516E0,-1.0076648E-2,8.663984E-3,2.4996279E-2,-1.8734063E-4,-9.94745E-3,1.3015437E-3,-1.5545264E-2,-7.2480976E-3,6.7698275E-4,5.2512445E-2,4.49004E-2,-3.5684493E-3,-8.726052E-3,-1.0904807E-3,-7.661491E-3,-2.1541094E-2,4.0357843E-2,-6.932319E-3],"split_indices":[1,1,6,0,0,6,6,0,15,0,0,6,9,0,0,0,1,6,0,0,9,1,0,6,0,1,6,0,9,6,1,0,0,0,0,0,0,0,0,0,0,0,0,0,0,0,0,0,0,0,0,0,0],"split_type":[0,0,0,0,0,0,0,0,0,0,0,0,0,0,0,0,0,0,0,0,0,0,0,0,0,0,0,0,0,0,0,0,0,0,0,0,0,0,0,0,0,0,0,0,0,0,0,0,0,0,0,0,0],"sum_hessian":[1.1172354E3,2.1291743E2,9.043179E2,1.96062E2,1.685544E1,8.9758276E2,6.735136E0,1.7666547E2,1.939654E1,1.4103784E1,2.7516568E0,8.4600415E2,5.1578598E1,3.8120604E0,2.9230754E0,1.2894588E2,4.7719585E1,1.715958E1,2.2369585E0,8.411351E2,4.869083E0,3.673472E1,1.48438835E1,6.035741E1,6.858846E1,2.6581127E1,2.1138458E1,6.660897E0,1.0498684E1,4.48793E1,7.962558E2,1.4985285E0,3.3705544E0,1.1274446E1,2.5460272E1,4.026083E1,2.009658E1,2.1108059E1,4.7480404E1,2.1027414E1,5.553713E0,1.818065E1,2.9578075E0,9.363257E0,1.1354259E0,8.271559E0,3.6607742E1,7.5610695E1,7.206451E2,2.9539227E0,8.320522E0,1.3597616E0,2.410051E1],"tree_param":{"num_deleted":"0","num_feature":"21","num_nodes":"53","size_leaf_vector":"1"}},{"base_weights":[-5.49639E-4,1.2864738E-2,-2.016552E-2,8.091194E-3,1.8935181E-1,-7.3822853E-3,-8.461131E-2,1.2746423E-2,-2.0142291E-1,-1.3405424E-1,3.6219302E-1,1.5176383E-1,-1.6947571E-2,-1.6776426E-1,-6.0360663E-2,7.316775E-4,9.369673E-2,-2.3824874E-2,-8.525445E-3,-1.7708499E-2,-8.234732E-3,4.8769894E-1,-2.2046011E-2,-4.458287E-2,2.834484E-1,-2.0464858E-2,1.5113308E-1,-1.7968262E-2,-5.444437E-3,3.3377077E-2,-8.708944E-2,-4.949027E-2,1.6423596E-2,4.492702E-4,2.96084E-1,5.3638387E-2,1.5157461E-2,-1.0848247E-1,8.588801E-3,3.6838558E-1,-1.4348765E-2,2.1236815E-2,-2.2884315E-2,-3.0002564E-3,2.8029611E-2,-1.06538676E-1,-3.5801824E-2,-9.485799E-3,5.3080637E-3,3.5664493E-3,-4.14505E-3,9.800655E-3,-1.8241664E-2,5.9714805E-2,1.0976697E-2,-1.5650198E-2,-3.5351373E-3,2.198838E-2,5.482575E-2,-8.674853E-3,-1.2552048E-3,-1.368507E-2,-9.246233E-3,-3.882916E-3,-1.6272794E-3],"categories":[],"categories_nodes":[],"categories_segments":[],"categories_sizes":[],"default_left":[0,0,0,0,0,0,0,0,0,0,0,0,0,0,0,0,0,0,0,0,0,0,0,0,0,0,0,0,0,0,0,0,0,0,0,0,0,0,0,0,0,0,0,0,0,0,0,0,0,0,0,0,0,0,0,0,0,0,0,0,0,0,0,0,0],"id":21,"left_children":[1,3,5,7,9,11,13,15,17,19,21,23,25,27,29,31,33,-1,-1,-1,-1,35,-1,37,39,41,43,-1,-1,-1,45,47,49,51,53,-1,-1,55,-1,57,-1,-1,59,-1,-1,61,63,-1,-1,-1,-1,-1,-1,-1,-1,-1,-1,-1,-1,-1,-1,-1,-1,-1,-1],"loss_changes":[2.9167786E-1,5.530826E-1,3.7023407E-1,6.287608E-1,1.0151623E0,5.760884E-1,1.3993776E-1,6.117083E-1,3.9643466E-2,4.4229627E-4,9.513718E-1,5.675202E-1,2.1372612E-1,1.2151837E-2,6.524757E-1,4.332537E-1,1.5338936E0,0E0,0E0,0E0,0E0,7.916188E-2,0E0,8.834611E-2,5.2360106E-1,2.0194967E-1,1.8205939E-1,0E0,0E0,0E0,5.225712E-2,6.140882E-1,4.6788263E-1,1.028479E0,1.3725228E0,0E0,0E0,1.8363997E-2,0E0,1.7614746E-1,0E0,0E0,2.2799577E-1,0E0,0E0,4.520446E-3,3.7092716E-4,0E0,0E0,0E0,0E0,0E0,0E0,0E0,0E0,0E0,0E0,0E0,0E0,0E0,0E0,0E0,0E0,0E0,0E0],"parents":[2147483647,0,0,1,1,2,2,3,3,4,4,5,5,6,6,7,7,8,8,9,9,10,10,11,11,12,12,13,13,14,14,15,15,16,16,21,21,23,23,24,24,25,25,26,26,30,30,31,31,32,32,33,33,34,34,37,37,39,39,42,42,45,45,46,46],"right_children":[2,4,6,8,10,12,14,16,18,20,22,24,26,28,30,32,34,-1,-1,-1,-1,36,-1,38,40,42,44,-1,-1,-1,46,48,50,52,54,-1,-1,56,-1,58,-1,-1,60,-1,-1,62,64,-1,-1,-1,-1,-1,-1,-1,-1,-1,-1,-1,-1,-1,-1,-1,-1,-1,-1],"split_conditions":[6.986667E1,6.8416664E1,2.5359256E0,6.7703064E1,2.4026911E0,5.235E0,5.042E0,6.29508E1,1E0,4.92E0,3.1036456E0,5.143E0,2.5014265E0,1E0,5.08E0,3.5145857E0,2.272069E-1,-2.3824874E-2,-8.525445E-3,-1.7708499E-2,-8.234732E-3,4.98495E0,-2.2046011E-2,1.4E1,7.565E1,9.3333334E-2,5.615208E0,-1.7968262E-2,-5.444437E-3,3.3377077E-2,1E0,4.238E0,5.5266666E-1,1.931579E-1,1E0,5.3638387E-2,1.5157461E-2,1E0,8.588801E-3,5.176E0,-1.4348765E-2,2.1236815E-2,2.4771428E-1,-3.0002564E-3,2.8029611E-2,2.5740025E0,5.496972E0,-9.485799E-3,5.3080637E-3,3.5664493E-3,-4.14505E-3,9.800655E-3,-1.8241664E-2,5.9714805E-2,1.0976697E-2,-1.5650198E-2,-3.5351373E-3,2.198838E-2,5.482575E-2,-8.674853E-3,-1.2552048E-3,-1.368507E-2,-9.246233E-3,-3.882916E-3,-1.6272794E-3],"split_indices":[1,1,6,1,6,0,0,1,7,0,6,0,6,7,0,6,13,0,0,0,0,0,0,5,1,13,0,0,0,0,7,0,13,13,7,0,0,7,0,0,0,0,13,0,0,6,0,0,0,0,0,0,0,0,0,0,0,0,0,0,0,0,0,0,0],"split_type":[0,0,0,0,0,0,0,0,0,0,0,0,0,0,0,0,0,0,0,0,0,0,0,0,0,0,0,0,0,0,0,0,0,0,0,0,0,0,0,0,0,0,0,0,0,0,0,0,0,0,0,0,0,0,0,0,0,0,0,0,0,0,0,0,0],"sum_hessian":[1.106487E3,6.573207E2,4.4916644E2,6.4102826E2,1.6292402E1,3.757488E2,7.341763E1,6.280135E2,1.3014776E1,5.752748E0,1.0539655E1,2.046066E1,3.5528815E2,1.5240754E1,5.817688E1,5.477281E2,8.028544E1,9.084171E0,3.9306047E0,1.8163723E0,3.9363759E0,8.805814E0,1.7338402E0,8.479238E0,1.1981422E1,3.4886597E2,6.4221897E0,1.32604685E1,1.9802855E0,2.9652486E0,5.521163E1,1.2988324E2,4.1784482E2,5.5648357E1,2.4637083E1,7.171316E0,1.6344981E0,5.804801E0,2.6744363E0,1.0107681E1,1.8737414E0,2.6954756E0,3.4617047E2,2.992826E0,3.4293635E0,3.9250008E1,1.5961623E1,9.010462E1,3.9778614E1,3.1387674E2,1.03968094E2,3.6591293E1,1.9057064E1,8.5753765E0,1.6061707E1,2.8158393E0,2.9889617E0,6.754023E0,3.3536584E0,4.7176228E1,2.9899426E2,9.68097E0,2.9569038E1,1.296374E1,2.9978828E0],"tree_param":{"num_deleted":"0","num_feature":"21","num_nodes":"65","size_leaf_vector":"1"}},{"base_weights":[3.7576215E-4,4.348244E-3,-4.9659066E-2,-2.0574624E-4,1.1403834E-1,-1.0205365E-1,-1.1940806E-2,-3.7518322E-2,1.1150418E-2,2.2995245E-1,-6.771653E-2,-1.1742352E-1,-5.084289E-2,2.0711873E-2,-8.741184E-3,-8.35627E-3,-7.527481E-2,2.4715988E-1,6.2036254E-3,3.7478977E-1,-7.6304874E-3,3.4887593E-2,-1.6006081E-1,-1.3527831E-1,-6.9422506E-2,2.8788948E-3,-8.600141E-3,-4.479025E-2,5.083367E-1,3.4592494E-1,-2.5921067E-2,-9.6172415E-2,6.458227E-2,3.588265E-1,-2.1508215E-2,4.078903E-2,-4.2968043E-3,1.3795917E-1,5.6269443E-1,-2.1458924E-2,-1.0194816E-2,-1.7846407E-2,-8.434996E-3,-2.792956E-3,-7.734E-3,1.2224012E-1,-7.672726E-2,6.434804E-2,1.638694E-2,-9.671047E-3,5.6737985E-2,-9.3912585E-3,-4.0624678E-4,-1.1954888E-2,-2.1047045E-3,-1.1820292E-2,2.1653075E-2,4.5122754E-2,-1.0923839E-2,1.9977954E-3,4.6813656E-2,-1.0215486E-2,5.4393883E-4,2.1991609E-2,-1.0598241E-2,6.386358E-2,1.3210411E-2,-1.1311508E-2,2.8216228E-2,-9.082365E-3,-2.2025114E-4],"categories":[],"categories_nodes":[],"categories_segments":[],"categories_sizes":[],"default_left":[0,0,0,0,0,0,0,0,0,0,0,0,0,0,0,0,0,0,0,0,0,0,0,0,0,0,0,0,0,0,0,0,0,0,0,0,0,0,0,0,0,0,0,0,0,0,0,0,0,0,0,0,0,0,0,0,0,0,0,0,0,0,0,0,0,0,0,0,0,0,0],"id":22,"left_children":[1,3,5,7,9,11,13,15,17,19,21,23,25,27,-1,29,31,33,35,37,-1,-1,39,41,43,-1,-1,45,47,49,51,53,55,57,-1,59,61,63,65,-1,-1,-1,-1,-1,-1,67,69,-1,-1,-1,-1,-1,-1,-1,-1,-1,-1,-1,-1,-1,-1,-1,-1,-1,-1,-1,-1,-1,-1,-1,-1],"loss_changes":[2.1985438E-1,5.1187414E-1,1.595686E-1,4.177149E-1,8.7613654E-1,2.0730138E-2,1.2117818E-1,2.526399E-1,8.808542E-1,1.1450089E0,6.9746673E-1,1.23158395E-2,2.933783E-2,1.1285024E0,0E0,8.235897E-1,2.9881722E-1,8.767596E-1,2.6938993E-1,6.90315E-1,0E0,0E0,2.355671E-2,2.3230791E-2,7.70662E-4,0E0,0E0,1.7708376E-1,8.9169145E-2,6.6785014E-1,1.8636595E-1,1.5115327E-1,4.0368092E-1,6.0511017E-1,0E0,1.5269657E0,5.432155E-1,2.024255E-1,2.1965432E-1,0E0,0E0,0E0,0E0,0E0,0E0,2.363641E-1,2.817072E-2,0E0,0E0,0E0,0E0,0E0,0E0,0E0,0E0,0E0,0E0,0E0,0E0,0E0,0E0,0E0,0E0,0E0,0E0,0E0,0E0,0E0,0E0,0E0,0E0],"parents":[2147483647,0,0,1,1,2,2,3,3,4,4,5,5,6,6,7,7,8,8,9,9,10,10,11,11,12,12,13,13,15,15,16,16,17,17,18,18,19,19,22,22,23,23,24,24,27,27,28,28,29,29,30,30,31,31,32,32,33,33,35,35,36,36,37,37,38,38,45,45,46,46],"right_children":[2,4,6,8,10,12,14,16,18,20,22,24,26,28,-1,30,32,34,36,38,-1,-1,40,42,44,-1,-1,46,48,50,52,54,56,58,-1,60,62,64,66,-1,-1,-1,-1,-1,-1,68,70,-1,-1,-1,-1,-1,-1,-1,-1,-1,-1,-1,-1,-1,-1,-1,-1,-1,-1,-1,-1,-1,-1,-1,-1],"split_conditions":[2.8391428E0,1.33475E0,5.4748573E0,2.316763E0,2.238958E0,2.1E1,2.826642E1,2.0476544E0,2.372874E0,1.01404E1,2.890516E0,1E0,3.0273333E0,2.1030453E2,-8.741184E-3,7.83731E1,1E0,3.0142555E-1,1.7755102E-1,5.417E0,-7.6304874E-3,3.4887593E-2,2.2392309E0,8.919804E0,5.801112E0,2.8788948E-3,-8.600141E-3,6.4295716E0,1E0,2.6125926E-1,6.192E0,1E0,2.2211645E0,5.593164E0,-2.1508215E-2,1.7366667E-1,1.874E-1,1E0,1.0084128E1,-2.1458924E-2,-1.0194816E-2,-1.7846407E-2,-8.434996E-3,-2.792956E-3,-7.734E-3,9.57314E1,2.0946666E2,6.434804E-2,1.638694E-2,-9.671047E-3,5.6737985E-2,-9.3912585E-3,-4.0624678E-4,-1.1954888E-2,-2.1047045E-3,-1.1820292E-2,2.1653075E-2,4.5122754E-2,-1.0923839E-2,1.9977954E-3,4.6813656E-2,-1.0215486E-2,5.4393883E-4,2.1991609E-2,-1.0598241E-2,6.386358E-2,1.3210411E-2,-1.1311508E-2,2.8216228E-2,-9.082365E-3,-2.2025114E-4],"split_indices":[13,13,13,6,6,2,0,6,6,0,0,7,13,1,0,1,9,13,13,0,0,0,13,0,0,0,0,13,7,13,0,7,6,0,0,13,13,10,0,0,0,0,0,0,0,1,1,0,0,0,0,0,0,0,0,0,0,0,0,0,0,0,0,0,0,0,0,0,0,0,0],"split_type":[0,0,0,0,0,0,0,0,0,0,0,0,0,0,0,0,0,0,0,0,0,0,0,0,0,0,0,0,0,0,0,0,0,0,0,0,0,0,0,0,0,0,0,0,0,0,0,0,0,0,0,0,0,0,0,0,0,0,0,0,0,0,0,0,0,0,0,0,0,0,0],"sum_hessian":[1.1040299E3,1.0236695E3,8.036046E1,9.838224E2,3.9847107E1,3.292229E1,4.7438168E1,2.2902353E2,7.547988E2,2.4168486E1,1.5678623E1,2.432784E1,8.594449E0,3.3618587E1,1.3819577E1,1.2990775E2,9.911578E1,1.4490682E1,7.4030817E2,1.6256552E1,7.911934E0,2.3407614E0,1.3337862E1,1.6406807E1,7.9210343E0,2.6878364E0,5.906613E0,3.0438028E1,3.1805615E0,5.2533655E0,1.2465439E2,8.6502785E1,1.2612993E1,1.1851395E1,2.639287E0,1.7174496E2,5.685632E2,7.959182E0,8.297369E0,5.491974E0,7.845888E0,7.523165E0,8.883641E0,1.9947555E0,5.926279E0,4.4318647E0,2.6006163E1,1.6609008E0,1.5196607E0,1.9396877E0,3.3136778E0,2.9523794E1,9.513059E1,6.552294E1,2.0979845E1,5.8263354E0,6.7866573E0,9.927559E0,1.9238355E0,1.6476782E2,6.977156E0,5.0590263E1,5.1797296E2,6.031328E0,1.9278535E0,6.642666E0,1.6547031E0,1.911469E0,2.5203955E0,2.1685617E1,4.320546E0],"tree_param":{"num_deleted":"0","num_feature":"21","num_nodes":"71","size_leaf_vector":"1"}},{"base_weights":[1.070311E-3,5.2142097E-3,-5.3238865E-2,2.3257262E-3,9.579728E-2,-1.0119081E-1,-1.3892161E-2,-3.003134E-2,1.294599E-2,2.6991117E-1,-1.3022283E-1,-7.0212814E-3,-1.158725E-2,-5.5596143E-2,6.593168E-2,-2.2905406E-2,-1.3507147E-2,2.1607184E-1,8.537235E-3,3.57963E-1,8.538629E-2,-2.104226E-2,-9.417101E-3,-9.6811056E-2,3.4579445E-2,-7.982412E-3,4.125293E-2,-3.0074023E-2,8.0253884E-2,3.142301E-1,-1.9728726E-2,4.8215464E-2,1.4891304E-3,4.8676598E-1,5.8705058E-2,-1.0642055E-2,3.418484E-2,-1.0921048E-2,-6.3265422E-3,1.4996794E-2,-7.023604E-3,-8.481844E-3,-1.020754E-3,2.108331E-2,-1.1387154E-2,1.4135394E-3,3.9136272E-2,7.5695277E-3,-1.0727083E-2,-3.1561595E-3,2.505517E-3,1.3068127E-2,5.596711E-2,1.8007135E-2,-7.63948E-3],"categories":[],"categories_nodes":[],"categories_segments":[],"categories_sizes":[],"default_left":[0,0,0,0,0,0,0,0,0,0,0,0,0,0,0,0,0,0,0,0,0,0,0,0,0,0,0,0,0,0,0,0,0,0,0,0,0,0,0,0,0,0,0,0,0,0,0,0,0,0,0,0,0,0,0],"id":23,"left_children":[1,3,5,7,9,11,13,15,17,19,21,-1,-1,23,25,27,-1,29,31,33,35,-1,-1,37,39,-1,-1,41,43,45,-1,47,49,51,53,-1,-1,-1,-1,-1,-1,-1,-1,-1,-1,-1,-1,-1,-1,-1,-1,-1,-1,-1,-1],"loss_changes":[2.4968764E-1,2.6942593E-1,1.4699663E-1,3.4394586E-1,1.2874616E0,7.915288E-3,1.5134948E-1,1.8205312E-1,6.7285156E-1,2.6677942E-1,2.2171557E-2,0E0,0E0,1.1366274E-1,8.251295E-1,1.7460397E-1,0E0,7.0971656E-1,2.0643729E-1,4.3688416E-1,3.9178652E-1,0E0,0E0,1.6735345E-3,1.3205275E-1,0E0,0E0,2.3670748E-1,4.144233E-1,3.0200136E-1,0E0,4.839006E-1,4.899912E-1,1.4246166E-1,9.197946E-2,0E0,0E0,0E0,0E0,0E0,0E0,0E0,0E0,0E0,0E0,0E0,0E0,0E0,0E0,0E0,0E0,0E0,0E0,0E0,0E0],"parents":[2147483647,0,0,1,1,2,2,3,3,4,4,5,5,6,6,7,7,8,8,9,9,10,10,13,13,14,14,15,15,17,17,18,18,19,19,20,20,23,23,24,24,27,27,28,28,29,29,31,31,32,32,33,33,34,34],"right_children":[2,4,6,8,10,12,14,16,18,20,22,-1,-1,24,26,28,-1,30,32,34,36,-1,-1,38,40,-1,-1,42,44,46,-1,48,50,52,54,-1,-1,-1,-1,-1,-1,-1,-1,-1,-1,-1,-1,-1,-1,-1,-1,-1,-1,-1,-1],"split_conditions":[2.8391428E0,2.0081224E0,5.4748573E0,2.316763E0,2.238958E0,1.1935676E0,1E0,2.2906282E0,2.372874E0,2.6834285E0,2.2392309E0,-7.0212814E-3,-1.158725E-2,2.1E1,3.6096343E-1,2.2697794E0,-1.3507147E-2,3.0142555E-1,1.4472727E-1,1E0,1E0,-2.104226E-2,-9.417101E-3,1E0,9.27921E-1,-7.982412E-3,4.125293E-2,2.62E-1,2.6125926E-1,2.2135484E-1,-1.9728726E-2,6.3471265E0,2.5142857E-1,1.0971531E0,1.3E1,-1.0642055E-2,3.418484E-2,-1.0921048E-2,-6.3265422E-3,1.4996794E-2,-7.023604E-3,-8.481844E-3,-1.020754E-3,2.108331E-2,-1.1387154E-2,1.4135394E-3,3.9136272E-2,7.5695277E-3,-1.0727083E-2,-3.1561595E-3,2.505517E-3,1.3068127E-2,5.596711E-2,1.8007135E-2,-7.63948E-3],"split_indices":[13,13,13,6,6,6,8,6,6,13,13,0,0,2,6,6,0,13,13,8,8,0,0,10,6,0,0,13,13,13,0,6,13,6,5,0,0,0,0,0,0,0,0,0,0,0,0,0,0,0,0,0,0,0,0],"split_type":[0,0,0,0,0,0,0,0,0,0,0,0,0,0,0,0,0,0,0,0,0,0,0,0,0,0,0,0,0,0,0,0,0,0,0,0,0,0,0,0,0,0,0,0,0,0,0,0,0,0,0,0,0,0,0],"sum_hessian":[1.1072344E3,1.0295793E3,7.7654976E1,9.98757E2,3.0822361E1,3.4291744E1,4.3363228E1,2.4635434E2,7.5240265E2,1.7300661E1,1.3521701E1,1.2885657E1,2.1406088E1,2.8681885E1,1.4681343E1,2.3184407E2,1.4510266E1,1.4963749E1,7.374389E2,1.107565E1,6.225011E0,2.6933937E0,1.0828307E1,1.9634377E1,9.047509E0,1.0876926E1,3.8044164E0,2.174423E2,1.4401762E1,1.2286055E1,2.6776938E0,1.1035275E2,6.270862E2,7.3049603E0,3.7706897E0,3.8961449E0,2.3288658E0,1.2688695E1,6.9456816E0,4.1015005E0,4.946009E0,5.7027355E1,1.6041496E2,8.558672E0,5.84309E0,2.7541034E0,9.531951E0,9.421489E1,1.6137865E1,2.6087576E2,3.662104E2,1.7160206E0,5.5889397E0,1.810953E0,1.9597368E0],"tree_param":{"num_deleted":"0","num_feature":"21","num_nodes":"55","size_leaf_vector":"1"}},{"base_weights":[6.9653866E-4,9.929766E-2,-1.2221719E-3,1.6148867E-1,-2.9055297E-3,-9.486635E-3,2.2546452E-2,9.539853E-3,2.3906574E-2,5.9832387E-2,-1.6143028E-2,-1.0920783E-2,1.7525527E-1,7.0584476E-2,-2.3565868E-2,1.710356E-2,-2.7510847E-3,-1.2895927E-1,-6.435908E-3,-6.3079135E-3,2.9713312E-2,6.1201525E-1,4.6083625E-2,-1.940684E-2,7.829706E-3,1.4445071E-2,-1.0335123E-2,-1.1815083E-2,-1.5646495E-1,2.2198626E-1,-1.0715098E-2,1.5417844E-2,7.2133586E-2,1.3956955E-1,-7.969976E-3,1.3564123E-1,-3.517453E-2,-7.797303E-3,1.0703734E-2,-1.3289965E-2,-3.006492E-2,7.2857505E-4,3.3235203E-2,-1.6638199E-2,-6.94116E-4,-8.235249E-3,3.0232145E-2,-1.0677691E-2,5.0731613E-3,2.5860256E-2,-1.2685251E-2,4.8063523E-3,-9.153398E-3],"categories":[],"categories_nodes":[],"categories_segments":[],"categories_sizes":[],"default_left":[0,0,0,0,0,0,0,0,0,0,0,0,0,0,0,0,0,0,0,0,0,0,0,0,0,0,0,0,0,0,0,0,0,0,0,0,0,0,0,0,0,0,0,0,0,0,0,0,0,0,0,0,0],"id":24,"left_children":[1,3,5,7,9,11,13,-1,-1,15,-1,17,19,21,23,-1,25,27,29,-1,-1,31,33,-1,35,-1,-1,37,39,41,43,-1,-1,45,47,49,51,-1,-1,-1,-1,-1,-1,-1,-1,-1,-1,-1,-1,-1,-1,-1,-1],"loss_changes":[2.1206398E-1,1.3646437E-1,2.1626975E-1,4.548335E-2,9.992921E-2,2.1832834E-1,6.309063E-1,0E0,0E0,5.0804943E-2,0E0,4.287525E-1,2.0321824E-1,1.8207067E0,7.8138435E-1,0E0,9.803637E-2,9.368989E-2,7.6755494E-1,0E0,0E0,1.8672037E-1,6.8039376E-1,0E0,6.8629295E-1,0E0,0E0,6.1184596E-2,4.1354835E-2,3.3977765E-1,4.508373E-1,0E0,0E0,1.805625E0,5.0493443E-1,1.0470071E0,4.433651E-1,0E0,0E0,0E0,0E0,0E0,0E0,0E0,0E0,0E0,0E0,0E0,0E0,0E0,0E0,0E0,0E0],"parents":[2147483647,0,0,1,1,2,2,3,3,4,4,5,5,6,6,9,9,11,11,12,12,13,13,14,14,16,16,17,17,18,18,21,21,22,22,24,24,27,27,28,28,29,29,30,30,33,33,34,34,35,35,36,36],"right_children":[2,4,6,8,10,12,14,-1,-1,16,-1,18,20,22,24,-1,26,28,30,-1,-1,32,34,-1,36,-1,-1,38,40,42,44,-1,-1,46,48,50,52,-1,-1,-1,-1,-1,-1,-1,-1,-1,-1,-1,-1,-1,-1,-1,-1],"split_conditions":[4.521739E-2,2E0,1E0,3.2128E1,3.19272E1,3.691579E2,3.2716587E0,9.539853E-3,2.3906574E-2,1.5E1,-1.6143028E-2,1.087E0,2.4048E-2,5.57947E1,3.4965036E0,1.710356E-2,2.81228E1,5.6224E-2,1.370736E0,-6.3079135E-3,2.9713312E-2,2.0279069E-1,5.184E0,-1.940684E-2,4.095368E0,1.4445071E-2,-1.0335123E-2,1.4E1,1.044E0,3.528125E-1,2.6133333E1,1.5417844E-2,7.2133586E-2,6.2216667E1,7.9066666E1,3.895776E0,2.9684933E1,-7.797303E-3,1.0703734E-2,-1.3289965E-2,-3.006492E-2,7.2857505E-4,3.3235203E-2,-1.6638199E-2,-6.94116E-4,-8.235249E-3,3.0232145E-2,-1.0677691E-2,5.0731613E-3,2.5860256E-2,-1.2685251E-2,4.8063523E-3,-9.153398E-3],"split_indices":[13,15,9,1,1,6,6,0,0,5,0,0,0,1,6,0,1,0,0,0,0,13,0,0,6,0,0,5,0,13,1,0,0,1,1,0,1,0,0,0,0,0,0,0,0,0,0,0,0,0,0,0,0],"split_type":[0,0,0,0,0,0,0,0,0,0,0,0,0,0,0,0,0,0,0,0,0,0,0,0,0,0,0,0,0,0,0,0,0,0,0,0,0,0,0,0,0,0,0,0,0,0,0,0,0,0,0,0,0],"sum_hessian":[1.119281E3,2.0395948E1,1.0988851E3,1.23194475E1,8.076502E0,8.1582104E2,2.83064E2,7.8562274E0,4.4632196E0,6.232492E0,1.8440099E0,8.104703E2,5.350777E0,1.3837724E2,1.4468675E2,1.6203706E0,4.612121E0,2.8650728E1,7.818196E2,1.9736694E0,3.3771079E0,4.9526234E0,1.3342462E2,2.1693373E1,1.22993385E2,1.6954246E0,2.9166965E0,5.7198715E0,2.2930857E1,1.3441467E1,7.683781E2,1.419223E0,3.5334E0,4.8302753E1,8.512187E1,3.0422247E1,9.257114E1,3.8954573E0,1.8244143E0,2.1361322E1,1.5695353E0,4.9255476E0,8.51592E0,1.716752E1,7.512106E2,2.0645443E1,2.765731E1,3.1418705E1,5.3703167E1,2.0727554E1,9.694694E0,3.7433006E1,5.5138134E1],"tree_param":{"num_deleted":"0","num_feature":"21","num_nodes":"53","size_leaf_vector":"1"}},